tree
version=v4
num_class=1
num_tree_per_iteration=1
label_index=0
max_feature_idx=7
objective=lambdarank
feature_names=beta short_reversal momentum_12m1m low_volatility amihud size value_ep quality
feature_infos=none [-0.66132724285125732:4.5406031608581543] [-0.86086153984069824:10.647727012634277] [-1.2067581415176392:0] [0:15.724605560302734] [20.169546127319336:28.271858215332031] [0:0.483091801404953] none
tree_sizes=7115 7010 7009 6993 7091 6973 7039 7034 6962 6998 6974 7016 7019

Tree=0
num_leaves=63
num_cat=0
split_feature=4 3 4 1 3 3 1 3 5 4 1 6 5 3 6 1 5 4 5 6 5 4 3 1 4 1 1 4 4 1 3 1 6 5 5 1 4 3 3 4 3 6 3 3 3 4 3 6 1 6 4 4 6 1 1 6 1 6 5 3 3 5
split_gain=63.2671 60.7052 41.2051 20.8593 17.743 14.621 23.239 16.7937 14.297 27.3796 10.8645 14.3417 10.2775 9.76975 9.557 9.46847 9.32432 10.5868 8.94438 19.3567 7.55439 16.6453 12.3777 7.06431 7.14522 6.59879 6.5644 6.50906 6.47674 7.05457 6.25603 5.85816 5.14601 5.10015 13.9522 4.97177 4.84676 32.1722 19.8252 13.0473 8.93542 9.88401 6.06431 4.66756 17.0688 4.72842 6.55611 4.65692 6.28216 4.62016 18.2378 4.52413 4.5201 6.42942 6.41522 6.89034 4.42183 4.40701 4.37151 10.035 6.66187 8.10727
threshold=0.0020771098788827662 -0.2366274148225784 0.043563937768340118 -0.14786369353532788 -0.39468473196029658 -0.17173481732606885 0.073433477431535735 -0.21033514291048047 24.113448143005375 0.00090918649220839154 0.089747142046690001 0.19533932209014895 26.285415649414066 -0.20363578945398328 0.0011885824496857824 -0.078637726604938493 23.830491065979007 0.0046274096239358195 24.136605262756351 0.027548211626708511 23.871136665344242 0.0094192973338067549 -0.5573149025440215 0.089747142046690001 1.0000000180025095e-35 -0.0083220754750072939 -0.13693488389253614 0.0013281840365380051 0.00064272669260390114 0.024569608271121982 -0.33880816400051111 0.051195487380027778 0.087070241570472731 22.93876934051514 23.096390724182132 -0.11712926998734473 0.00090918649220839154 -0.27889515459537501 -0.33712364733219141 0.00064272669260390114 -0.27158677577972407 1.0000000180025095e-35 -0.26326669752597803 -0.3775122314691543 -0.38851574063301081 0.094974141567945494 -0.33880816400051111 0.025059605017304424 -0.047322619706392281 0.21505475789308551 0.0011150913778692486 0.0025862791808322076 0.085616502910852446 -0.049406209960579865 -0.025032113306224343 0.088066946715116515 0.53709951043128978 0.13116022944450381 22.16391754150391 -0.42509293556213373 -0.48456624150276179 21.967533111572269
decision_type=2 2 2 2 2 2 2 2 2 2 2 2 2 2 2 2 2 2 2 2 2 2 2 2 2 2 2 2 2 2 2 2 2 2 2 2 2 2 2 2 2 2 2 2 2 2 2 2 2 2 2 2 2 2 2 2 2 2 2 2 2 2
left_child=1 3 4 27 20 6 7 25 14 18 26 -12 31 30 -7 -4 17 -15 -10 -20 21 22 -2 24 57 -3 -11 -1 -27 -30 -6 36 56 -32 -35 -18 37 38 -5 42 41 -38 -39 44 -17 -45 -47 -40 -49 -28 -51 -22 53 -19 -54 -56 58 -21 59 60 -23 -62
right_child=2 5 15 12 13 8 -8 -9 9 10 11 -13 -14 16 -16 43 35 52 19 23 51 32 -24 -25 -26 28 49 -29 29 -31 33 -33 -34 34 -36 -37 40 39 47 -41 -42 -43 -44 45 -46 46 -48 48 -50 50 -52 -53 54 -55 55 -57 -58 -59 -60 -61 61 -63
leaf_value=0.08092741857827962 0.0055684229568342975 0.037196345391955647 0.027089045095865939 -0.067091981951770643 -0.0016483644513399784 -0.013658396428865386 -0.066258669237496806 0.083359224892182837 -0.076123002714408902 0.031384243510934801 -0.015095200803302074 0.080208968861439175 0.018013740992258911 -0.032679403320253979 0.024077174234578919 0.012125901445222735 0.039879609294958485 0.0064051375159127084 0.053023754165502091 -0.0045008736968157785 -0.012790882034228219 0.0055827445497460288 -0.023784407164180014 -0.093355568302078418 -0.020452588008182282 0.02153570430630233 -0.00062166981380343397 -0.0024708481255303334 -0.0027026751831999971 -0.081815078402561886 -0.0063958174981488605 -0.065112318417157131 0.045904264780292178 -0.048270429256622588 -0.012404537631209413 0.0087387532553744336 -0.070689345956934588 0.0075256214919538593 0.099983716738500011 -0.087713308627015457 0.013302546963889961 -0.024614598776626598 -0.04686985422024674 0.010024058353988646 0.066277247404855286 -0.045888604876758492 0.0041510654431627719 -0.065256193063816789 0.063205309179583322 -0.0035052845788313119 -0.091011433500651856 0.022136019654282628 -0.02150318234700941 -0.0058865704094299073 0.054906645292994077 0.0018809038009347926 -0.033270293230184531 -0.097073666689753951 0.011949332158242308 0.03738221136320357 0.003413393623586264 -0.031719511710978102
leaf_weight=3.8183217789992323 63.558781782950973 20.286405808343257 148.28778746772878 3.7170345853555764 156.66324058827377 28.021766295074485 7.4775071910480611 10.91178555927763 16.662308418162866 8.6370391941454709 7.223878605247589 8.7033613678649999 6.2006408725719657 28.254313424768043 41.818895293712558 124.45874408602685 14.651756203500552 147.98819101927074 5.6754031473610658 1.6385109319453501 10.324052730371475 143.86373255908984 82.578189729487349 6.5477789894939624 20.645889799823635 16.751977093401372 26.916460151172942 6.0413533852115506 10.272938942922336 3.8829744116519569 124.48146857561915 36.588011213425489 8.8148762692107976 34.141676844657923 131.76265698415591 102.35879307827418 40.458067498388118 7.3020476441743112 5.3402566624863521 16.949419993339689 4.8453446927233008 16.341251256915712 17.176761217779131 139.56503955024527 16.478756291115133 9.6139490068817413 20.51028827646951 1.2278661138916502 4.2314897031246801 20.040577982974355 8.4713079240173119 90.951191274136363 8.2278812687000009 378.44652061357192 12.792292384707254 11.757066549565932 6.6049362997582639 5.9696006819140166 292.38353343389463 19.135270161488734 33.850051737303147 31.890355531082605
leaf_count=1138 72400 1348 198370 2208 177031 20842 977 2901 332 1029 2988 165 10834 18676 46133 179647 15184 153297 6493 3710 7359 179155 70143 688 3882 331 11746 1497 858 769 107272 14419 7102 15005 135804 116731 2379 109 28 418 2070 14961 109 178378 8163 4112 31508 221 499 127 38 108602 9057 357636 1390 14805 6523 594 307637 22016 37536 10629
internal_value=1.08376e-06 -0.0172713 0.00322412 -0.0407619 3.02349e-05 -0.00281143 0.0170161 0.0270423 -0.0094774 -0.0188556 2.67741e-05 0.0369833 -0.0451015 -0.00391978 0.00893675 0.0166944 -0.000251019 -0.00281826 -0.0452901 -0.0325978 0.00583228 0.00394182 -0.0110181 -0.0465608 -0.0357163 0.0150387 -0.00916095 0.0298265 0.000495516 -0.0244032 -0.00970114 -0.0476398 0.00801642 -0.0140456 -0.0197854 0.0126381 -0.0422032 -0.0315476 0.0325063 -0.0539924 -0.0518736 -0.0574336 -0.0306436 0.0117321 0.0184574 0.00614639 -0.0118188 0.0667862 0.034313 -0.0154788 -0.0295047 0.0185756 -0.00130952 -0.0024312 0.0167058 0.0295118 0.00738356 -0.0771368 0.00789882 0.00272131 -0.000442971 -0.0136294
internal_weight=2841.19 446.794 2394.4 170.238 1935.48 276.556 69.5836 62.1061 206.973 137.132 79.9926 15.9272 160.378 1151.53 69.8407 458.915 704.477 587.466 57.1395 40.4772 783.955 682.68 146.137 34.8018 28.254 51.1943 64.0654 9.85968 30.9079 14.1559 447.049 154.178 536.543 290.386 165.904 117.011 117.59 55.9449 14.5166 41.4282 61.6447 56.7993 24.4788 310.627 140.938 169.689 30.1242 10.7996 5.45936 55.4283 28.5119 101.275 559.212 526.435 32.7772 24.5494 527.728 7.60811 521.123 228.739 209.604 65.7404
internal_count=2708009 156841 2551168 50890 1950990 105951 7184 6207 98767 31792 16093 3153 48255 1121888 66975 600178 686776 554861 15699 15367 829102 713141 142543 8874 8186 3306 12940 2635 1958 1627 435112 37421 570598 258081 150809 131915 23002 3592 2956 636 19410 17340 218 401808 187810 213998 35620 748 720 11911 165 115961 536185 510933 25252 16195 563496 4304 556973 249336 227320 48165
is_linear=0
shrinkage=0.05


Tree=1
num_leaves=63
num_cat=0
split_feature=3 6 3 6 4 1 1 3 4 6 5 1 4 6 5 6 4 1 1 3 4 3 3 5 5 6 4 1 1 6 4 1 5 4 1 4 6 5 1 4 5 4 6 3 3 4 4 4 4 5 5 3 4 4 6 5 1 4 6 3 1 5
split_gain=32.4086 28.0976 52.4589 37.7363 21.2726 15.3417 22.0299 15.2222 29.2453 37.1139 17.6932 21.8991 14.1245 24.5212 18.7447 15.6786 13.6468 13.5466 13.1749 12.3218 14.0073 10.8628 29.2947 14.8279 10.726 10.4363 9.67244 9.40482 9.29461 11.1574 9.02329 8.89162 13.7142 11.38 8.7626 11.3925 8.71743 8.43376 9.527 7.56478 13.2792 7.35355 7.16635 8.80955 7.52523 7.04645 11.5261 10.3603 6.24816 6.20476 7.42126 6.15963 8.13091 6.13159 19.8228 9.40438 9.30266 6.12914 6.11181 6.0335 6.02973 5.78827
threshold=-0.50188198685646046 0.087070241570472731 -0.28361794352531428 0.0475511271506548 0.0022494528675451879 0.073433477431535735 0.2615064829587937 -0.3176713734865188 0.00090918649220839154 0.023635076358914379 25.084516525268558 -0.10255955532193183 1.0000000180025095e-35 0.022177867591381076 25.206537246704105 1.0000000180025095e-35 0.011029225774109365 0.031350011005997665 -0.13206131756305692 -0.45168505609035486 0.015443123877048494 -0.18522777408361432 -0.19508011639118192 25.676125526428226 25.206537246704105 0.21505475789308551 0.0046274096239358195 -0.26469337940216059 0.13613832741975787 0.085616502910852446 0.0029014752944931392 0.15387071669101718 23.144762039184574 0.0015194282750599088 0.03255021013319493 0.0078517533838748949 0.013456235174089672 25.390037536621097 0.20046715438365939 0.00090918649220839154 24.749298095703129 0.0017134035006165507 0.07407411560416223 -0.61090028285980214 -0.69146618247032154 0.014594771899282934 0.025707219727337364 0.012593718711286785 1.0000000180025095e-35 23.607096672058109 23.282158851623539 -0.7385418415069579 0.019619604572653774 0.00064272669260390114 0.059523893520236022 25.954935073852543 0.027897931635379795 0.016152966767549518 0.020770590752363208 -0.29731239378452295 -0.06210073456168174 24.68617153167725
decision_type=2 2 2 2 2 2 2 2 2 2 2 2 2 2 2 2 2 2 2 2 2 2 2 2 2 2 2 2 2 2 2 2 2 2 2 2 2 2 2 2 2 2 2 2 2 2 2 2 2 2 2 2 2 2 2 2 2 2 2 2 2 2
left_child=18 3 19 7 17 34 16 8 9 -2 11 30 13 24 26 -16 31 21 39 -3 -21 22 -5 -24 36 42 -14 -10 -6 -30 -9 41 -33 -34 48 -36 -12 38 -17 40 -1 -7 -20 44 51 47 -47 49 -4 50 -18 -44 -53 56 55 -55 -23 -45 -26 -39 -56 -13
right_child=1 2 5 4 28 6 -8 10 27 -11 12 61 14 -15 15 37 45 -19 25 20 -22 53 23 -25 58 -27 -28 -29 29 -31 -32 32 33 -35 35 -37 -38 59 -40 -41 -42 -43 43 57 -46 46 -48 -49 -50 -51 -52 52 -54 54 60 -57 -58 -59 -60 -61 -62 -63
leaf_value=-0.064019084362460343 0.081921379824220375 -0.047332537626007483 -0.065568834358115405 -0.028477177333253535 -0.0031478938975045925 0.075812521840015829 -0.063922849857265693 -0.02026291931117119 0.053175144872672553 -0.035698318068696777 -0.0061840782734238252 -0.010934690963288699 -0.04735901097663027 -0.057833031483389287 -0.041578379081623262 0.0580467158498306 0.021920228944939148 -0.046144723999577017 0.0075970422675679002 -0.024029008746073995 0.010737904349934747 -0.055471438723807567 0.0050123175541103224 0.072426877263999087 0.025473403981118681 0.059911685754630066 0.016337633720287261 0.0018243104030526331 -0.0062078078282144606 -0.060998834674805893 0.0089899298620243918 0.067095969130856331 0.02144173454246313 -0.065824558492528135 -0.014646708485764296 0.018947205312962047 0.083231989308354043 -0.055636784537547501 -0.024730336606762604 0.028832652958614757 0.01741650154941245 0.034972102908888594 0.071049227216363517 -0.0085606290557625839 0.053390230133126729 0.047186241213952346 -0.034391738484106302 -0.074369753374846012 0.013875563344147707 0.076698943973605493 -0.090894911012991131 -0.077074931452760009 0.096103140525274064 -0.02650187915259309 0.013052762190112539 0.074943944947773511 0.064308096202974618 -0.050035745267355963 -0.10167706375952248 0.010944822748905434 -0.045518935174063357 -0.028233838087195241
leaf_weight=6.2243244070123209 24.598261314167758 30.474401381856296 2.4924647599400478 97.192438057230902 297.45203676654637 28.286188071186189 6.0369610066045416 30.151987662975444 9.0168458546249877 9.2209305965370714 3.1842193162883659 621.22121988148137 25.337692390952725 6.4752382688457137 13.739038338215321 18.323218815785371 4.8239965592074423 57.997963914654974 425.21902846752346 83.388649447828357 44.394249096454587 33.389350447978359 50.78579342373996 9.7173364784830465 17.067792665096935 8.9662947795877681 7.7930439241754348 801.41577560263977 21.962560073283385 16.104708430953906 209.69027813556022 12.877336385834495 16.602380525546327 4.8205624343827358 71.592767755530076 38.976638208623626 18.93463876855094 3.5146498332323963 4.2897493002092224 123.08496869351075 25.572951289577759 18.058519501486444 1.4284982076351296 22.596618900279282 8.0037304193392611 17.149890589935243 5.7922646352235452 5.2168058382376321 352.07446248441556 2.7435197871527635 2.0890276161662769 3.9454575849522362 0.81837502596317779 3.4806178342987533 5.0222922943939912 6.648211660576635 1.7037076948909078 14.704085621953707 1.000492373947053 106.65022306002356 35.12491428697831 52.436364512788714
leaf_count=102 982 2857 3135 8632 268310 1212 561 3087 10849 2390 224 776301 1638 567 1036 3139 351 7960 545977 27478 10563 9842 175 47 1009 248 3973 629292 23291 386 133191 307 252 1063 6093 5468 68 1511 310 106050 363 4478 182 2564 451 1450 711 511 48587 125 64 88 44 1201 900 557 19 1206 42 19889 1979 22671
internal_value=0.000209199 -0.00175117 0.00679692 -0.00419066 -0.0147831 0.0136573 0.0292466 -0.000792096 0.00429665 0.0498519 -0.00456131 -0.00766197 0.00795451 0.0324639 0.00158836 0.00926851 0.0339947 -0.0244321 0.0105182 -0.0187636 -0.0119503 -0.0192513 -0.0114741 0.0158397 0.0470131 0.00646882 -0.0323762 0.00239564 -0.006125 -0.0293877 0.00531238 0.0456157 0.0263173 0.00180519 0.00948475 -0.00280457 0.0703597 0.0145298 0.0423437 0.0232162 0.00147547 0.0598988 0.00546364 -0.0121523 0.0213698 0.00921174 0.02659 -0.0175943 0.0133171 0.0130778 -0.0121711 -0.0200173 -0.0473248 -0.0336174 -0.0224221 0.0400836 -0.0496563 -0.0249103 0.0184327 0.00882063 -0.0381918 -0.0122812
internal_weight=4009.1 3368.53 747.891 2620.64 636.582 589.634 124.497 1984.06 844.252 33.8192 1139.81 913.5 226.31 46.6624 179.648 146.517 118.46 301.063 640.564 158.257 127.783 243.065 157.696 60.5031 40.1871 485.682 33.1307 810.433 335.519 38.0673 239.842 80.645 34.3003 21.4229 465.136 110.569 22.1189 132.778 22.613 154.882 31.7973 46.3447 476.716 51.4968 14.1961 37.8155 22.9422 14.8733 354.567 9.65654 6.91302 6.19233 4.76383 85.3691 50.276 10.1288 35.0931 37.3007 18.0683 110.165 40.1472 673.658
internal_count=2708009 2050734 115266 1935468 323299 74368 11085 1612169 643513 3372 968656 935250 33406 1910 31496 25885 10524 31312 657275 40898 38041 23352 8854 222 1343 550760 5611 640141 291987 23677 136278 7312 1622 1315 63283 11561 292 24849 3449 106515 465 5690 550512 4535 765 3212 2161 1051 51722 540 415 314 132 14498 4637 1758 9861 3770 1051 21400 2879 798972
is_linear=0
shrinkage=0.05


Tree=2
num_leaves=63
num_cat=0
split_feature=4 6 1 1 3 2 3 1 3 4 6 6 4 3 4 3 4 6 1 6 4 2 2 1 4 3 1 6 2 3 2 6 3 4 2 2 4 4 6 6 3 1 3 2 6 3 1 3 2 4 2 1 3 3 3 2 4 3 4 3 2 1
split_gain=65.5114 43.6926 54.4806 32.8538 49.589 31.4071 27.8487 24.6508 32.6368 34.3977 25.9036 22.6753 20.9247 18.5828 18.3103 16.6101 16.4491 14.8849 18.4828 14.4146 27.9962 17.1162 23.2319 14.37 14.2346 12.4737 11.318 10.603 13.7992 10.415 10.0979 9.90074 9.83282 9.65308 9.29911 10.3344 9.26594 8.93108 8.57127 7.75126 7.70363 7.65498 7.59186 17.6938 8.31081 7.42145 7.37819 7.20834 10.2772 9.75936 7.00933 15.2719 13.1802 6.59652 6.55539 6.54251 6.50657 6.42237 8.10796 6.35971 6.2226 6.18049
threshold=0.0017134035006165507 0.083022017031908049 -0.11712926998734473 0.029044014401733879 -0.18522777408361432 -0.079693954437971101 -0.78493985533714283 0.32383351027965551 -0.65423899888992298 0.013580136932432653 0.088066946715116515 0.19533932209014895 0.006444732192903758 -0.3775122314691543 0.049307160079479224 -0.33712364733219141 0.017050132155418399 1.0000000180025095e-35 -0.20708288997411725 0.026350462809205059 1.0000000180025095e-35 0.34340600669384008 0.082720194011926665 0.073433477431535735 0.019210005179047588 -0.6008738875389098 0.052400873973965652 0.025693732313811782 0.8663315773010255 -0.42509293556213373 -0.39701066911220545 0.10411246865987779 -0.64026331901550282 0.00090918649220839154 0.022032499313354496 0.44644595682621008 0.00090918649220839154 0.021515484899282459 0.016023092903196815 0.17331074178218844 -0.60832414031028736 -1.0000000180025095e-35 -0.33382479846477503 0.27936775982379919 0.15937074273824695 -0.6823284626007079 -0.20708288997411725 -0.38690352439880366 0.29677928984165197 0.060217503458261497 -0.25785823166370386 -0.24851337075233457 -0.50525200366973866 -0.17173481732606885 -0.5102848708629607 0.25606733560562139 0.00064272669260390114 -0.51206865906715382 0.01072624931111932 -0.64714211225509632 -0.14519903063774106 0.23110514879226687
decision_type=2 2 2 2 2 2 2 2 2 2 2 2 2 2 2 2 2 2 2 2 2 2 2 2 2 2 2 2 2 2 2 2 2 2 2 2 2 2 2 2 2 2 2 2 2 2 2 2 2 2 2 2 2 2 2 2 2 2 2 2 2 2
left_child=3 2 14 5 26 15 16 8 9 31 12 36 -10 47 53 40 -3 46 -19 27 -21 22 33 -14 -18 -23 60 -20 -29 30 -12 -8 -32 -22 37 -36 -6 -34 50 54 -1 -35 43 -28 -44 -33 -7 -4 -49 -50 51 -16 -52 -2 -24 -56 -57 58 -37 -9 -5 -25
right_child=1 6 13 4 11 17 7 59 10 -11 29 -13 23 -15 38 -17 24 18 19 20 21 25 39 61 -26 -27 42 28 -30 -31 32 45 34 41 35 57 -38 -39 -40 -41 -42 -43 44 -45 -46 -47 -48 48 49 -51 52 -53 -54 -55 55 56 -58 -59 -60 -61 -62 -63
leaf_value=0.068523077622639206 -0.006529509176213576 -0.068322616313732001 -0.0078468447414867925 0.069044720190664238 0.017080315259358506 -0.097255529861200216 0.031211721197978538 -0.09104832355999426 -0.027109242240803823 0.053408913342826304 -0.045273328161457634 0.052653120742247941 0.016678110362309914 -0.014971941079019927 0.059630919020783359 0.066414887724851532 0.056799516467041095 0.053504919185691974 0.020109989140780719 -0.053187271685541243 -0.019752013005992049 0.032763165915245619 -0.051059289572738469 0.05307619617482983 -0.058410840754548159 -0.04774787637894079 0.013362647492833264 0.073547937141045613 -0.081747308477034625 -0.0086357457933464131 -0.055400978892569896 -0.087780581311918737 0.059380225554887159 0.017613175084381549 -0.02429019322158283 0.071770047811663323 -0.017554739071610457 0.0075431782204690642 0.00037150309852963033 -0.015255535733433453 -0.013257596038812509 -0.016006753554269372 -0.067630985348414316 -0.063451922338876338 -0.013206525942581699 -0.00321615881257301 -0.011429353846336639 -0.00078153154444850724 0.063999147937868969 -0.029446317055765926 0.039353485289552959 0.0036931335454409454 0.0063671528056405665 0.0079358770033307741 0.045952815722473471 0.037020544389580808 -0.0073033605938588736 0.070792151975114695 -0.073966120538697819 -0.019732912180212347 -0.011679667997898643 -0.017376773448252444
leaf_weight=3.8160436048638067 175.69461276073707 17.606078661978248 745.43204027767933 2.6040293671030694 50.180214455496753 2.7380175903381305 4.9586388733296181 6.5397958576795645 17.969330783322221 80.68025307773496 6.5750023378350297 33.417206609912682 81.976264486656873 929.05959056098072 32.713773404160747 47.062696586464881 6.5236084806965646 31.465567693201592 223.99449375091353 18.373039810932823 40.713705537491478 6.3744659675430766 2.1621428989310507 55.264096926461207 4.5516229178756475 19.612880267908622 16.213823865211456 16.41534155931004 1.5670183658949088 178.10361913368251 4.089103612874168 6.5141075056308173 23.38567074004095 69.948507022621925 15.404360871165411 1.6897286311432256 31.390634050956578 12.888903330211177 52.709093866084004 8.2489372037089179 11.734713090794683 22.33842312284105 31.089798960500048 13.944134104654948 9.0581723034701991 4.3118733085575505 29.30952959539718 277.15804250120709 11.551283674911245 3.6856270328280507 45.158790012428653 19.460000172024593 91.927191867653164 142.92534098264878 67.623095776390983 20.565996682023979 13.859448892704675 6.4738584255537699 2.1929795064497739 5.9890355517854896 28.679801420745207 3.2987021745211669
leaf_count=143 161265 65 935350 596 2268 123 23 63 9863 425 807 309 12647 1134106 3730 2892 22 591 36884 24041 4346 353 137 2748 39 2760 5913 956 24 87640 60 78 1817 5423 2719 182 4717 950 30461 576 2983 1813 3677 4400 704 61 21656 31405 1620 98 15489 16776 40016 79370 3472 478 1112 667 71 764 2995 270
internal_value=0.000291264 -0.00314339 -0.00591629 0.0123664 -0.00452493 0.0179267 0.00966942 0.0123234 0.0140396 0.0402025 0.00787359 0.0179633 0.0236957 -0.00983533 0.0078341 0.0516115 -0.0382904 0.0143838 0.0162697 0.0140665 0.00654477 0.0105878 0.014673 0.0301916 0.00945115 -0.0279992 -0.029979 0.0230755 0.0600152 -0.00212601 0.0138219 -0.0272995 0.0196979 0.000528359 0.0246481 0.00167654 0.00375182 0.0409617 0.0182035 0.0314013 0.00681079 0.00947534 -0.0411115 -0.0221541 -0.0553518 -0.0540995 -0.018762 -0.00523705 0.00141636 0.0413958 0.0231697 0.038767 0.0172335 -4.06806e-05 0.0350945 0.0369198 0.019176 0.0402995 -0.0105427 -0.0569581 -0.00496026 0.0491077
internal_weight=3948.96 3074.46 2527.48 874.502 216.578 657.924 546.987 518.305 505.776 96.4649 409.312 114.988 158.508 1966.89 560.589 62.6135 28.6813 595.311 563.263 531.797 289.821 271.448 245.46 140.539 11.0752 25.9873 101.59 241.977 17.9824 250.803 72.6996 15.7846 66.1246 133.001 62.0355 25.7609 81.5708 36.2746 241.969 112.46 15.5508 92.2869 70.3059 30.158 40.148 10.826 32.0475 1037.83 292.395 15.2369 189.26 52.1738 137.086 318.62 104.211 102.049 34.4254 10.3566 3.88271 12.5288 31.2838 58.5628
internal_count=2708009 2571667 2449686 136342 25579 110763 121981 121855 121028 587 120441 7294 25528 2102579 347107 6018 126 104745 82966 82375 44511 20470 17357 15665 61 3113 18285 37864 980 94913 7273 162 6466 11582 6406 3639 6985 2767 106472 5775 3126 7236 14694 10313 4381 139 21779 968473 33123 1718 76011 20506 55505 240635 5199 5062 1590 920 253 827 3591 3018
is_linear=0
shrinkage=0.05


Tree=3
num_leaves=63
num_cat=0
split_feature=5 6 4 3 3 4 5 6 2 6 5 4 3 4 5 6 6 3 5 5 5 4 6 2 6 6 6 2 4 6 2 5 2 5 2 2 6 5 6 6 4 3 3 3 3 6 2 3 5 5 4 2 4 4 6 6 2 5 3 5 3 3
split_gain=139.756 126.27 127.501 52.5789 32.5433 25.6382 21.9771 19.4988 16.0839 15.6885 14.5614 14.4697 13.0248 12.533 10.5872 8.81382 17.1572 10.1529 9.5281 9.24559 9.71423 8.52589 8.07777 9.80901 18.9452 13.794 8.77853 7.54228 7.48737 8.05536 13.1535 9.20821 11.0658 10.228 10.5669 7.99459 7.82885 9.11796 7.57934 7.40279 7.171 7.11959 13.4574 7.08931 9.62737 8.76836 6.71069 9.0116 6.21323 26.7849 18.0243 10.5454 7.41808 6.56932 5.92961 10.4709 7.13223 5.99946 8.40262 5.66062 5.60806 10.4481
threshold=25.084516525268558 0.083022017031908049 0.049307160079479224 -0.62510451674461354 -0.36146198213100428 0.0013281840365380051 25.305266380310062 0.014687525108456613 0.022032499313354496 0.056258793920278556 25.478691101074222 0.00090918649220839154 -0.21033514291048047 0.011496562510728838 21.847871780395511 0.19533932209014895 0.088066946715116515 -0.43092887103557581 24.015606880187992 22.668441772460941 24.977361679077152 0.025707219727337364 0.0094144232571125048 -0.13722541928291318 0.076016735285520567 0.044772798195481307 0.17331074178218844 0.29677928984165197 0.011029225774109365 0.21505475789308551 -0.10432961583137511 25.478691101074222 -0.035404341295361512 25.816235542297367 0.2173017039895058 0.097980391234159483 0.0066284458152949819 25.206537246704105 0.0048708068206906327 0.13116022944450381 0.075264900922775282 -0.69708308577537526 -0.74589687585830677 -0.77383458614349354 -0.56119796633720387 0.058840841054916389 -0.05218998342752456 -0.71387639641761769 24.113448143005375 24.136605262756351 0.0013281840365380051 0.54081988334655773 0.0054765967652201661 0.006988413631916047 0.095556639134883894 0.060132311657071121 0.094036277383565917 26.453427314758304 -0.21033514291048047 26.453427314758304 -0.61372509598731984 -0.59601867198944081
decision_type=2 2 2 2 2 2 2 2 2 2 2 2 2 2 2 2 2 2 2 2 2 2 2 2 2 2 2 2 2 2 2 2 2 2 2 2 2 2 2 2 2 2 2 2 2 2 2 2 2 2 2 2 2 2 2 2 2 2 2 2 2 2
left_child=1 2 48 14 7 6 9 60 15 -2 -8 22 -7 -10 40 16 18 -18 21 -17 -21 -5 -12 24 25 -24 54 -15 29 30 -14 36 -33 -34 35 -35 37 -32 -39 -11 -3 42 -16 -13 -45 -46 47 -44 53 50 -50 52 -51 -1 55 -25 59 -58 -59 -56 -4 -62
right_child=5 3 4 8 -6 12 10 -9 13 39 11 43 28 27 41 19 17 -19 -20 20 -22 -23 23 26 -26 -27 -28 -29 -30 -31 31 32 33 34 -36 -37 -38 38 -40 -41 -42 -43 46 44 45 -47 -48 -49 49 51 -52 -53 -54 -55 56 -57 57 58 -60 -61 61 -63
leaf_value=-0.027895849052012034 0.054320765777990734 -0.074568854638068102 0.022386602236882533 0.029300754674889257 -0.013319734402766091 -0.018425437725191739 -0.018405388234650426 -0.0090569642152904303 -0.032885013163194129 -0.018745232922930764 0.039430788320215453 -0.048248338939396451 -0.062767787949650586 -0.029206047443425084 0.06437867393954709 0.074686792904307284 0.014542628258505601 -0.014469199363024746 -0.021673943542496021 -0.04018539140579401 0.041308473722373944 0.0011511308488286454 0.036251166278917411 0.0073235758854353281 0.069746343248496323 -0.033073602750691815 -0.038202399593759956 0.022756609676629749 0.027658187545720078 0.079823650127549967 0.035270676149331055 0.073226625197592071 -0.029325584176091896 0.0028363006654379772 -0.063380926329754547 0.054128380535940671 0.026343491230574723 0.003699737512433673 -0.058687018741102319 0.031265254019026238 0.052600356823621422 0.065708145427802872 -0.056453627104829797 0.0785865157753277 0.015880238040945866 0.042642533153980748 0.039460086490612042 0.027413822166571639 0.080842566136111377 -0.029296542205198894 -0.020679801399581692 0.017926782028614047 -0.0095525441822728666 -0.018100656253420007 -0.044367257104067845 -0.056079074127998764 0.058193759628986111 -0.020726527835981536 0.028310401065969368 0.012186051594037394 -0.016355964571333356 0.013765101824594533
leaf_weight=202.06382105632292 82.789975151285034 2.8356404834776177 164.0907289859606 142.25043029055087 174.38692564421217 48.089831597972079 25.234322332020383 102.98565675965801 36.16605115562561 11.624328127240007 31.025106432025495 2.5669414335570755 7.0042606779752523 9.5271262044552696 26.028116680376115 11.647565777908314 50.246778827189701 75.421838698628562 12.226212910572938 5.1891865925499596 12.382920427757199 33.171462953701848 17.175440599923608 150.59558248504618 20.633826314064208 12.324322953838417 9.5414591281878511 26.153637832889217 48.31659249891527 3.6203768175037103 9.7938516643625935 4.4670824321510727 34.104456700726587 49.051897329467465 5.2366373700788236 8.9890630945155845 72.665007967458223 11.073168696108043 8.6882752934761793 20.360610648742295 1.820086406660266 49.875151501822984 6.0663539208471775 11.909008203991105 52.251405661772878 73.88417547136487 12.33089140375523 6.7858769053127634 12.618488808628173 96.389533603898599 6.6897366250341284 20.822003323919489 93.934455422990141 1119.6680193174543 6.6336945010407371 6.8062022149606483 12.777773112189605 10.307002144196302 57.311125898326281 13.287924902615487 31.238933234271826 367.17971421245602
leaf_count=256549 3211 51 33022 8883 230655 51742 2997 82701 20787 1510 1065 158 928 10355 202 394 3046 52979 4179 5376 449 2866 711 7999 418 734 1114 2655 4950 423 1109 362 7276 8857 238 195 11416 945 452 410 12 468 30 594 4804 5667 197 48 779 80626 8513 8891 102980 1518619 599 2709 535 730 610 1275 7080 137874
internal_value=0.000480059 -0.00493097 -0.00978584 0.0173967 0.00590706 0.0172413 0.023048 0.0109453 0.00936614 0.0428307 0.0186329 0.0205441 0.00550031 -0.0121425 0.0488668 0.0138776 0.0114283 -0.00286924 0.0210034 0.0401411 0.0172427 0.0239778 0.0150803 0.0127001 0.0329949 0.00728887 0.00889309 0.00888205 0.00987498 0.0058729 0.00460448 0.0069169 -0.00372352 -0.00725336 0.00464282 0.0107801 0.0175187 -0.00417811 -0.0237291 0.0130899 -0.024854 0.0522622 0.039167 0.0340826 0.0356136 0.0315563 0.0131095 -0.0121723 -0.0182772 -0.0107013 0.045668 -0.015856 -0.0195519 -0.0195981 0.0106367 0.00458199 0.0201367 0.0267732 0.0208357 -0.00664562 0.0146073 0.0114034
internal_weight=3852.33 2912.19 2392.07 520.125 839.882 940.141 629.04 665.495 414.383 114.775 514.265 489.031 311.101 71.8468 105.742 342.536 313.317 125.669 187.648 29.2197 17.5721 175.422 348.419 317.394 50.1336 29.4998 267.261 35.6808 263.011 214.694 211.074 204.069 101.849 97.3821 63.2776 58.041 102.22 29.5553 19.7614 31.9849 4.65573 101.086 51.2112 140.612 138.045 126.136 25.1831 12.8522 1552.19 230.454 19.3082 211.146 190.324 1321.73 257.719 157.402 100.318 80.3959 67.6181 19.9216 562.509 398.419
internal_count=2708009 2581266 2468289 112977 491332 126743 37850 260677 111969 5131 32719 29722 88893 33797 1008 78172 71953 56025 15928 6219 5825 11749 18499 17434 1863 1445 15571 13010 37151 32201 31778 30850 16928 16566 9290 9052 13922 2506 1397 1920 63 945 477 11223 11065 10471 275 78 1976957 201789 9292 192497 183606 1775168 14457 10708 3749 1875 1340 1874 177976 144954
is_linear=0
shrinkage=0.05


Tree=4
num_leaves=63
num_cat=0
split_feature=5 1 3 1 4 4 1 4 2 1 3 2 3 1 4 5 3 3 1 5 3 3 3 1 3 3 4 3 5 2 2 4 1 5 4 2 4 3 2 3 3 1 4 3 4 4 1 5 5 4 3 5 5 5 4 4 5 3 4 4 1 2
split_gain=192.548 134.337 73.776 23.443 17.3529 15.9082 19.6712 18.3705 15.7624 15.1944 12.7971 12.6553 12.5855 12.0616 11.549 15.3936 21.0242 10.4828 17.1359 10.4754 10.1487 10.3931 12.4586 9.47974 9.09126 11.1657 8.74972 8.47316 8.07839 7.80391 7.55799 8.09338 8.97754 16.9757 9.93434 7.41259 7.28253 7.04795 6.74087 6.58123 12.8199 6.34731 6.3434 6.0574 9.63719 7.0873 6.00802 5.94377 19.1246 8.22615 6.8906 9.477 6.10087 5.90611 5.84194 9.40661 6.17811 7.07503 5.83329 5.79676 5.61965 5.54716
threshold=25.084516525268558 -0.24851337075233457 -0.61372509598731984 0.029044014401733879 0.00064272669260390114 0.0017134035006165507 0.17681279778480533 0.006852080114185811 -0.32730633020400995 0.033701043576002128 -0.50366696715354908 -0.22713266313076017 -0.33546532690525049 -0.12119694054126738 0.014594771899282934 21.958603858947757 -0.65423899888992298 -0.23274984210729596 -0.17218445241451261 22.726354598999027 -0.50698465108871449 -0.61372509598731984 -0.59601867198944081 -0.12529037892818448 -0.49845501780509943 -0.69146618247032154 0.026236111298203472 -0.64026331901550282 24.343891143798832 0.59179040789604198 -0.12607887387275693 1.0000000180025095e-35 -0.10941398143768309 25.206537246704105 0.004768187878653408 0.17794028669595721 0.0084197702817618864 -0.53984528779983509 -0.029864537529647347 -1.0000000180025095e-35 -0.3775122314691543 -0.17218445241451261 0.0015194282750599088 -0.17173481732606885 0.00064272669260390114 0.0034934116993099455 1.0000000180025095e-35 21.746562004089359 21.859272003173832 0.013580136932432653 -0.18522777408361432 22.680005073547367 22.069063186645511 27.216713905334476 0.0020771098788827662 0.0011150913778692486 25.58167934417725 -0.36471043527126307 0.0013281840365380051 0.0013281840365380051 0.32383351027965551 0.29677928984165197
decision_type=2 2 2 2 2 2 2 2 2 2 2 2 2 2 2 2 2 2 2 2 2 2 2 2 2 2 2 2 2 2 2 2 2 2 2 2 2 2 2 2 2 2 2 2 2 2 2 2 2 2 2 2 2 2 2 2 2 2 2 2 2 2
left_child=1 11 14 8 -4 6 12 -7 59 10 13 20 28 -9 27 23 19 18 37 60 21 -1 -23 29 25 -13 47 41 -6 -16 -19 -32 53 38 43 -28 -36 -10 -34 40 61 58 -20 -35 -45 46 -46 -11 49 -49 -50 52 -52 -33 55 56 57 -5 -3 -2 -17 -12
right_child=3 2 4 54 5 7 -8 9 17 26 39 24 -14 -15 15 16 -18 30 42 -21 -22 22 -24 -25 -26 -27 35 -29 -30 -31 31 32 33 34 36 -37 -38 -39 -40 -41 -42 -43 -44 44 45 -47 -48 48 50 -51 51 -53 -54 -55 -56 -57 -58 -59 -60 -61 -62 -63
leaf_value=0.037522705266918734 0.070492246025849012 0.063454101286858453 -0.041607598781826655 -0.057742901777974615 -0.069444044793951318 -0.028891309229618245 -0.078501175585936944 0.0094170143810346496 0.053721735923886973 -0.021613820579411469 -0.018892925314156359 -0.0094090605958676073 0.046008445433230898 -0.015325788925637447 0.01568796439681849 0.03969194279274918 -0.0070804980181755897 0.051172933908239106 0.0074966919613687517 0.0028574174924878137 0.050319824304585647 -0.089695706006471712 0.013129727760062543 -0.017413960491512125 -0.016828581278988446 0.037472437445403586 -0.0157425006181942 0.018743038294118285 0.016969216814692867 -0.053024179105351676 0.037776097643765376 0.029470927228224472 0.022980102577655055 0.027681226267263222 -0.031490353838933699 0.021187326930992123 0.018510185842948668 0.0074703036206693807 -0.044196868897003624 -0.013774005944300003 -0.033004515746131634 -0.016796378498307313 -0.025410304587289673 0.052299600193852339 0.0099620297980793152 0.042202495743740437 -0.021137829043800953 -0.027159267335417344 -0.010956178763726765 0.041892593453750793 0.0065879112141933984 0.011046724080437312 -0.026700352686012688 0.089966924584386113 -0.011935822668021748 0.030162759592603162 0.008223932816615407 -0.0035451229114091213 -0.015708876092403838 -0.013529735858368575 -0.036904345371196703 0.00034736853461211838
leaf_weight=63.601146777247777 21.659184337622722 5.0226979009457846 54.499051605605928 8.240378989408784 4.3833843091706495 180.20861496410362 4.8544969127106006 88.373785001916985 28.953607760267914 34.916747775554541 247.70846313764923 18.859234392213693 28.304207222543482 111.27113079497212 67.087974139059952 118.94913246895157 44.838712628356006 25.577905248966999 145.45670014498683 25.430066522421839 74.021108035420184 3.2702268413631819 29.698015464629862 47.213879405746411 20.17078612199839 38.892301241321547 237.18109119257133 29.775997898999776 7.0618722831350169 4.4034683365607625 84.455530158025795 152.85881919311942 4.9430038646678467 187.37688768639055 15.800891529026559 14.413745354053388 13.507970780861795 11.51143706175935 15.272293025867837 411.28524747816846 178.1443538479798 78.139468669243797 16.284421781652782 14.151389677979749 77.287401537556434 13.647847882719359 19.434353593678679 4.9388836780562988 170.97254682474886 34.03807880578097 22.706808690345497 120.84392469246086 34.949298102990724 4.1438599552493534 47.418413174149464 36.759685337419796 81.164035967198288 22.362506470395601 4.3359656860993709 2.267687039289739 2.4438032370380816 44.136633915550192
leaf_count=2397 805 78 70849 1046 1546 264254 2229 45663 1244 48591 284686 5586 5486 142255 11402 31360 30280 1034 12950 20054 4300 383 2677 60363 24532 11249 257441 19568 3160 1042 3354 4682 244 4837 3271 10447 2057 1096 3768 494345 295736 77330 25427 1422 7799 2395 2867 4576 185276 11405 11844 67047 39586 207 22845 10552 8199 1136 5474 3506 2436 24333
internal_value=0.000769357 -0.00627189 -0.00980723 0.0189422 -0.0137741 -0.0130083 0.0165139 -0.0136884 0.0225187 -0.0121281 -0.0158035 0.0287644 0.0281178 -0.00437327 0.00907151 0.0141224 0.0228857 0.0213663 0.011464 0.0320372 0.0363902 0.025713 0.00293014 -2.69337e-05 0.0120697 0.0221629 -0.00624207 -0.00429566 -0.0161259 0.0114557 0.0245523 0.0234229 0.0210847 0.016748 0.0193856 -0.0136268 -0.00844593 0.0405642 -0.0277709 -0.0183929 -0.0224349 -0.0121358 0.00418355 0.0220009 0.0134534 0.00847256 0.00371312 -0.00185353 -7.73267e-05 0.0331428 -0.0037824 0.00308886 -0.0135904 0.0310676 0.0033437 0.00822183 0.00100554 -0.0181389 0.0267771 0.062529 0.03815 -0.0159832
internal_weight=3761.88 2711.35 2462.83 1050.54 2035.19 1980.69 44.604 1936.09 854.591 1755.88 1080.92 248.513 39.7495 199.645 427.641 310.367 191.662 830.664 202.206 146.823 170.59 96.5694 32.9682 118.705 77.9223 57.7515 674.961 117.274 11.4453 71.4914 628.458 602.88 518.425 361.422 341.207 251.595 29.3089 40.465 20.2153 881.275 469.989 87.4981 161.741 311.898 124.521 110.37 96.7218 423.366 388.45 38.977 349.473 178.5 57.6561 157.003 195.945 148.527 111.767 30.6029 9.35866 23.9269 121.393 291.845
internal_count=2708009 2581266 2530142 126743 2270755 2199906 12421 2187485 82965 1923231 1287018 51124 10192 187918 259387 156937 84130 78654 40717 53850 9757 5457 3060 72807 41367 16835 636213 102450 4706 12444 37937 36903 33549 28660 24648 267888 5328 2340 4012 1099100 604755 82882 38377 19320 14483 13061 10666 368325 319734 15981 303753 118477 51430 4889 43778 20933 10381 2182 5552 4311 33796 309019
is_linear=0
shrinkage=0.05


Tree=5
num_leaves=63
num_cat=0
split_feature=5 1 6 3 6 1 5 6 1 3 6 2 3 6 1 2 5 2 3 3 3 3 1 3 6 5 5 3 3 3 3 3 1 6 1 3 6 3 3 2 3 2 3 3 5 6 3 1 5 5 2 6 1 2 5 1 2 5 5 3 3 1
split_gain=165.39 160.376 183.658 40.5565 31.0247 29.2097 21.9335 22.215 16.0692 15.2784 14.0571 10.1332 18.3068 19.8304 21.9039 13.6798 8.20543 7.84307 14.3841 10.0815 7.65077 9.5952 12.6715 8.66088 6.594 6.48564 6.46873 11.3287 10.6521 7.22231 6.32519 8.46886 8.59101 7.06202 10.5769 5.82103 5.73569 5.70973 6.36139 6.34237 5.49051 5.41832 5.38904 10.8881 5.51872 7.26712 5.30601 5.23439 5.22375 5.15674 5.02836 4.98295 4.97715 5.97018 4.88576 4.87551 4.73976 4.65586 5.11521 4.63461 7.27454 4.62059
threshold=24.977361679077152 -0.21520011872053144 0.083022017031908049 -0.5173245072364806 0.0011885824496857824 -0.13448670506477353 22.691747665405277 0.088066946715116515 -0.11712926998734473 -0.17173481732606885 0.014205557759851219 1.0000000180025095e-35 -0.54763382673263539 0.13116022944450381 0.029044014401733879 0.35377308726310736 25.58167934417725 -0.25785823166370386 -0.50525200366973866 -0.46699889004230494 -0.36788068711757654 -0.78493985533714283 -0.0073378758970648042 -1.0000000180025095e-35 0.014038063120096924 27.216713905334476 26.453427314758304 -0.21702454239130017 -0.51371189951896656 -0.17173481732606885 -0.70787265896797169 -0.30563682317733759 0.19375136494636538 0.19533932209014895 0.011731110513210298 -0.50525200366973866 0.19533932209014895 -0.56734406948089589 -0.57984009385108937 0.94727110862731945 -0.59104996919631947 0.075304362922906889 -0.65423899888992298 -0.65073856711387623 21.992411613464359 0.1209925375878811 -0.63356292247772206 0.46078425645828253 25.478691101074222 24.749298095703129 1.8521142005920412 0.012345679569989445 0.01067955093458295 -0.035404341295361512 25.206537246704105 0.033701043576002128 -0.15059022605419156 23.553920745849613 23.571206092834476 -0.62510451674461354 -0.4427353292703628 -0.31594491004943842
decision_type=2 2 2 2 2 2 2 2 2 2 2 2 2 2 2 2 2 2 2 2 2 2 2 2 2 2 2 2 2 2 2 2 2 2 2 2 2 2 2 2 2 2 2 2 2 2 2 2 2 2 2 2 2 2 2 2 2 2 2 2 2 2
left_child=1 10 3 5 8 50 20 9 -2 -8 17 30 37 25 15 36 -10 19 24 -1 21 22 -4 -22 -19 26 27 28 -14 -29 -6 47 33 34 -33 56 -15 38 -13 -40 -12 -16 -23 -44 -45 46 -46 -32 -38 -37 -3 -5 53 -35 -36 -25 -9 -11 -59 -48 -61 -21
right_child=4 2 6 51 11 -7 7 35 16 57 40 12 13 14 41 -17 -18 18 -20 61 23 42 -24 55 -26 -27 -28 29 -30 -31 31 32 -34 52 54 49 48 -39 39 -41 -42 -43 43 44 45 -47 59 -49 -50 -51 -52 -53 -54 -55 -56 -57 -58 58 -60 60 -62 -63
leaf_value=0.027621089012040009 0.017459138702820808 0.01133389616188335 0.045746543303356091 -0.02006223267886954 0.069961850933583855 -0.014554382983616885 -0.03533035435737511 -0.032837714682731708 -0.054662773602587589 0.038194428328441048 0.024838651069555427 0.031860161060892678 0.01714443543956894 0.027664118322768851 -0.086216189576461183 -0.058579146675630855 0.029319108396412902 0.025597400547192367 -0.017040797269703322 0.071439356776044627 -0.034491608187190097 0.048048622995510555 -0.059222671723217928 -0.0030301088327000735 0.086480109071796138 -0.054223873298070213 0.010097559569757717 0.020562182327213047 -0.042782410425196281 -0.059846762884991335 -0.0047531753098299014 0.02413349119607305 -0.010337606848935522 0.042014420290821766 -0.030603517960806226 -0.027940665092633071 0.033869884735510419 0.066735828636042646 0.017622830538579055 -0.07547824020332107 -0.019942740713189425 -0.02141435779775492 -0.094554121006345151 0.048949107381333484 -0.044503266255752974 -0.056866253102658408 0.068111898643008609 0.05410246118399014 -0.022468490080605072 0.013043410390363634 -0.050538542744904318 -0.026331625455351206 0.047042768711173875 -0.0019502087767394817 0.0093993668148410012 0.029757227212991868 0.032705596483214208 -0.069692502914479454 0.018795573115133753 -0.0099449750415923476 0.043086153301001788 0.043006593111858393
leaf_weight=102.53660073257197 15.165570169083365 167.93967029021587 5.5722502763237571 633.37260199953016 6.5547964835714074 399.68236746773619 10.512615116458617 3.8278320740064364 26.977681853430116 50.72813575094915 10.199210977334589 65.570201880807872 9.2391359972389164 136.22103121684631 4.1617187798110562 5.1625550811513667 3.2599680819912455 89.89027137854282 21.107113665144425 22.17168020727695 7.6675989546347401 77.408409184907214 5.9396597254089993 14.946140372696389 4.6788298832252613 8.1305519166708091 33.992782340799749 22.278958836381211 37.566411140160199 3.1927980581094735 43.821890312661708 480.50109343750228 19.85297604178777 16.455987826440833 8.3704888634383661 50.745677695376799 6.3896150693180997 10.147265597195654 5.159810014498361 2.8340281068230979 20.811405042986735 14.342981969675746 1.7430548649281252 28.036946798340068 2.4895976853440436 2.8591690773246219 6.7727076336741368 4.1341064379375885 11.555218330962814 9.042813915977602 3.3492504440728217 634.38325318595162 48.410135113314027 14.548692426120398 86.620757877579308 46.970825491924188 9.8717651059414475 1.7187792718468689 32.7933658715192 10.788963845458051 16.141853714514603 40.190053546306444
leaf_count=6901 1443 58403 54 875469 843 481719 10278 559 6316 1350 4343 7091 1519 3476 532 820 883 20356 24034 608 10953 522 62 7332 85 1184 3595 2004 23514 375 24309 35531 2869 414 5789 57352 448 883 676 117 21867 2237 21 2249 27 951 33 431 811 2309 1045 954707 896 1138 16580 3652 800 193 4238 2043 3175 2126
internal_value=0.000232146 -0.00687558 -0.01156 -0.018216 0.0159651 -0.00715095 0.0193004 0.00567208 -0.0245427 0.0215419 0.0267302 0.0176292 0.0109611 0.00505578 0.0155025 0.0214827 -0.0456086 0.0302609 0.0202799 0.0372626 0.029446 0.0355379 -0.00841314 0.0156352 0.0286096 -0.0111833 -0.00789039 -0.0163503 -0.0309532 0.0104832 0.0210666 0.0206232 0.0220661 0.0230484 0.0211196 -0.0150059 0.0241637 0.0315762 0.0267264 -0.015384 -0.0052144 -0.0359883 0.0389977 0.0288191 0.0320244 0.0198736 0.0259359 0.000320548 -0.00240809 -0.021742 0.0101241 -0.0231994 0.0370254 0.0213844 0.00587437 0.0218427 0.014392 0.0285559 0.0143887 0.0311391 0.0218409 0.0531154
internal_weight=3697.51 2546.89 2235.31 1838.73 1150.62 570.971 396.578 169.241 45.4032 95.7529 311.585 1105.22 375.945 292.234 177.833 159.328 30.2376 280.575 115.676 164.898 227.337 157.753 11.5119 69.5846 94.5691 114.401 106.27 72.2773 46.8055 25.4718 729.271 722.716 674.76 654.907 575.492 73.4881 154.166 83.7113 73.564 7.99384 31.0106 18.5047 146.241 68.8323 67.0892 39.0523 36.1931 47.956 17.9448 59.7885 171.289 1267.76 79.4148 31.0047 94.9912 61.917 13.6996 85.2403 34.5121 33.7035 26.9308 62.3617
internal_count=2706540 2559816 2479496 2371343 146724 541167 108153 77079 8642 16059 80320 138082 49282 40515 8324 5555 7199 54110 44475 9635 31074 9137 116 21937 20441 32191 31007 27412 25033 2379 88800 87957 63217 60348 57900 61020 4735 8767 7884 793 26210 2769 9021 8499 8478 6229 5278 24740 1259 59661 59448 1830176 2448 1552 22369 10984 1359 5781 4431 5251 5218 2734
is_linear=0
shrinkage=0.05


Tree=6
num_leaves=63
num_cat=0
split_feature=5 1 3 1 4 1 4 5 5 2 5 2 1 3 3 4 4 2 5 4 1 4 3 3 5 4 5 1 3 4 5 5 4 1 4 5 5 3 5 4 4 4 4 4 1 1 4 4 3 3 3 3 3 2 5 3 1 4 1 3 5 2
split_gain=187.181 186.347 57.0047 21.7958 16.1789 19.8468 16.113 15.4771 26.3257 14.6276 13.3382 15.2642 14.4115 13.421 12.2941 10.8024 11.7776 15.9586 10.7679 10.3759 9.78259 14.9973 11.116 8.31179 8.14638 8.08612 9.76877 7.75541 9.31794 7.66343 7.31485 11.2295 9.57025 9.02957 7.11423 6.36649 22.3729 6.92104 7.61738 6.17941 18.137 6.00143 5.84007 5.60731 9.0909 7.47013 5.54951 8.67427 11.6521 13.1365 8.20357 6.32533 17.7345 5.41027 5.2905 5.02032 7.39188 4.85518 4.83123 4.82962 4.59432 4.58958
threshold=24.977361679077152 -0.20708288997411725 -0.62510451674461354 0.034827206283807761 0.0017134035006165507 -0.11712926998734473 0.049307160079479224 21.982142448425297 22.726354598999027 0.071760732680559172 25.305266380310062 -0.13722541928291318 0.32383351027965551 -0.53008070588111866 -0.21033514291048047 0.006852080114185811 0.025976977311074737 0.32310387492179876 25.676125526428226 0.0020771098788827662 -0.13448670506477353 0.0013281840365380051 -0.50525200366973866 -0.42661355435848231 25.58167934417725 0.0044912500306963929 27.216713905334476 -0.31594491004943842 -0.4591726660728454 0.021312575787305835 21.992411613464359 22.486190795898441 0.051974361762404449 0.23110514879226687 0.047435363754630096 21.757002830505375 21.859272003173832 -0.17173481732606885 22.680005073547367 0.00064272669260390114 0.00090918649220839154 0.03763649798929692 0.049307160079479224 0.00064272669260390114 0.084034960716962828 -0.17218445241451261 1.0000000180025095e-35 0.00090918649220839154 -0.60330644249916066 -0.77383458614349354 -0.58200585842132557 -0.78493985533714283 -0.72570663690567005 -0.25785823166370386 22.069063186645511 -0.36310733854770655 -0.13206131756305692 0.011952531989663841 0.045885693281888969 -0.52643620967864979 22.5208854675293 -0.17575007677078244
decision_type=2 2 2 2 2 2 2 2 2 2 2 2 2 2 2 2 2 2 2 2 2 2 2 2 2 2 2 2 2 2 2 2 2 2 2 2 2 2 2 2 2 2 2 2 2 2 2 2 2 2 2 2 2 2 2 2 2 2 2 2 2 2
left_child=1 6 7 20 10 25 19 -3 9 30 43 18 24 -14 -7 -5 35 -18 -12 -1 21 -4 42 -19 -13 -6 41 28 -8 -11 -9 32 -32 34 -33 -17 57 -38 54 -22 -41 -27 -23 -2 45 -45 -26 51 49 -49 -50 -48 -53 -30 -39 56 59 -37 -16 -47 -31 -59
right_child=4 2 3 15 5 14 27 8 -10 29 11 12 13 -15 58 16 17 23 -20 -21 39 22 -24 -25 46 26 -28 -29 53 60 31 33 -34 -35 -36 36 37 38 -40 40 -42 -43 -44 44 -46 55 47 48 50 -51 -52 52 -54 -55 -56 -57 -58 61 -60 -61 -62 -63
leaf_value=0.045959789042008765 0.043187610868026055 -0.011713997324027755 0.061176181210242923 -0.027675682020225714 0.0026103126630536537 -0.028183392270636209 0.032016265067181866 0.063462522715819286 -0.015186274042931306 -0.015386382892198333 -0.017582729100350507 -0.011082771428719345 -0.084331265654174647 0.023952611993543801 0.0069977024296269579 -0.023216967758049534 -0.020409093571926828 -0.020568674224871755 0.040986089241961177 -0.0062027090400994193 -0.040091825953946357 -0.018352640321279354 -0.025351437199446283 0.068704186576679371 0.036182905009810029 0.025110191714759394 0.071672340147671015 0.024554024876594874 0.068160156087045384 0.003238994951067472 -0.021033069976107068 0.050850821730003173 0.029026724431398039 -0.026909868278515239 -0.0052485466763128328 -0.029584299296471817 -0.012991522180507692 0.0030296144649855105 0.0080161322306619622 0.074683315102672898 -0.022464368537377571 -0.019263954149008538 0.013560560104640539 0.047794429595629205 0.052605062647467976 0.043515156295451773 0.072996175455379217 -0.049703343455721798 -0.04838979291983541 0.061886530581290657 0.01915808192498256 -0.073673913989925871 0.0094021978892919328 -0.016923311544870891 -0.029306779987441314 0.017017807177750668 -0.056029597483581529 0.061268258186025548 -0.019570686031378987 -0.053082828012788665 0.043599263198102416 0.025578811513734142
leaf_weight=11.676131919179168 75.959100140520604 90.246583653097332 7.2222411996335714 74.469518092908402 49.749249183019856 39.067375591515884 80.914647021007113 16.279327850264963 63.381366389272443 30.698462194726744 8.6224092580850975 27.675647191092139 7.0608757940972282 4.8114227482583356 126.20704656884118 34.364260892412858 200.97394330277893 3.8830686880392022 87.333530349722423 51.950225085282 49.474556228360598 21.671212735309382 78.043722194986913 7.9361101675385708 34.341246642696206 117.10868686927279 10.852907568216322 176.20793358922674 32.04727368328895 16.466608522943719 17.717787525558379 54.903734525178152 20.703900502641773 4.6900117735931408 6.299797335992479 2.9920387324746107 154.64835711770502 22.900404605083168 127.17556323397002 4.8308348975697291 878.20032106802682 8.1499217940399813 42.351415081888263 16.511754798753827 23.948509668851329 5.0695459345588461 3.661473865446168 2.9220630360578097 4.5987158245552555 27.069153175281826 199.09585259254163 6.6408741399354758 196.72059893551341 1.9840696863248002 28.255908605591685 53.928585189962178 6.3865087862177443 12.87251721540815 19.794334370744764 1.7374029078928286 12.331331539757228 30.006252966057218
leaf_count=688 2448 81188 383 109883 4354 49020 4968 538 71712 25122 1529 5880 345 460 24421 49822 265956 3514 3280 55421 70068 23864 117027 935 1802 5550 43 23099 640 7006 22318 5905 4731 2012 1793 2952 185685 11501 64805 451 1278022 551 10679 164 1512 56 122 261 219 534 13859 184 13485 5232 38745 3749 1420 2301 11369 107 1460 9390
internal_value=0.000419485 -0.00737078 -0.0129934 -0.0165446 0.016941 0.00831979 0.0261637 0.00597215 0.0125278 0.0222815 0.020968 0.0174151 0.0140012 -0.0404476 -0.00327057 -0.00967316 -0.0075316 -0.0170885 0.0357232 0.00336968 -0.0209939 -0.00911059 -0.0126838 0.0393745 0.0152871 0.0198608 0.0261659 0.0311449 0.0412485 0.00199397 0.0322905 0.0274259 0.00594214 0.0399527 0.0450764 -0.00261007 -0.000740893 -0.00525068 0.00146214 -0.0228963 -0.0219329 0.022223 0.00275816 0.032787 0.0254435 0.0176658 0.0168233 0.0153148 0.0219172 0.0510143 0.0176331 0.00786203 0.0066893 0.0631997 -0.0148312 0.0102543 -0.0173918 0.031996 0.00339566 0.0188595 0.0205213 0.036293
internal_weight=3635.8 2470.77 2115.99 1782.27 1165.02 370.93 354.78 333.719 243.472 180.091 794.095 610.554 514.598 11.8723 185.069 700.478 626.008 212.793 95.9559 63.6264 1081.79 149.289 142.066 11.8192 502.726 185.861 136.112 291.154 114.946 59.4964 120.595 104.315 38.4217 65.8935 61.2035 413.215 378.851 332.98 178.332 932.506 883.031 125.259 64.0226 183.541 107.582 83.6338 475.05 440.709 233.686 29.9912 203.695 207.023 203.361 34.0313 51.1563 67.122 13.1935 45.8708 146.001 6.80695 28.7979 42.8788
internal_count=2706540 2559816 2469768 2245983 146724 95308 90048 223785 142597 70885 51416 41960 37151 805 84810 745489 635606 270405 4809 56109 1500494 151953 151570 4449 36346 10498 6144 33939 10840 33588 37297 36759 27049 9710 7698 365201 315379 300736 115051 1348541 1278473 6101 34543 9456 7008 5496 30466 28664 14873 795 14078 13791 13669 5872 50246 5332 1583 14643 35790 163 8466 11691
is_linear=0
shrinkage=0.05


Tree=7
num_leaves=63
num_cat=0
split_feature=4 1 6 1 3 3 6 2 3 2 6 3 3 3 4 4 4 4 3 2 1 3 6 3 4 6 3 3 6 3 3 1 2 1 3 2 4 6 6 6 4 6 4 6 3 1 1 6 4 4 1 4 6 6 4 6 6 4 6 6 6 6
split_gain=142.131 154.116 183.77 51.9652 31.2606 26.3505 27.4467 11.4079 13.2921 13.0258 12.2523 12.77 9.28882 22.3227 15.3738 8.87487 8.40755 7.90753 7.71218 17.6819 8.05404 7.33911 7.1629 6.23369 6.18384 5.84636 9.31175 14.3641 6.69414 5.88429 5.66842 5.65386 5.36227 5.27765 4.93317 4.88043 4.75101 6.83307 5.63838 12.5994 5.68547 6.75597 6.30429 4.64435 8.54396 4.56671 4.44596 4.9888 4.6673 7.15826 4.50783 4.57613 4.37576 4.62827 4.18802 4.1226 4.05891 13.1425 23.2844 21.5826 14.7336 7.48327
threshold=0.0017134035006165507 -0.21520011872053144 0.083022017031908049 -0.11712926998734473 -0.54763382673263539 -0.41191178560256952 0.088066946715116515 -0.17575007677078244 -0.33712364733219141 -0.40678133070468897 0.0011885824496857824 -0.23274984210729596 -0.17173481732606885 -0.51371189951896656 0.049960704520344741 0.049307160079479224 0.0091358767822384852 0.0057532202918082484 -0.46072475612163538 -0.25785823166370386 -0.36188308894634241 -0.21033514291048047 0.0060009649023413667 -0.30563682317733759 0.059327965602278716 0.0060938464011996993 -0.69708308577537526 -0.6823284626007079 0.011992591898888351 -0.56344646215438832 -0.47156393527984614 0.070157583802938475 -0.25486528873443598 0.24000694602727893 -0.81530365347862233 -0.42267741262912745 0.004768187878653408 0.058292087167501457 0.0016537674819119277 0.0054208794608712205 0.0095633533783257025 0.0037169884890317921 0.034265285357832916 0.060132311657071121 -0.26040498912334437 -0.020118137821555134 0.082292206585407271 0.19533932209014895 0.020654135383665565 0.0044912500306963929 -0.036142185330390923 0.0063145160675048837 1.0000000180025095e-35 0.0054208794608712205 0.047435363754630096 0.018271515145897869 0.014870998449623586 1.0000000180025095e-35 0.022177867591381076 0.024458954110741619 0.026350462809205059 0.021874660626053814
decision_type=2 2 2 2 2 2 2 2 2 2 2 2 2 2 2 2 2 2 2 2 2 2 2 2 2 2 2 2 2 2 2 2 2 2 2 2 2 2 2 2 2 2 2 2 2 2 2 2 2 2 2 2 2 2 2 2 2 2 2 2 2 2
left_child=4 15 3 12 25 16 17 8 9 -6 -9 -12 13 14 -3 32 -4 -7 30 20 -20 35 -10 -24 45 34 28 -28 -27 -29 55 43 -2 56 -1 -8 37 -14 -38 40 41 -40 -42 44 -25 -19 47 50 49 -49 51 -23 -34 -54 -18 -17 -13 58 61 -59 -61 -58
right_child=1 2 5 -5 7 6 21 10 22 -11 11 33 36 -15 -16 18 54 24 19 -21 -22 46 23 31 -26 26 27 29 -30 -31 -32 -33 52 -35 -36 -37 38 -39 39 -41 42 -43 -44 -45 -46 -47 -48 48 -50 -51 -52 -53 53 -55 -56 -57 57 59 -60 60 -62 -63
leaf_value=-0.054369643445273598 -0.031913417656460767 -0.018896947650809483 -0.0051964303163675781 -0.021315538991725433 -0.045612606599597393 -0.032007233693237318 0.069998705973331021 -0.022312592447330623 0.07088476269348909 0.028049024495228558 -0.0030264932381799886 0.024701170900219501 -0.022423915993695344 -0.03398968646690359 0.013778022607267865 0.025295064413180843 0.04106818864772753 -0.020989340507489299 0.082626371327896034 -0.025303063202844533 0.040939708691589721 0.028782526815053985 -0.024292913190234605 0.049483893294064059 -0.073469092775873018 -0.010830432789048232 -0.069731935634038705 0.030581459326812041 0.055579417874023186 -0.030224004162744508 -0.022683115845757863 -0.065741907506699254 -0.017169219590584355 -0.028435828745450809 0.054052843594325641 -0.031918441643902028 -0.0080931098779103774 0.039176420246872026 -0.085007131754142554 0.0069507798413273678 0.064096948347213453 0.044375274789420084 -0.011950842415073971 0.050298690588190191 -0.02360828568034604 0.03094450666960788 -0.034495108449393852 0.033208229853192155 0.072376922257796308 -0.031226826188775304 -0.017985469653589777 -0.023469086072358342 0.03464474195177434 0.0086688355972261415 -0.026341394747789872 -0.028452519701198088 -0.0023089976982789977 -0.025162776857698944 -0.05081839257123686 0.057996243882243906 0.01729531186996262 0.061180863045710132
leaf_weight=1.0708213000543754 7.0534791495192612 56.138974409230286 11.123936594285622 1479.5377970810077 10.144504839747244 5.7358002729233695 1.2206842365558248 26.435347854971042 15.199710632470667 14.695307317637342 111.39223552784097 109.29641310508305 23.80168539215811 59.201595160080615 100.34620331597762 214.6935013803195 138.97557759511983 4.3831419758607799 14.985411886576911 8.7342534442359447 51.0871868236718 13.929155721503777 4.4938928789051706 9.2291414198771253 1.4846629262574413 4.230294172979483 4.3865866952401111 42.477927279953292 36.846042449007655 4.3899617196802856 6.5847912996832738 1.3024421827649337 10.295322884961932 6.7364226810459504 51.779994949414686 31.138222108431364 30.049141645697091 5.5519265854236428 1.714578108149001 89.60276686517318 21.23322578769876 2.4517154313143692 3.1265087659921837 33.968150347329356 7.0539687119453438 123.52897494992067 8.3167468836982135 13.705630332973675 3.9571570811676784 6.2876477221361702 28.287945543281239 5.993129484835662 26.073726849830564 50.093936396187928 2.3429689763579509 3.6280273592274161 10.239809796788904 28.583660052536288 20.318705999852682 23.794078299571993 339.39201444240462 8.4884406536875758
leaf_count=559 6744 62447 4464 2100733 1349 8024 434 23362 250 2410 22970 20668 5217 97219 20475 10693 8021 5160 301 15052 2051 2452 420 254 742 430 168 3092 1255 506 767 456 14468 825 3487 45212 26268 494 416 46298 3578 345 3305 555 180 7848 5293 1155 310 3285 20206 7896 5981 23630 772 2325 6748 1850 27265 349 16845 206
internal_value=0.000412274 -0.00544852 -0.0104482 -0.0170218 0.0172893 0.0202971 0.0102402 0.0133277 0.029461 -0.00203416 0.0110636 0.012404 -0.000865845 -0.00783788 0.00205589 0.0234532 0.0366561 0.0254408 0.027649 0.0415561 0.0503943 -0.00796401 0.0404415 0.0321855 0.0279873 0.0385942 0.031003 0.0167882 0.0487401 0.024886 0.0230233 0.0371087 0.0100058 0.0155471 0.0518561 -0.0280738 0.00760462 -0.0107729 0.0112451 0.0161643 0.0451049 -0.00887019 0.0543364 0.0397744 0.0178198 0.0291649 0.000121863 0.00411158 0.0227638 0.0129442 -0.00515469 0.0130639 0.0134255 0.0175609 0.0399506 0.0244019 0.0160957 0.0139125 -0.0137495 0.0166695 0.0199618 0.0264673
internal_weight=3592.34 2666.4 2273.17 1872.76 925.946 400.411 247.969 780.764 96.0871 24.8398 684.677 658.242 393.218 215.687 156.485 393.23 152.442 135.133 299.713 74.8069 66.0726 112.836 71.2473 56.0476 129.397 145.182 92.3308 51.2545 41.0763 46.8679 224.906 51.5537 93.5165 546.85 52.8508 32.3589 177.532 29.3536 148.178 118.129 28.526 4.16629 24.3597 50.2513 16.2831 127.912 80.4774 72.1607 23.9504 19.9933 48.2102 19.9223 86.463 76.1677 141.319 218.322 540.113 430.817 39.047 391.77 363.186 18.7283
internal_count=2706540 2570081 2488069 2366795 136459 121274 108017 126962 5874 3759 121088 97726 266062 180141 82922 82012 13257 21774 31189 17404 2352 86243 2115 1865 13750 9497 5451 3766 1685 3598 13785 1445 50823 74756 4046 45646 85921 5711 80210 53942 7644 761 6883 989 434 13008 40597 35304 4750 4440 30554 10348 44079 29611 8793 13018 73931 53263 34219 19044 17194 6954
is_linear=0
shrinkage=0.05


Tree=8
num_leaves=63
num_cat=0
split_feature=5 6 4 3 6 6 4 2 3 5 3 4 5 6 5 3 5 2 5 2 3 6 6 5 3 3 3 4 3 4 2 5 6 2 2 4 4 6 6 6 6 6 5 4 5 5 2 4 2 3 3 5 5 5 3 3 6 2 3 2 3 3
split_gain=197.497 134.309 132.11 43.61 27.5595 23.8949 17.1895 15.1081 11.1897 10.5561 10.375 9.59969 9.37081 21.2915 10.8268 9.49884 8.58702 20.7404 12.5523 11.0027 7.84467 6.79291 8.90234 6.63289 6.59 6.48299 8.55476 12.8721 7.53187 13.0431 6.38468 5.96445 9.35777 8.59205 6.3849 6.11627 5.97097 5.56634 5.38974 5.9796 5.37259 11.1611 5.36103 5.35604 9.31363 7.88069 7.40664 5.31069 5.29664 5.29547 7.41921 5.28481 5.2634 5.14474 4.93217 4.88797 5.86926 5.30449 4.88607 7.54001 11.7507 10.1692
threshold=24.977361679077152 0.083022017031908049 0.049307160079479224 -0.36146198213100428 0.018271515145897869 0.027548211626708511 0.0065752947703003892 -0.13722541928291318 -0.61090028285980214 27.216713905334476 -0.2366274148225784 0.00064272669260390114 21.859272003173832 0.088066946715116515 21.757002830505375 -0.39468473196029658 24.113448143005375 0.56439688801765453 24.136605262756351 -0.25785823166370386 -0.6008738875389098 0.0067743826657533654 0.005824125139042736 26.453427314758304 -0.29731239378452295 -0.69708308577537526 -0.74589687585830677 0.019210005179047588 -0.76389452815055836 0.015272380318492653 -0.29951979219913477 25.206537246704105 0.19533932209014895 0.082720194011926665 0.25606733560562139 0.0011150913778692486 0.00090918649220839154 0.055172419175505645 0.0060938464011996993 0.0064215795136988172 0.005824125139042736 0.0047431618440896281 27.216713905334476 0.16965753585100177 22.14616680145264 22.041351318359379 1.3934788703918459 0.034992476925253875 -0.074696961790323244 -0.41906994581222529 -0.46072475612163538 26.285415649414066 21.775444984436039 21.412739753723148 -0.5573149025440215 -0.74589687585830677 0.019483681768178943 -0.16172888875007627 -0.6008738875389098 -0.25785823166370386 -0.45611751079559321 -0.50525200366973866
decision_type=2 2 2 2 2 2 2 2 2 2 2 2 2 2 2 2 2 2 2 2 2 2 2 2 2 2 2 2 2 2 2 2 2 2 2 2 2 2 2 2 2 2 2 2 2 2 2 2 2 2 2 2 2 2 2 2 2 2 2 2 2 2
left_child=1 2 16 4 43 9 -3 23 25 11 20 21 14 -14 -10 -15 -1 18 19 24 37 22 -2 30 -18 26 28 -28 29 -8 -7 32 -12 36 -35 -34 42 51 -24 -40 41 -13 -33 46 45 49 58 -16 -29 50 -45 -9 -52 -51 -19 57 -57 -42 -4 60 -60 -61
right_child=5 6 3 -5 -6 7 8 10 12 -11 31 40 13 15 47 -17 17 54 -20 -21 -22 -23 38 -25 -26 -27 27 48 -30 -31 -32 33 35 34 -36 -37 -38 -39 39 -41 55 -43 -44 44 -46 -47 -48 -49 -50 53 52 -53 -54 -55 -56 56 -58 -59 59 61 -62 -63
leaf_value=-0.023684483047546587 0.028273055246652686 -0.020762903808962011 0.019119548815326824 -0.019142333402447736 -0.026540114104057062 0.042197073593375739 -0.074774034569096565 -0.079381478809691042 -0.045731402645602853 0.041503495414457567 0.0019102644710240872 0.013397142730209123 0.022537563843267269 0.0052082679003794194 0.045280591281733458 -0.029274367890272698 0.067193804703938195 0.037171107110764545 -0.025306101064865711 -0.023042453379783712 -0.020088432435290713 0.042577773074776816 -0.09647892814973158 0.046206195642434285 -0.10283903559957897 0.047230194317017013 -0.064890899355461801 -0.012946067244047078 0.077288667114533749 0.03987913425648007 0.0090170814958321285 -0.039950769088392041 -0.036851648888280013 0.024135876099320313 0.00013894218457277091 0.05231763645458945 0.0053148730241663455 0.048165753632145536 0.037253252729480976 -0.080353449583103365 -0.027983530366644145 0.048859709887878217 0.0024217148636052157 0.0093889915865333108 0.04151580309524909 -0.050804610707380377 -0.068727425332680933 -0.022189800340660329 0.046511452945337831 -0.10903611966032688 0.072226662292266916 0.043990903233255954 -0.089676559891957816 0.013467036974308531 -0.032086344439168538 0.0061125991313841048 0.023445178612554698 0.061039590545110739 0.001606625650331477 0.0088657167537405848 0.032950156017632626 -0.025082655225894975
leaf_weight=1151.4686838301313 34.379502802476054 26.471882649735562 179.9465206600471 147.79062174340652 43.683622435237339 21.074321068699646 2.9340798617340687 2.0395771950425092 3.8748607163252009 86.908085666102124 21.750268152940407 53.4832972829754 154.74239683946507 48.815049354932853 46.500900500854186 33.799798398773419 8.9360543635921186 23.180037602969609 115.04315814002621 8.0396303867964871 50.861843208193022 82.334910729085095 2.2858643537620074 34.934646120298567 0.60866371374140982 52.959184071412892 5.8654864883901636 6.35644240269903 9.1963513141818094 16.04807456555136 46.46632093990047 14.769862329718308 2.0779929617419866 105.47141006390302 37.601483174526948 25.795232249889523 216.45456671016291 8.1284176702065452 3.1445911276969127 1.6468269843608139 2.0292223534343057 37.917226123940054 15.093009930933476 26.397813436120483 46.393306127258256 4.8445083228034482 2.7913832098492994 3.1116770125554458 9.1194234913564269 1.5710625838182743 8.2678908603156742 1.5111710513519936 0.53443879997576083 1.8858170319545022 2.8913078206460332 142.10844815725068 74.420570905949717 9.5405737120818213 62.897986986241449 68.776327510364354 57.00226973192548 32.47534496976732
leaf_count=1772397 983 29059 36526 230361 69192 3735 65 475 1643 1740 7419 15296 13774 8367 1207 53702 1055 5454 169500 7602 28094 2379 79 865 125 555 138 49 29 111 6052 4906 56 3600 1938 352 20020 242 44 32 166 4746 1644 5535 6714 959 218 315 62 478 1001 137 423 1138 3184 29402 11424 898 44633 24016 23270 46959
internal_value=0.000613085 -0.00746933 -0.0128774 0.00491173 0.011526 0.0178237 0.0182372 0.0110245 0.020862 0.0255698 0.00745013 0.022446 0.015856 0.0115956 0.0347621 -0.00889944 -0.0221817 -0.0112782 -0.0192923 0.0200519 -0.0116028 0.0342667 0.0177605 0.0285187 0.0563509 0.0350695 0.0220642 -0.00181572 0.0401499 0.0221571 0.01937 0.0101644 0.0264898 0.00808387 0.0178292 0.0456699 0.00242335 0.0253515 -0.0333065 -0.00316858 0.017866 0.0281087 -0.0185353 0.0148936 0.0259315 0.00931128 0.0124369 0.0410489 0.0220903 0.016845 0.0226444 -0.0268751 0.0623966 -0.0422075 0.0294905 0.0137617 0.0120698 0.0454259 0.0130017 0.00802376 0.0165078 -0.00202285
internal_weight=3549.45 2415.22 1995.43 685.259 537.468 1134.23 419.796 604.03 393.324 530.199 501.555 443.291 290.845 237.357 53.4874 82.6148 1310.17 158.699 132.628 17.5843 62.541 123.792 41.4568 102.475 9.54472 102.479 49.5199 21.3414 28.1785 18.9822 67.5406 439.014 49.6235 389.39 143.073 27.8732 246.317 11.6792 7.07728 4.79142 319.499 91.4005 29.8629 493.785 89.8948 43.5015 403.89 49.6126 15.4759 38.657 35.2001 3.55075 8.80233 3.45688 26.0713 228.099 216.529 11.5698 401.098 221.152 119.9 101.252
internal_count=2706540 2559816 2450740 491423 261062 146724 109076 79535 80017 67189 68883 65449 79008 75843 3165 62069 1959317 186920 178282 8782 28948 3517 1138 10652 1180 1009 454 249 205 176 9787 39935 7827 32108 5538 408 26570 854 155 76 61932 20042 6550 191870 16248 9534 175622 1522 111 8575 6959 612 1424 1616 8638 41890 40826 1064 175404 138878 67903 70975
is_linear=0
shrinkage=0.05


Tree=9
num_leaves=63
num_cat=0
split_feature=5 1 6 1 5 6 4 4 3 3 4 4 3 1 3 5 5 3 1 5 4 6 3 1 4 6 1 6 4 3 4 3 1 4 4 6 4 5 1 6 6 1 1 6 4 6 4 3 5 3 1 3 4 4 3 3 1 5 1 3 5 5
split_gain=183.051 159.658 192.922 27.7531 17.512 19.7686 13.1592 14.2472 11.1588 12.2593 15.428 10.3978 8.83614 12.4539 7.98665 9.17085 7.97376 7.49965 7.40715 7.1151 6.78412 9.96323 5.5124 5.43193 5.33933 7.67365 7.4875 7.33235 7.09785 5.31113 7.49394 8.14339 7.84637 7.07589 5.25977 5.16048 5.84466 19.5305 5.9703 5.86841 8.32485 7.06101 5.78334 5.18024 7.55521 5.06196 9.79513 4.98569 4.87356 4.74356 5.63648 4.50033 4.89625 4.47728 4.45533 11.1929 8.58724 7.22352 5.30615 6.15315 4.4402 5.95618
threshold=24.977361679077152 -0.21520011872053144 0.083022017031908049 -0.13448670506477353 22.691747665405277 0.088066946715116515 0.0013281840365380051 0.049960704520344741 -0.55527120828628529 -0.23274984210729596 0.0013281840365380051 0.049307160079479224 -0.46072475612163538 -0.36188308894634241 -0.65423899888992298 21.859272003173832 24.015606880187992 -0.5102848708629607 0.2615064829587937 24.113448143005375 1.0000000180025095e-35 0.022177867591381076 -0.17173481732606885 -0.23554155230522153 0.011806018184870483 0.0054208794608712205 -0.36188308894634241 0.0016537674819119277 0.0088539244607090967 -0.79849591851234425 0.00090918649220839154 -0.78493985533714283 0.37512722611427313 0.0017134035006165507 0.016326908022165302 0.19533932209014895 0.0011150913778692486 25.206537246704105 -0.17218445241451261 0.0060009649023413667 0.033383410423994071 -0.010337520390748976 0.01067955093458295 0.021874660626053814 0.0049119770992547282 0.0037169884890317921 0.065487362444400801 -0.47321362793445582 24.113448143005375 -1.0000000180025095e-35 -1.0000000180025095e-35 -0.50188198685646046 0.0084197702817618864 0.00064272669260390114 -0.71971762180328358 -0.70787265896797169 0.12973228842020038 26.453427314758304 -0.078637726604938493 -0.77383458614349354 22.255756378173832 21.369947433471683
decision_type=2 2 2 2 2 2 2 2 2 2 2 2 2 2 2 2 2 2 2 2 2 2 2 2 2 2 2 2 2 2 2 2 2 2 2 2 2 2 2 2 2 2 2 2 2 2 2 2 2 2 2 2 2 2 2 2 2 2 2 2 2 2
left_child=1 11 3 6 14 16 48 -8 23 10 -10 19 45 -14 -4 -16 22 -9 20 -1 21 -11 -6 -2 26 27 28 -26 -22 -25 32 -32 54 -33 -5 36 37 -28 -38 -39 41 -41 -37 44 -40 47 -47 -13 -3 50 -42 52 -7 -21 56 -56 57 -31 59 -59 61 -15
right_child=8 2 4 34 5 51 7 17 9 18 -12 12 13 60 15 -17 -18 -19 -20 53 24 -23 -24 29 25 -27 35 -29 -30 30 31 33 -34 -35 -36 42 38 39 43 40 49 -43 -44 -45 -46 46 -48 -49 -50 -51 -52 -53 -54 -55 55 -57 -58 58 -60 -61 -62 -63
leaf_value=-0.012161624911067336 0.052961445885373784 -0.087616138919746012 0.038750547914238279 -0.026750918649240164 -0.029341476590506971 -0.065669058851454451 -0.022542921663100651 0.011705067809386877 0.010808730722533737 0.03537744896909293 -0.025173878618029701 0.018384515030587557 0.075163175950172412 -0.020527450132840571 0.034969650312411962 0.011113517176762278 -0.030553547197706716 -0.020243386944080611 -0.04985617996697464 -0.11061910589533699 0.017799002456321471 -0.072235387044572469 0.023122379024127841 0.051996791194929871 -0.0025893564111495772 0.014621348075037763 -0.069645634667993048 0.059801006802692604 -0.10072980443492939 0.069854697059640758 -0.054661697059236639 0.039224377672398246 -0.055149200460961882 -0.0021868190570195328 -0.020490073926054227 0.0092868124076341645 0.023739951362749617 -0.025528831054688172 -0.030481514786699828 0.057662140340439899 0.030386960823306958 0.023721794210953558 0.035035271456266684 0.0089084597332333235 0.0093612607217093569 0.056237442975330232 0.018720518352641827 -0.057403993160244388 0.046504080697935157 0.0017630050218658052 0.0085032606122260254 -0.026953287501363415 0.020555199603356444 0.032917334682185224 0.070891154237593332 0.0093746380079604962 0.049309927743815374 0.049886544066218272 -0.10396872344993116 -0.065922467522361264 0.011595363053967371 0.0473620606047368
leaf_weight=29.975700905839403 19.615349048479402 0.70917251631908484 80.294638945633778 550.73891213465686 5.2666234110765791 1.9510666743153695 83.515141817098993 86.014801215293119 135.72611914500885 73.183935226144968 38.166434991218921 142.37296345276627 21.017082117297832 3.5850184462469761 62.946079422859839 111.90490934330228 8.226391782422068 23.356742012554605 4.0454425811331012 0.56168120790971698 2.3634269539616062 2.2159868475573594 101.48905479404493 16.773665450327826 5.7955665515291939 38.309754498623079 6.0282462865288826 25.123069595119887 2.7127996297786012 1.3506744260521362 2.6708535909310731 80.259152280668786 4.3920772168748945 11.836715706205721 858.19457345167393 33.460466235643253 52.160930814367021 6.443570602888939 22.770923507385305 26.971565804327838 74.34038249659352 35.485238939436385 62.622669694465003 176.60523769326392 24.919363683351548 28.549226226990868 44.541224380209314 2.2035810453198783 15.083152152932596 39.253542271573679 48.700080825889017 43.478719061964512 10.544950777668417 16.590858275805658 9.1720607915776764 38.150020506895089 4.1012677196122231 1.8532537709688766 3.2949993020156398 3.0096014169394021 20.618639472326322 32.692990646450198
leaf_count=44881 623 119 638 849489 6137 748 129599 15837 17682 1581 48962 7109 3139 2050 3377 27059 6349 37189 1515 21 61 2338 3573 1419 1576 3306 665 1160 26 90 312 1787 176 9147 1338689 1687 1183 239 6691 426 1235 740 1236 27065 5285 1857 4339 441 421 5044 1882 59610 662 4325 62 1261 84 11 93 74 5057 7101
internal_value=0.000622642 -0.00723652 -0.0125325 -0.0204169 0.0173992 0.00501604 -0.00339944 -0.00699211 0.0171634 0.0148925 0.00291116 0.0243454 0.027823 0.0422725 0.0256964 0.0197017 0.0168791 0.00488234 0.0176213 0.00253438 0.0179808 0.0322147 0.0205342 0.0279977 0.0164118 0.0295763 0.0149296 0.0481062 -0.0455443 0.025229 0.0224244 0.0314059 0.00939472 0.033902 -0.0229374 0.015433 0.0134437 0.0192012 0.00850319 0.0215179 0.0228667 0.0383787 0.0260685 0.00495982 -0.00966267 0.0226508 0.0333747 0.0172294 0.0404813 0.0168971 0.0217253 -0.0193528 0.00709257 0.0282171 0.0140472 0.0212979 -0.0111641 -0.037248 -0.0549807 -0.0217872 0.030123 0.0406532
internal_weight=3520.31 2386.42 2043.71 1617.61 426.102 170.957 208.679 192.887 1133.88 937.405 173.893 342.709 295.581 77.9137 255.146 174.851 114.982 109.372 763.512 47.1282 759.467 75.3999 106.756 196.48 684.067 69.2284 614.838 30.9186 5.07623 176.864 160.091 94.7667 65.324 92.0959 1408.93 609.762 513.679 237.223 276.456 231.194 224.751 62.4568 96.0831 224.296 47.6903 217.667 73.0905 144.577 15.7923 162.294 123.04 55.9747 12.496 17.1525 60.9319 47.3221 13.6098 9.50853 8.15785 4.86286 56.8966 36.278
internal_count=2706540 2559816 2479496 2371343 108153 77079 183165 182625 146724 131585 66644 80320 31093 17347 31074 30436 16059 53026 64941 49227 63426 3919 9710 15139 59507 6042 53465 2736 87 14516 13097 11246 1851 10934 2188178 53378 50455 10231 40224 9566 9327 1166 2923 39041 11976 13746 6196 7550 540 8161 3117 61020 1410 4346 1675 1323 352 268 178 85 14208 9151
is_linear=0
shrinkage=0.05


Tree=10
num_leaves=63
num_cat=0
split_feature=5 6 4 3 6 6 3 6 6 3 3 2 4 2 5 4 4 5 4 4 3 5 3 2 3 3 2 5 4 6 5 2 4 6 3 3 3 3 5 4 6 4 4 5 4 2 3 5 5 2 3 6 6 5 6 2 5 6 2 2 3 5
split_gain=181.277 101.871 105.104 34.7156 23.2092 18.4091 11.992 11.5956 19.3818 13.604 10.5346 10.8841 9.80788 9.59178 9.1286 23.576 8.36605 8.08215 11.285 8.48579 9.1653 7.55562 6.76167 6.54401 6.0884 5.73498 5.54602 5.54128 5.33967 5.183 5.11726 9.13967 4.96302 4.9622 5.31667 5.0997 5.29363 4.82633 4.5638 4.48734 6.60476 4.39395 4.27668 10.267 4.02856 3.96373 3.71958 3.47233 5.05548 4.18878 4.35987 6.11406 5.44399 5.03968 3.88773 3.81838 6.08914 3.46377 9.15073 3.45006 5.47684 4.71624
threshold=25.084516525268558 0.083022017031908049 0.049307160079479224 -0.36146198213100428 0.015501490794122221 0.018271515145897869 -0.61090028285980214 0.19533932209014895 0.088066946715116515 -0.49845501780509943 -0.70787265896797169 1.3934788703918459 0.16965753585100177 -0.16172888875007627 24.113448143005375 0.0017134035006165507 0.0019071602728217842 25.305266380310062 0.00064272669260390114 1.0000000180025095e-35 -0.22288443148136136 24.136605262756351 -0.38851574063301081 0.54081988334655773 -0.78493985533714283 -0.42948281764984125 1.3934788703918459 25.020059585571293 0.006988413631916047 0.19533932209014895 21.489144325256351 -0.27624076604843134 0.0013281840365380051 0.15937074273824695 -0.21033514291048047 -0.49291075766086573 -0.61372509598731984 -0.43390041589736933 21.847871780395511 0.01375096943229437 0.019483681768178943 0.0094192973338067549 0.021100526675581936 24.977361679077152 0.034265285357832916 -0.20683092623949048 -0.83509179949760426 25.676125526428226 25.478691101074222 0.25606733560562139 -0.17173481732606885 0.0340657476335764 0.04547525383532048 25.954935073852543 0.083022017031908049 -0.029864537529647347 25.58167934417725 0.04547525383532048 -0.32730633020400995 0.29677928984165197 -0.42948281764984125 23.083868980407718
decision_type=2 2 2 2 2 2 2 2 2 2 2 2 2 2 2 2 2 2 2 2 2 2 2 2 2 2 2 2 2 2 2 2 2 2 2 2 2 2 2 2 2 2 2 2 2 2 2 2 2 2 2 2 2 2 2 2 2 2 2 2 2 2
left_child=1 2 14 5 10 12 24 8 9 -8 32 -12 26 16 41 21 33 18 -15 -19 -21 -16 -10 27 -3 -9 -4 -23 -11 -20 31 -14 46 35 45 36 -6 -37 -26 40 -22 -1 43 -27 -44 -35 -2 48 -42 50 -49 -52 -53 -54 -51 56 -50 58 -38 61 -61 -30
right_child=4 6 3 -5 13 -7 7 25 22 28 11 -13 30 17 15 -17 -18 19 29 20 39 23 -24 -25 38 42 -28 -29 59 -31 -32 -33 -34 34 -36 37 57 -39 -40 -41 47 -43 44 -45 -46 -47 -48 49 55 54 51 52 53 -55 -56 -57 -58 -59 -60 60 -62 -63
leaf_value=-0.02864914279050694 0.078213448464310331 -0.017378462764851936 0.009361200201043713 -0.017975758598759623 -0.071432491285589664 -0.022604600174518791 -0.076414560986891242 0.060730620553251083 8.5718993693374907e-05 -0.021913473510086538 0.02355175699903056 -0.034469018290531027 0.027582364262673454 0.045333852717860786 0.04993587930629384 -0.021555149505686703 -0.036150204721493398 -0.054885554382644079 0.0069676606828007644 -0.0089522541235671042 -0.030551889338102142 -0.035073372812036673 -0.027580339338489419 0.026663894300075104 -0.045250584149288259 -0.032879575369435365 -0.096858728306576686 0.036297884690977902 0.0077816528260381797 0.039523242021403261 0.031846214604707927 -0.065306894904541432 0.023195402471350164 0.054952138248902604 0.072293257471186506 -0.044516659927679773 -0.057461128937214771 0.017849833688155837 0.034448487362871635 0.043745246304940158 0.010225990345966458 -0.021073979004692881 0.050745787909319877 0.032726791485537463 -0.045116199809826535 0.0053380661788701564 0.044341804716351844 0.022814139884000995 -0.054872615483160109 -0.071683534039864369 0.030408284587614944 -0.037015880307950381 -0.017553194198002491 0.012341215010343241 -0.00065902819622856929 -0.027502806307013933 0.053399422797190149 0.078010217910937596 0.06792205392799143 -0.076338380614254076 0.053300351364464427 0.024035097976939607
leaf_weight=245.95613498389139 9.7407375215989287 6.4769008028815724 371.3961655561543 144.79713285843172 0.88873161133960721 40.330010204943392 4.073347471185115 12.358774658459877 43.366514883939089 8.9232608809797949 327.69150251431711 8.2872939081789792 7.9774602324650914 31.439343817459303 14.345490185020024 129.88389162263775 5.2385878693785335 5.816714275701087 92.811079782517481 83.105221329409687 10.423925880531895 11.373743037987877 45.004289730342862 18.155899090015737 1.8337176827481005 9.190523423363631 1.2329591061134113 3.5742292198992791 89.108461570111103 14.080351083197455 79.663996127390419 3.9639829868137877 24.512496436967922 7.4076883204106734 11.622898918642024 3.3169260770082465 2.1233033071075615 47.894784826905379 87.845758995874348 9.3468010123178811 46.333127649369999 863.51222979348313 13.83944386889925 16.983068376954179 1.1902197783529107 8.8172986976278462 48.270699880849861 97.829757876999793 1.9256805540935626 2.1027421882608932 25.546460739395116 7.8466346418863386 17.572334173499257 71.308754692945513 23.017260732944123 20.359494596312288 3.9874821438861545 7.3944380306347739 4.624596407331409 0.87970763751218228 11.025917539107466 89.419370977720973
leaf_count=390185 99 128 174759 230344 62 69045 1020 126 11256 7925 36520 175 3014 1150 990 185894 6611 1829 13541 28825 1669 13041 69425 1699 59 6418 216 731 6890 504 12050 1130 2018 92 42 486 234 3257 957 509 6075 1383662 308 569 386 104 611 2855 181 332 1307 1667 2752 6830 593 5240 116 224 187 258 687 6299
internal_value=-0.000129448 -0.00785188 -0.0127941 0.00360503 0.0168298 0.00979816 0.0138209 0.00947293 0.00554771 0.0140409 0.0260522 0.0221206 0.0126131 0.0110187 -0.0210696 -0.010536 0.0253474 0.00849902 0.0190012 0.00509295 0.00592222 0.0196269 -0.0140037 0.00649255 0.0294377 0.0308572 0.00900974 -0.0180077 0.0158891 0.0112561 0.0272709 -0.00325239 0.0420586 0.0287713 0.0464808 0.0213264 0.0469336 0.0138104 0.0328188 0.00958378 0.00861106 -0.0227533 0.0218967 0.00968995 0.0431543 0.0279899 0.0500292 0.00989549 0.0002909 0.0127392 0.0149469 0.00865236 0.00290647 0.00643091 -0.00660434 -0.0172301 0.0181396 0.0543719 0.0284688 0.0176605 0.0437213 0.0159225
internal_weight=3460.37 2377.68 1936.16 649.362 1082.69 504.565 441.519 345.363 291.801 203.43 418.503 335.979 464.235 664.182 1286.8 177.333 99.3293 564.853 138.331 426.522 420.706 47.4494 88.3708 33.1039 96.1564 53.562 372.629 14.948 199.357 106.891 91.6054 11.9414 82.5239 94.0907 27.8479 66.2428 15.0311 51.2117 89.6795 337.6 328.254 1109.47 41.2033 26.1736 15.0297 16.225 58.0114 317.83 72.6058 245.224 220.104 122.274 96.7277 88.8811 25.12 26.2727 5.91316 14.1423 6.7479 190.433 11.9056 178.528
internal_count=2706168 2579471 2466760 490558 126697 260214 112711 111567 103760 23079 39423 36695 191169 87274 1976202 202355 11299 75975 15195 60780 58951 16461 80681 15471 1144 7807 174975 13772 22059 14045 16194 4144 2728 4688 238 4450 707 3743 1016 30126 29617 1773847 7681 6987 694 196 710 27948 11612 16336 15411 12556 11249 9582 925 5537 297 645 421 14134 945 13189
is_linear=0
shrinkage=0.05


Tree=11
num_leaves=63
num_cat=0
split_feature=4 1 6 1 2 3 3 3 1 3 6 3 6 1 6 6 4 6 1 3 3 1 2 1 4 3 2 2 3 6 2 6 6 4 4 2 2 3 6 4 6 1 2 6 6 3 6 6 6 6 6 3 2 3 4 6 6 2 3 3 3 4
split_gain=116.907 130.637 134.861 44.5768 23.4859 23.8822 15.6185 11.5618 10.1847 10.4555 9.24839 9.81569 13.7675 9.18927 9.91215 6.82508 6.4958 6.33043 5.88329 5.24328 5.13831 5.11665 6.81296 9.34491 8.64142 5.0607 6.77751 4.90951 5.03209 4.90842 4.88365 4.86092 13.0614 5.83713 7.14419 4.83168 9.4025 8.47517 6.02534 14.3236 6.20695 8.89114 6.46042 5.75512 7.21937 4.73875 12.3476 4.67656 5.61716 9.15868 7.70367 6.77893 6.24956 5.68326 6.81772 5.64525 6.30701 5.74058 4.6489 4.63305 8.20898 8.9875
threshold=0.0017134035006165507 -0.20708288997411725 0.083022017031908049 -0.11712926998734473 -0.32730633020400995 -0.74589687585830677 -0.17173481732606885 -0.51548072695732106 -0.36188308894634241 -0.48958410322666163 0.21505475789308551 -0.61090028285980214 0.088066946715116515 -0.10255955532193183 0.15937074273824695 0.0011885824496857824 0.054199106991291053 0.011992591898888351 -0.022170497104525563 -0.81530365347862233 -0.56119796633720387 0.32383351027965551 -0.25157730281352991 0.14991617202758792 0.021515484899282459 -0.33712364733219141 -0.40678133070468897 0.32310387492179876 -0.36638496816158289 0.062480481341481216 -0.25785823166370386 0.0016537674819119277 0.005824125139042736 0.030259479768574241 0.0095633533783257025 0.34340600669384008 1.8521142005920412 -0.72570663690567005 0.031751090660691268 1.0000000180025095e-35 0.058840841054916389 0.022424896247684959 -0.29951979219913477 0.0048708068206906327 0.0047431618440896281 -0.6823284626007079 0.0037169884890317921 0.021008418872952465 0.0037169884890317921 0.0055722768884152183 0.0066284458152949819 -0.41335454583168024 0.27936775982379919 -0.39635597169399256 0.25650045275688177 0.0017865448608063164 0.0023139871191233401 -0.19511622935533521 -0.4162366241216659 -0.69708308577537526 -0.74589687585830677 0.019210005179047588
decision_type=2 2 2 2 2 2 2 2 2 2 2 2 2 2 2 2 2 2 2 2 2 2 2 2 2 2 2 2 2 2 2 2 2 2 2 2 2 2 2 2 2 2 2 2 2 2 2 2 2 2 2 2 2 2 2 2 2 2 2 2 2 2
left_child=4 8 3 6 20 17 7 16 9 -2 11 59 18 29 15 -15 -3 19 -13 -6 -1 22 -12 -24 -25 26 -22 58 -29 -7 -11 -8 33 34 -33 38 37 -37 45 -40 42 -42 -41 44 -39 46 -17 48 51 -50 52 55 -51 -53 -55 -10 -57 -58 -20 60 -4 -62
right_child=1 2 10 -5 5 13 31 -9 47 30 21 12 -14 14 -16 35 -18 -19 27 -21 25 -23 23 24 -26 -27 -28 28 -30 -31 -32 32 -34 -35 -36 36 -38 43 39 40 41 -43 -44 -45 -46 -47 -48 -49 49 50 -52 53 -54 54 -56 56 57 -59 -60 -61 61 -63
leaf_value=0.068296723244058527 0.022014796551836562 -0.015471039468849306 0.030718596778587612 -0.021012682476082043 -0.048261702199302599 0.027776572692418396 -0.0092830956359060135 -0.029996774039812553 0.010721962587767184 0.073962181916366998 0.064159660296869092 -0.021793618127097413 -0.0065109638964749644 -0.020479303615444588 0.022412935131622562 0.038345942527964388 0.0082070897961107614 0.059147034408084387 -0.014749702378225649 0.032737403023057464 -0.038317072121016052 -0.065978998994871293 0.030713966883328909 -0.084381848688816596 0.053183267122418859 0.049628586112470945 0.03828298483765856 0.055629869691522255 -0.080783546067495327 -0.0017419262481813962 0.031914985818229664 -0.0030102787953034224 0.0042559843353441647 -0.0036655091288643501 0.05750584836671211 -0.099976443098350021 0.042727023006565473 -0.0098952292294193916 -0.047690515555377316 0.045212400362113173 0.016748435274579389 -0.013953941559673236 -0.013308621017543352 -0.021355542129956037 0.046468651092256702 0.016235218980590962 -0.10844384876692528 -0.0063150330767447601 0.051150685048384985 -0.03463134906888693 0.024782458381453203 0.055089191403769423 0.053259929444915061 0.02238901218187507 -0.090096972430469671 -0.085717211060659937 0.02378498579549318 -0.047373898974709922 0.016687351007385633 0.037935212661376672 -0.10394644068020947 0.0035215247034482617
leaf_weight=18.849914480611915 45.062575992022175 50.883253065640019 19.885505642960201 1354.5090699315806 2.194315349035608 104.63680625594134 24.260145019143238 53.57029898203109 114.39771863008355 20.47274435977306 13.168071112908363 10.543486283455421 123.93347676402118 23.230502019625419 111.24339166545542 3.0896864951064336 67.243819258739677 32.467388159824623 12.631558274522829 22.325427186719025 4.5511803103472612 1.3646027019713063 51.009481207191129 3.509761946857906 1.6918900573218705 23.788881990418304 7.900565185052983 11.318966591003116 0.71898496248468191 16.273112333961762 10.42082885639684 5.9033803677302776 87.788558273325179 6.833166027263359 28.049939208860451 2.6187723886105223 9.0110334734927147 15.823836146475514 12.906805377242561 5.1989160316297776 135.57551230966783 28.545387303285679 50.77459041169277 34.105861948140955 8.863332218665164 214.68980119846674 2.6711835410678759 20.150617761195463 29.298638591870258 10.150894756432534 81.436902343055408 14.621269478135217 2.5258042927416673 29.366669040660785 1.4118054415375798 3.0835657032839654 6.9219099624497167 4.7994171117061333 170.43514386023162 41.429013799875975 2.6401076855108823 7.3939059159019962
leaf_count=220 4754 61121 164 2100909 692 4748 26651 94830 20404 490 379 10128 89941 24208 5456 50 17211 504 1567 813 1344 36 3819 147 17 488 674 528 359 1130 5197 1099 47546 4150 3426 260 386 610 19783 173 8219 6910 10547 6096 87 42940 139 19255 3884 1895 20556 827 566 11361 220 628 594 1555 12828 497 110 42
internal_value=-8.12048e-05 -0.00553933 -0.0103888 -0.0170249 0.0155022 0.013419 -0.000380984 -0.0107298 0.0209243 0.0373746 0.013234 0.010293 0.00665293 0.011134 0.00880713 0.00604065 -0.00199227 0.0446649 0.0145861 0.0254886 0.0471236 0.0299015 0.0317874 0.0242038 -0.0396374 0.0361108 0.0102852 0.0165521 0.0474824 0.0238037 0.0597791 0.011245 0.0151184 0.0384985 0.0469841 0.00721664 -0.00496804 -0.0119664 0.00910897 0.00350273 0.00650481 0.0114084 -0.00787309 -0.00804624 0.0103409 0.0150344 -0.0297171 0.0169971 0.0185733 0.0267383 0.0191385 0.0128022 -0.0171192 0.0294223 0.0172293 0.00696212 -0.0220903 -0.00535175 0.0145182 0.0271075 0.0121146 -0.024755
internal_weight=3436.17 2544.84 2150.72 1679.04 891.336 836.246 324.533 171.697 394.121 75.9561 471.674 400.93 329.582 779.259 658.349 547.105 118.127 56.9871 205.648 24.5197 55.0905 70.7438 69.3792 56.2111 5.20165 36.2406 12.4517 195.105 12.038 120.91 30.8936 152.835 128.575 40.7865 33.9533 523.875 70.4228 61.4118 453.452 233.001 220.094 164.121 55.9735 58.793 24.6872 220.451 5.76087 318.165 298.015 123.412 94.1136 174.602 12.6767 45.3997 30.7785 129.203 14.8049 11.7213 183.067 71.3485 29.9195 10.034
internal_count=2706168 2569691 2477505 2356943 136477 133751 256034 173162 92186 10441 120562 116164 115351 131742 125864 120408 78332 2009 25410 1505 2726 4398 4362 3983 164 2506 2018 15282 887 5878 5687 82872 56221 8675 4525 96200 7439 7053 88761 45632 25849 15129 10720 6793 697 43129 189 81745 62490 26901 23017 35589 2461 12408 11581 23181 2777 2149 14395 813 316 152
is_linear=0
shrinkage=0.05


Tree=12
num_leaves=63
num_cat=0
split_feature=5 1 6 4 1 6 6 6 1 4 2 1 4 2 6 1 2 6 5 1 4 6 4 4 5 5 1 2 5 2 6 6 4 6 2 1 6 4 5 4 5 1 1 4 6 1 2 5 4 4 1 4 2 1 4 2 4 5 5 4 4 4
split_gain=155.57 121.478 141.183 15.19 14.1653 12.9295 11.2892 11.2471 10.8601 10.6949 10.5676 9.85763 9.54238 9.21917 7.34676 7.27495 7.23929 6.75006 7.65461 6.42297 6.64644 6.32741 6.21269 7.4505 6.19492 6.12533 9.18578 5.89896 5.57928 7.64334 5.93659 5.44194 9.37592 5.3548 5.31601 5.4799 7.20115 5.0621 5.69926 4.78155 9.32135 4.50657 4.46255 6.34049 5.28838 4.39252 4.06808 3.94069 3.90483 3.87942 4.4652 3.86502 3.71116 3.70772 3.67687 7.16308 3.65302 3.81278 3.64229 3.63952 3.58861 4.44831
threshold=24.977361679077152 -0.20708288997411725 0.083022017031908049 0.006988413631916047 -0.13448670506477353 0.015501490794122221 0.011992591898888351 0.21505475789308551 -0.11712926998734473 0.047435363754630096 -0.13722541928291318 -0.0073378758970648042 0.0020771098788827662 -0.12876845151185987 0.098717067390680327 0.27347846329212194 -0.52867376804351796 0.003997848369181157 22.002655029296879 -0.10255955532193183 0.0043489432428032168 0.0060938464011996993 0.0013281840365380051 0.049960704520344741 25.084516525268558 26.453427314758304 0.46078425645828253 0.061285831034183509 25.816235542297367 1.0000000180025095e-35 0.13116022944450381 0.0086065931245684641 1.0000000180025095e-35 0.018271515145897869 0.10591403022408487 0.035979492589831359 0.050877641886472709 0.00090918649220839154 26.285415649414066 0.038895737379789359 22.486190795898441 -0.36188308894634241 0.033701043576002128 0.00064272669260390114 0.028413131833076481 -0.23554155230522153 1.0000000180025095e-35 26.453427314758304 0.072085279971361174 0.0019071602728217842 0.16689444333314898 0.00064272669260390114 0.46291065216064459 -0.043208502233028405 0.0013281840365380051 0.17297042161226275 0.00090918649220839154 27.216713905334476 21.992411613464359 0.0085635669529438036 0.030259479768574241 0.0098526207730174082
decision_type=2 2 2 2 2 2 2 2 2 2 2 2 2 2 2 2 2 2 2 2 2 2 2 2 2 2 2 2 2 2 2 2 2 2 2 2 2 2 2 2 2 2 2 2 2 2 2 2 2 2 2 2 2 2 2 2 2 2 2 2 2 2
left_child=1 13 4 -4 22 6 8 14 21 -9 25 45 31 41 15 39 -17 52 33 -12 28 24 -3 -24 -2 26 -7 -23 29 42 51 -10 -33 -19 56 53 -37 -13 -39 58 -41 -1 43 44 -21 -8 47 -34 -22 50 -44 -31 -15 -36 -55 -56 57 -30 -5 -6 61 -26
right_child=5 2 3 7 59 10 11 9 12 -11 19 37 -14 17 -16 16 -18 18 -20 20 48 27 23 -25 60 -27 -28 -29 34 30 -32 32 46 -35 35 36 -38 38 -40 40 -42 -43 49 -45 -46 -47 -48 -49 -50 -51 -52 -53 -54 54 55 -57 -58 -59 -60 -61 -62 -63
leaf_value=0.040007215842523702 -0.026324257985751772 0.022470421619545641 -0.024197477505953184 0.028831771979936072 -0.026187441678551533 0.011354015044011933 0.055400100022674793 0.040876928708766136 0.019192524852411616 -0.080578345390310585 0.01809424254071345 0.061350585629043046 -0.019159166447810318 -0.0076199623454666372 -0.0056157379971205779 0.042416517704303019 -0.073953654853824699 0.04888922108242276 0.0082750728094840333 0.046180749518663584 -0.030877400042816756 0.0014403601808662746 -0.02069467149408008 0.00057551308082595188 0.030103172812893347 0.04063509708643176 0.068586204538338177 0.043257174463912473 -0.032189786088277446 0.011173929288213681 0.010175281396887318 -0.070321044788940371 0.031341393990745439 -0.016420144275354296 -0.016578158835924173 0.020492910493413223 -0.069779911865336136 -0.033331372536237407 0.040772301028446506 -0.019878432491332407 0.060037516626141312 0.022760770158319909 0.045415493591304923 0.0026185831433655185 -0.062404861031556319 0.013715086737563865 -0.021642766724487394 -0.0030517096619959924 0.057100648881172195 -0.0075502475246266359 0.0083052197532983707 -0.037488771548139836 0.019739305161611907 0.020291994259747308 0.045494485510685904 -0.047480987456693408 -0.00046984704224500542 0.0017359416561627411 0.012430774160276086 -0.019663251821252212 0.00039781546462191515 0.052682070614858648
leaf_weight=51.255641966177791 3.9470365590168504 17.203028533920588 25.116690716198718 39.808111761558393 265.9379462828565 77.044789557399781 7.3654507368191835 53.622835199392284 133.03275755298091 1.8759385750890931 117.81606913881478 35.792469191346754 24.657162418861844 50.87852216652027 48.076752465116442 1.9366157184413166 4.3124491906200992 25.614782719963845 46.9054689241093 15.492556644618164 17.166070546667473 32.661426793685678 75.494494823549758 90.551668946620339 48.938210643085768 38.394659049256006 7.7127711770008309 11.369332531205144 22.238805197615875 5.6707391612653764 35.076292125449982 4.3677055726875542 17.408792463775171 3.5768472797026325 9.3986607304250338 4.1151652213593461 4.7697023696237011 2.9490095131768639 21.59302030744584 4.8362667231922396 14.860945905620611 145.126811772152 33.812735989398789 48.680579950574611 1.2087776399130223 44.508908473711926 9.8764748617395508 15.967620013208942 1.3612393532530394 5.6254495589346325 10.661573049306751 14.549230301723581 16.386942511975576 72.924826886803203 3.2558122285263362 5.6954445234950981 85.715790854592342 13.195983884157611 226.21784614252647 1089.537650819866 6.0617677020272813 39.356425554560701
leaf_count=2813 894 516 31691 1113 424003 13816 102 2589 5336 296 7407 510 26065 23675 33563 35 433 5380 25733 486 13271 1333 122833 50078 1658 882 154 726 5242 906 3037 158 536 6163 1910 1005 1898 2133 1230 3658 1514 21453 2340 11258 1420 3541 1037 277 60 4166 618 13097 5008 2914 255 955 10317 2008 32670 1764733 380 880
internal_value=4.8751e-05 -0.00737597 -0.0121618 0.0135075 -0.0191794 0.0154076 0.021827 0.0159017 0.0173762 0.0367716 0.0108772 0.0356165 0.0100181 0.0202248 0.0124956 0.0154778 -0.03789 0.0105849 0.0207853 0.00780321 0.00485045 0.02799 -0.00613187 -0.00909518 0.0350454 0.0240672 0.016562 0.012238 0.00623325 0.013023 -0.00226339 0.0140004 -0.000504164 0.0408869 0.000993845 0.00951657 -0.0279686 0.049358 0.0318679 0.0166451 0.0404157 0.0272621 0.0203426 0.0117387 0.0383217 0.0196338 0.00654599 0.0148874 -0.0244135 0.0315709 0.0365193 -0.0238412 -0.000954807 0.0131655 0.0165798 -0.0136633 -0.00605221 -0.0195558 0.014885 -0.0209433 0.0376125 0.0401675
internal_weight=3410.57 2299.13 1959.39 420.664 1538.72 1111.44 459.854 395.548 347.645 55.4988 651.584 112.209 205.311 339.745 340.049 291.972 6.24906 143.363 76.0971 528.432 410.615 142.334 183.249 166.046 98.3034 123.152 84.7576 44.0308 392.088 170.778 55.2963 180.653 47.6206 29.1916 221.31 100.16 8.88487 60.3345 24.542 285.723 19.6972 196.382 115.482 65.3819 16.7013 51.8744 43.2529 33.3764 18.5273 50.0998 44.4743 20.22 67.2655 91.2747 81.8761 8.95126 121.151 35.4348 266.026 1355.48 94.3564 88.2946
internal_count=2706168 2559950 2469725 107562 2362163 146218 46796 75871 39280 2885 99422 7516 33409 90225 72986 39423 468 65959 37276 84570 77163 5871 173427 172911 3812 14852 13970 2059 63832 37328 17040 7344 2008 11543 26504 8937 2903 3873 3363 38955 5172 24266 20288 13164 1906 3643 1850 813 13331 7124 2958 14003 28683 6034 4124 1210 17567 7250 33783 2188736 2918 2538
is_linear=0
shrinkage=0.05


end of trees

feature_importances:
low_volatility=184
amihud=164
value_ep=144
size=117
short_reversal=111
momentum_12m1m=86

parameters:
[boosting: gbdt]
[objective: lambdarank]
[metric: ndcg]
[tree_learner: serial]
[device_type: cpu]
[data_sample_strategy: bagging]
[data: ]
[valid: ]
[num_iterations: 500]
[learning_rate: 0.05]
[num_leaves: 63]
[num_threads: -1]
[seed: 42]
[deterministic: 0]
[force_col_wise: 0]
[force_row_wise: 0]
[histogram_pool_size: -1]
[max_depth: -1]
[min_data_in_leaf: 20]
[min_sum_hessian_in_leaf: 0.001]
[bagging_fraction: 0.8]
[pos_bagging_fraction: 1]
[neg_bagging_fraction: 1]
[bagging_freq: 5]
[bagging_seed: 400]
[bagging_by_query: 0]
[feature_fraction: 0.8]
[feature_fraction_bynode: 1]
[feature_fraction_seed: 30056]
[extra_trees: 0]
[extra_seed: 12879]
[early_stopping_round: 0]
[early_stopping_min_delta: 0]
[first_metric_only: 0]
[max_delta_step: 0]
[lambda_l1: 0]
[lambda_l2: 0]
[linear_lambda: 0]
[min_gain_to_split: 0]
[drop_rate: 0.1]
[max_drop: 50]
[skip_drop: 0.5]
[xgboost_dart_mode: 0]
[uniform_drop: 0]
[drop_seed: 17869]
[top_rate: 0.2]
[other_rate: 0.1]
[min_data_per_group: 100]
[max_cat_threshold: 32]
[cat_l2: 10]
[cat_smooth: 10]
[max_cat_to_onehot: 4]
[top_k: 20]
[monotone_constraints: ]
[monotone_constraints_method: basic]
[monotone_penalty: 0]
[feature_contri: ]
[forcedsplits_filename: ]
[refit_decay_rate: 0.9]
[cegb_tradeoff: 1]
[cegb_penalty_split: 0]
[cegb_penalty_feature_lazy: ]
[cegb_penalty_feature_coupled: ]
[path_smooth: 0]
[interaction_constraints: ]
[verbosity: -1]
[saved_feature_importance_type: 0]
[use_quantized_grad: 0]
[num_grad_quant_bins: 4]
[quant_train_renew_leaf: 0]
[stochastic_rounding: 1]
[linear_tree: 0]
[max_bin: 255]
[max_bin_by_feature: ]
[min_data_in_bin: 3]
[bin_construct_sample_cnt: 200000]
[data_random_seed: 175]
[is_enable_sparse: 1]
[enable_bundle: 1]
[use_missing: 1]
[zero_as_missing: 0]
[feature_pre_filter: 1]
[pre_partition: 0]
[two_round: 0]
[header: 0]
[label_column: ]
[weight_column: ]
[group_column: ]
[ignore_column: ]
[categorical_feature: ]
[forcedbins_filename: ]
[precise_float_parser: 0]
[parser_config_file: ]
[objective_seed: 16083]
[num_class: 1]
[is_unbalance: 0]
[scale_pos_weight: 1]
[sigmoid: 1]
[boost_from_average: 1]
[reg_sqrt: 0]
[alpha: 0.9]
[fair_c: 1]
[poisson_max_delta_step: 0.7]
[tweedie_variance_power: 1.5]
[lambdarank_truncation_level: 30]
[lambdarank_norm: 1]
[label_gain: ]
[lambdarank_position_bias_regularization: 0]
[eval_at: ]
[multi_error_top_k: 1]
[auc_mu_weights: ]
[num_machines: 1]
[local_listen_port: 12400]
[time_out: 120]
[machine_list_filename: ]
[machines: ]
[gpu_platform_id: -1]
[gpu_device_id: -1]
[gpu_use_dp: 0]
[num_gpu: 1]

end of parameters

pandas_categorical:[]
