tree
version=v4
num_class=1
num_tree_per_iteration=1
label_index=0
max_feature_idx=15
objective=lambdarank
feature_names=beta short_reversal momentum_12m1m low_volatility amihud size value_ep roe investment sentiment_proxy quality north_flow margin_change dragon_tiger block_trade_premium industry_code
feature_infos=none [-0.67196720838546753:3.8188495635986328] [-0.86113440990447998:6.6932940483093262] [-1.2067728042602539:0] [0:23.572345733642578] [20.169546127319336:28.271858215332031] [0:0.483091801404953] [-1719.010009765625:26.590000152587891] [-41.068401336669922:858.06817626953125] [1.6917258108151145e-05:0.75898420810699463] [-40.627281188964844:5.2461185455322266] [-85.632980346679688:111.25154113769531] [0:1] none [-0.28775042295455933:0.23235727846622467] [-1:98]
tree_sizes=7019 7047

Tree=0
num_leaves=63
num_cat=0
split_feature=15 4 3 4 1 2 3 4 3 15 1 2 11 3 4 15 4 11 14 3 11 4 4 5 15 1 4 2 1 15 1 3 3 4 3 5 2 3 5 2 6 5 3 3 2 11 2 3 1 2 1 4 11 2 1 4 1 6 11 1 1 1
split_gain=104.158 78.1428 40.6207 72.321 28.4001 24.4757 23.7421 23.2653 26.3915 36.8294 21.9479 18.513 18.1624 14.9578 14.5397 13.7721 11.2044 10.5956 10.3349 10.5581 10.3261 9.99642 9.97575 11.5223 13.2627 9.95208 9.18615 11.723 9.15443 9.57573 9.14061 8.98809 8.94295 11.4306 8.87206 8.74033 8.73327 8.54162 12.9542 7.65805 21.9914 7.48033 7.46026 7.23526 7.16596 6.92965 6.64667 7.88249 9.74924 9.06391 6.49093 6.18185 6.12854 6.24715 10.5654 7.41069 7.73207 7.69366 6.07964 6.20187 11.8629 9.5049
threshold=-1.0000000180025095e-35 0.043624656274914748 -0.2362166419625282 0.0021161796757951383 -0.14753444492816922 -0.35679531097412104 -0.42738842964172358 0.00088669909746386122 -1.0000000180025095e-35 1.5000000000000002 0.069243878126144423 -0.12639147043228147 85.825950622558608 -0.33859470486640925 1.0000000180025095e-35 13.500000000000002 0.00064067952916957449 6.1135401725769052 0.003718443564139307 -0.52231088280677784 1.2648500204086306 0.0013310296926647427 0.0010988316498696806 21.585774421691898 7.5000000000000009 -0.18281143158674237 0.010727434884756805 0.44367283582687383 0.16883351653814319 3.5000000000000004 -0.048326248303055756 -1.0000000180025095e-35 -0.34847882390022272 0.01163621759042144 -0.26351258158683771 22.965527534484867 0.59221726655960094 -0.42877279222011561 21.841998100280765 -0.14782177656888959 0.010235419962555172 22.903172492980961 -0.37223950028419489 -0.51855534315109242 -0.08326405286788939 -3.0330200195312496 -0.17894171178340909 -0.22273872047662732 -0.0084229679778218252 -0.12639147043228147 0.24339731037616733 0.0045325078535825023 30.923600196838382 -0.37352906167507166 -0.0084229679778218252 0.052839824929833419 -0.36120529472827906 0.01182872010394931 41.113639831542976 0.062938962131738677 -0.022208251059055325 0.16883351653814319
decision_type=2 2 2 2 2 2 2 2 2 2 2 2 2 2 2 2 2 2 2 2 2 2 2 2 2 2 2 2 2 2 2 2 2 2 2 2 2 2 2 2 2 2 2 2 2 2 2 2 2 2 2 2 2 2 2 2 2 2 2 2 2 2
left_child=6 2 3 4 21 -4 20 8 10 -10 46 13 14 17 -8 26 34 18 19 -5 45 -2 44 -24 28 -22 -13 32 -25 51 -16 -32 33 -28 -6 37 -17 -35 -39 40 -18 -34 -20 -37 -9 -1 -7 -48 49 -49 -29 -30 53 54 -3 -55 -57 -58 59 60 -46 -61
right_child=1 52 5 11 16 7 12 22 9 -11 -12 15 -14 -15 30 36 39 -19 42 -21 25 -23 23 24 -26 -27 27 50 29 -31 31 -33 41 35 -36 43 -38 38 -40 -41 -42 -43 -44 -45 58 -47 47 48 -50 -51 -52 -53 -54 55 -56 56 57 -59 -60 61 -62 -63
leaf_value=0.012268433737209889 0.087207892254499222 0.030282549032433211 0.093872032643728606 -0.011846480852962957 0.0090153947150974651 0.056008723560121779 0.033109413826569921 0.069549795113263577 -0.06900851124726988 0.0057647131993074094 -0.08071307610380872 -0.035541634907177544 0.052207830781068082 -0.023127694878115841 0.010028457477562801 -0.0044368550413374022 -0.061499452075578734 -0.02284772146965873 -0.056611833486396125 0.026585785242530496 0.046239834861842098 -0.017997007237460953 0.030867619915507086 -0.01368620353489957 0.0072102648613019092 -0.0062856012838453951 0.050415551161875342 -0.052760401515203753 -0.037566447124557957 -0.08870432163330487 0.0058331338975576297 -0.0075117242637701412 -0.021700577629968399 -0.025017867004425209 -0.049141354894738594 -0.079085609230720152 0.062263829311648512 0.061905031066420729 -0.013958465239296343 -0.077958837996240621 0.047528417108408889 -0.068360261428024149 0.025887722676688974 0.022858506806136838 0.021862647856867611 0.026147174062531704 0.022117735249693644 0.073303557941881092 -0.087748231125974893 -0.069055902715537354 0.07592424828457045 0.062236200523215851 0.055864233699887668 0.0060834101828399186 -0.04585669184478456 -0.070699298470443511 0.040994518504739674 0.0012552648673308001 0.054968469157546232 0.075099949336943389 -0.044387837761982622 -0.031902590382485392
leaf_weight=130.86228398535604 4.4774641642579791 9.4338076474814461 6.4098463376794816 22.505125494266395 9.7650638153500058 8.9334471970796567 39.991558802081272 6.7195220986905033 47.359952183083806 25.247006868470635 6.5407791007746701 106.46352136182395 19.79203854984371 53.418408671128418 249.44496555973456 70.392662814989308 51.488001059922681 23.598965266843152 8.3299529795622202 86.775499161802145 10.555465216762967 4.5549624098057393 25.242978916889115 227.74862307532749 159.64386936513984 61.917127690074267 8.2592259999364597 27.045602016805791 1.859241300553548 1.501883033379271 225.21694351940823 286.92529652978556 52.23028829973191 78.651241925232171 19.967207160727412 1.8738949571488799 5.2752200670147422 7.7924441755021716 20.250513778868481 54.576919228777115 5.0815232452587216 10.280379088602784 4.0836180801052242 24.446861918728246 16.008776768299867 287.60912616451242 24.460387724771859 2.8255307972431183 4.2363857769669284 1.8502969392138764 1.0167655551558699 9.3763997886417183 13.692490580200682 37.56970024225302 8.8124139530045777 1.7805440800148051 74.837473736013635 14.547128063080889 7.5879280479275613 6.4541145229304657 11.691849570459455 3.0590596084075514
leaf_count=237391 230 2317 101 6501 1127 22 66386 21 397 7774 68 7454 34400 14116 470730 58522 358 5622 507 19227 18958 165 7626 7379 70640 115149 541 737 10 148 446193 506547 1753 3511 269 354 3716 190 1205 4218 708 1679 367 1498 247 540771 187 6 44 57 12 283 3203 9565 2472 219 12270 8002 57 69 205 78
internal_value=-0.000241357 -0.00911462 -0.0129906 -0.020665 -0.0517934 -0.00331314 0.0100905 -0.00435424 -0.023891 -0.0430082 0.00452527 -0.0130486 0.00489105 -0.000503732 0.00372273 -0.0190702 -0.0573039 0.00781418 0.0137601 0.0186711 0.0187894 0.0341541 0.000621317 -0.00189543 -0.00396235 0.00136461 -0.0233832 -0.0178 -0.0113792 0.029871 0.00217961 -0.00164326 -0.0136278 -0.00666043 -0.0300407 -0.0102044 0.000213213 -0.0165704 0.00712212 -0.0645969 -0.0517057 -0.0293741 -0.0294724 0.0156006 0.0214003 0.0218071 0.0177037 0.00744984 -0.0328075 0.0169697 -0.0480979 0.0457211 0.0238704 0.0208899 -0.00649057 0.0247707 0.0324719 0.0345271 0.0141786 0.00586154 -0.00610028 0.0406922
internal_weight=2840.35 1528.03 1367.36 762.601 149.911 604.758 1312.31 598.348 121.454 72.607 48.8468 612.69 821.371 198.712 801.579 413.979 140.879 145.293 121.694 109.281 490.944 9.03243 476.894 425.373 400.13 72.4726 338.311 231.847 240.486 12.7375 761.587 512.142 203.785 141.274 29.7323 133.015 75.6679 106.694 28.043 111.146 56.5695 62.5107 12.4136 26.3208 51.5213 418.471 42.306 33.3726 8.91221 4.67583 28.0624 11.2356 160.674 146.981 18.2462 128.735 91.1651 89.3846 44.8017 37.2138 27.7006 9.51317
internal_count=2704579 268054 230006 134587 7075 95419 2436525 95318 8555 8171 384 127512 1524256 46340 1489856 81172 6680 32224 26602 25728 912269 395 86763 86086 78460 134107 18934 11480 7820 441 1423470 952740 10731 7299 1396 6758 62238 4906 1395 5284 1066 3432 874 1852 677 778162 316 294 107 63 749 293 38048 34845 4789 30056 20491 20272 656 599 452 147
is_linear=0
shrinkage=0.05


Tree=1
num_leaves=63
num_cat=0
split_feature=9 3 6 6 5 10 15 7 7 4 1 10 15 10 4 3 1 15 1 9 4 15 5 14 4 6 6 1 1 6 3 11 10 4 5 3 3 10 5 4 7 1 6 6 3 4 4 4 10 15 15 4 15 1 4 4 11 3 1 15 6 3
split_gain=89.2974 51.7845 43.5103 49.8246 35.7682 30.7407 46.2504 27.3953 27.1253 51.0317 31.9196 23.6141 37.5621 22.3499 21.0883 20.4331 17.9976 17.4087 17.2328 33.3789 16.2549 15.1748 13.6504 12.652 12.6516 25.801 12.0684 12.0222 21.483 11.8726 11.8351 10.9678 10.8549 16.7691 10.6215 10.5511 20.8033 16.2786 11.404 10.4959 12.817 13.0147 10.4578 18.5065 10.455 9.96984 9.93651 9.8576 9.8123 10.5868 9.80546 9.77379 9.71817 10.1499 13.639 10.1826 9.4863 9.37212 9.16891 9.14028 9.87642 14.9825
threshold=0.072317764163017287 -0.52419206500053395 0.01118068862706423 0.14803857356309894 22.81519985198975 0.67323085665702831 26.500000000000004 3.0349999666213994 1.6649999618530276 0.0027862389106303458 0.30806207656860357 0.29972460865974432 11.500000000000002 -3.3602694272994991 0.014526243787258865 -0.41391400992870325 -0.14465312659740445 69.500000000000014 0.033878410235047347 0.032498024404048927 0.00309594429563731 1.0000000180025095e-35 21.761863708496097 -1.0000000180025095e-35 0.00088669909746386122 0.063918717205524458 0.025125629268586639 0.086632736027240767 0.022421910427510742 0.0086606331169605272 -0.39586041867732996 -6.9098200798034659 -1.0266810059547422 0.0045325078535825023 21.574979782104496 -0.44656854867935175 -1.0000000180025095e-35 -3.3602694272994991 25.472678184509281 0.044158155098557479 -3.0099999904632564 0.042386949062347419 0.0068584810942411431 0.0061696371994912633 -0.57303255796432484 0.0049556465819478044 0.0635051764547825 0.012877782341092827 1.4621953964233401 23.500000000000004 28.500000000000004 0.078898221254348769 16.500000000000004 0.030208221636712555 0.078898221254348769 0.003826864762231708 20.083279609680179 -0.62724381685256947 -0.078583072870969758 1.0000000180025095e-35 0.0245368666946888 -0.56651312112808216
decision_type=2 2 2 2 2 2 2 2 2 2 2 2 2 2 2 2 2 2 2 2 2 2 2 2 2 2 2 2 2 2 2 2 2 2 2 2 2 2 2 2 2 2 2 2 2 2 2 2 2 2 2 2 2 2 2 2 2 2 2 2 2 2
left_child=1 8 5 11 20 7 14 16 17 -10 18 24 -13 -5 -7 -14 21 31 23 -20 42 -3 -19 -11 25 26 34 28 -16 58 -26 48 33 -6 -4 -18 -37 39 -39 -38 41 51 43 -2 45 -21 -31 -15 49 -1 52 -41 56 55 -55 -54 -33 -50 -8 -22 -61 -62
right_child=4 2 3 13 32 6 29 -9 9 10 -12 12 15 47 27 -17 35 22 19 44 59 -23 -24 -25 30 -27 -28 -29 -30 46 -32 50 -34 -35 -36 36 37 38 -40 40 -42 -43 -44 -45 -46 -47 -48 -49 57 -51 -52 -53 53 54 -56 -57 -58 -59 -60 60 61 -63
leaf_value=0.0021696707654827747 -0.047133728961635854 0.0067682745334182535 -0.066104416117450646 0.077272078789038967 -0.091191244590162479 -0.048136751145586104 0.036481803432732489 -0.067930081230254388 -0.04570150516979115 -0.043943054219745481 -0.094063508977556373 0.045822674466181192 -0.081259224063205515 -0.002393565432110294 0.040579802151534339 -0.028612777569679504 0.012562895755245216 0.034232679976600539 -0.042121151162694152 -0.0068822187735144884 -0.014381025705624398 0.041242443399002682 -0.045867463356253191 0.057638342933163861 0.0026982746253547871 0.025279147317866926 -0.03917064567217219 0.064091874092305504 -0.016517176729688839 -0.056417596476121157 -0.0087013517488846049 0.016388299990231607 -0.0038994145599391995 0.074689176180153583 0.0017362580131182654 -0.011046170465426899 -0.038913727200836412 0.00070827629845917879 0.047825423182498078 -0.017416178895664835 0.076695252062507435 0.066296126530410449 -0.06651103423095589 0.072258350890372566 -0.078124713625054062 0.080919957634005599 -0.0072888525646663156 0.048098397734970828 -0.057999103026829424 -0.034199171675207557 0.030677830336780842 0.055680643355963871 0.065894295236265901 -0.068343506754644942 0.098750215604829605 -0.0082522410947667955 -0.012615777291109898 0.08307687084261163 -0.0055255672141255249 -0.044690657281154816 0.027811971045837415 -0.067378226141163747
leaf_weight=88.865049018364516 17.068689144784006 82.54814536709091 6.7344439730222794 21.730679563679587 1.8137336373474671 7.178868567243625 19.266955341201538 13.843128546075603 19.036389502318343 3.1544227401664093 4.2456799884821512 13.668513954851731 25.324538869770549 28.047724796269904 112.05708893969677 67.702191008118461 164.09842415225285 6.8701536998196415 14.99482301683747 4.0219227114284939 90.989910886029975 52.047202726365867 23.555407901129001 108.48496286398586 338.06498223604649 26.517403457592081 91.212744951753848 38.082067754701711 19.313792260501941 16.773964641448401 697.32346299337041 338.13842473736076 86.035696412927791 9.5229337673554237 40.270500645630818 346.41096544893662 5.0039235524018286 600.19164722060668 13.122936727413615 18.480389267104332 14.472667163528966 10.912548849417361 49.299861452363984 4.0078530922764903 1.3873891333350901 16.48410990134289 26.633982169436422 14.749879410346692 1.4815476132644105 25.825117667933227 76.998931415710103 6.0767777301371089 5.5135095268196883 10.812033699738093 1.3767463780241076 28.908210872185009 30.755740143751609 5.7319119302846948 39.871820637705241 75.200974480592777 12.375560277723709 6.2069937992819169
leaf_count=94428 3124 72378 1370 571 538 1154 1310 1756 202 333 116 4435 2555 23740 2388 18866 133708 1240 427 46 105703 5632 2835 1353 276019 10733 22956 521 624 497 815491 339465 36409 322 12087 248995 1959 385693 5157 281 111 98 3764 246 113 176 396 4630 22 1466 6825 37 81 1006 32 1462 32188 283 3961 8087 339 1839
internal_value=0.000450777 0.00268718 -0.00037177 -0.00691323 -0.0236208 0.00521257 0.0202936 0.00204027 0.0138411 0.031495 0.0411141 -0.00903103 -0.0315728 0.0359763 0.0358001 -0.0429446 0.00277778 0.00913736 0.0449782 0.0153497 -0.0334597 0.0200992 -0.0277807 0.0547681 -0.00702698 -0.0198973 -0.0285645 0.039356 0.0321856 -0.0064156 -0.00497926 0.0109655 0.00216052 0.0481503 -0.00798334 0.000799963 -0.0011024 0.00405221 0.00171643 0.0301244 0.0370416 0.0208618 -0.0539086 -0.0244305 0.0547116 0.063699 -0.0262735 0.0150081 -0.00246202 -0.00601961 0.0142891 0.000671948 0.0112521 -0.0102601 -0.0494699 0.0036242 0.0139701 0.0541018 0.00816011 -0.0256711 -0.0366249 -0.00398371
internal_weight=4146.9 3794.38 2977.73 1371.35 352.522 1606.39 279.179 1327.21 816.642 171.81 152.773 1306.82 106.695 64.5283 176.632 93.0267 1313.37 644.833 148.528 36.8882 255.15 134.595 30.4256 111.639 1200.12 164.735 138.218 169.453 131.371 102.547 1035.39 614.407 97.3724 11.3367 47.0049 1178.77 1014.67 668.261 613.315 54.9463 49.9424 35.4697 70.3764 21.0765 21.8934 20.506 43.4079 42.7976 121.904 114.69 492.504 24.5572 415.505 46.6105 12.1888 34.4217 368.894 7.21346 59.1388 184.773 93.7835 18.5826
internal_count=2704579 2544208 2060109 1193453 160371 866656 10851 855805 484099 2766 2564 1164512 25856 28941 4687 21421 854049 481333 2448 762 123102 78010 4075 1686 1138656 47146 36413 3533 3012 6164 1091510 477258 37269 860 13457 776039 642331 393336 390850 2486 527 416 7134 3370 335 222 893 28370 96199 95894 381059 318 374234 2581 1038 1543 371653 305 5271 115968 10265 2178
is_linear=0
shrinkage=0.05


end of trees

feature_importances:
amihud=23
short_reversal=20
low_volatility=20
industry_code=13
value_ep=10
momentum_12m1m=9
size=8
north_flow=8
quality=6
roe=3
sentiment_proxy=2
block_trade_premium=2

parameters:
[boosting: gbdt]
[objective: lambdarank]
[metric: ndcg]
[tree_learner: serial]
[device_type: cpu]
[data_sample_strategy: bagging]
[data: ]
[valid: ]
[num_iterations: 500]
[learning_rate: 0.05]
[num_leaves: 63]
[num_threads: -1]
[seed: 42]
[deterministic: 0]
[force_col_wise: 0]
[force_row_wise: 0]
[histogram_pool_size: -1]
[max_depth: -1]
[min_data_in_leaf: 20]
[min_sum_hessian_in_leaf: 0.001]
[bagging_fraction: 0.8]
[pos_bagging_fraction: 1]
[neg_bagging_fraction: 1]
[bagging_freq: 5]
[bagging_seed: 400]
[bagging_by_query: 0]
[feature_fraction: 0.8]
[feature_fraction_bynode: 1]
[feature_fraction_seed: 30056]
[extra_trees: 0]
[extra_seed: 12879]
[early_stopping_round: 0]
[early_stopping_min_delta: 0]
[first_metric_only: 0]
[max_delta_step: 0]
[lambda_l1: 0]
[lambda_l2: 0]
[linear_lambda: 0]
[min_gain_to_split: 0]
[drop_rate: 0.1]
[max_drop: 50]
[skip_drop: 0.5]
[xgboost_dart_mode: 0]
[uniform_drop: 0]
[drop_seed: 17869]
[top_rate: 0.2]
[other_rate: 0.1]
[min_data_per_group: 100]
[max_cat_threshold: 32]
[cat_l2: 10]
[cat_smooth: 10]
[max_cat_to_onehot: 4]
[top_k: 20]
[monotone_constraints: ]
[monotone_constraints_method: basic]
[monotone_penalty: 0]
[feature_contri: ]
[forcedsplits_filename: ]
[refit_decay_rate: 0.9]
[cegb_tradeoff: 1]
[cegb_penalty_split: 0]
[cegb_penalty_feature_lazy: ]
[cegb_penalty_feature_coupled: ]
[path_smooth: 0]
[interaction_constraints: ]
[verbosity: -1]
[saved_feature_importance_type: 0]
[use_quantized_grad: 0]
[num_grad_quant_bins: 4]
[quant_train_renew_leaf: 0]
[stochastic_rounding: 1]
[linear_tree: 0]
[max_bin: 255]
[max_bin_by_feature: ]
[min_data_in_bin: 3]
[bin_construct_sample_cnt: 200000]
[data_random_seed: 175]
[is_enable_sparse: 1]
[enable_bundle: 1]
[use_missing: 1]
[zero_as_missing: 0]
[feature_pre_filter: 1]
[pre_partition: 0]
[two_round: 0]
[header: 0]
[label_column: ]
[weight_column: ]
[group_column: ]
[ignore_column: ]
[categorical_feature: ]
[forcedbins_filename: ]
[precise_float_parser: 0]
[parser_config_file: ]
[objective_seed: 16083]
[num_class: 1]
[is_unbalance: 0]
[scale_pos_weight: 1]
[sigmoid: 1]
[boost_from_average: 1]
[reg_sqrt: 0]
[alpha: 0.9]
[fair_c: 1]
[poisson_max_delta_step: 0.7]
[tweedie_variance_power: 1.5]
[lambdarank_truncation_level: 30]
[lambdarank_norm: 1]
[label_gain: ]
[lambdarank_position_bias_regularization: 0]
[eval_at: ]
[multi_error_top_k: 1]
[auc_mu_weights: ]
[num_machines: 1]
[local_listen_port: 12400]
[time_out: 120]
[machine_list_filename: ]
[machines: ]
[gpu_platform_id: -1]
[gpu_device_id: -1]
[gpu_use_dp: 0]
[num_gpu: 1]

end of parameters

pandas_categorical:[]
