tree
version=v4
num_class=1
num_tree_per_iteration=1
label_index=0
max_feature_idx=66
objective=lambdarank
feature_names=amihud_20d amihud_5d amount_volatility_20d amplitude_1d atr_14d atr_20d atr_pct_14d boll_position boll_width cci_20 consecutive_down consecutive_up gap_down gap_up high_120d high_20d high_60d kdj_k_14d kdj_k_9d log_ret_1d low_120d low_20d low_60d lower_shadow_ratio ma_bullish_alignment ma_cross_10_60 ma_cross_5_20 ma_dispersion ma_dist_10d ma_dist_20d ma_dist_5d ma_dist_60d macd macd_histogram macd_signal macd_signal_cross mom_10d mom_20d mom_60d ret_10d ret_1d ret_20d ret_5d ret_60d ret_accel_5_20 rmi_10d rmi_20d rsi_14 rsi_overbought rsi_oversold trend_strength_20d trend_strength_60d turnover_20d turnover_5d turnover_change_5d turnover_vol_20d upper_shadow_ratio vol_10d vol_20d vol_5d vol_60d vol_ratio_20d vol_ratio_5_20 vol_ratio_5d vol_ratio_60d vp_divergence_10d vp_divergence_5d
feature_infos=none none none [0:0.20086532831192017] [0:91.880714416503906] [0:75.770500183105469] [0:0.10288895666599274] [-2.0699036121368408:2.8477487564086914] [0:1.4952428340911865] [-332.83963012695312:321.03024291992188] [0:11] [0:14] [0:1] [0:1] [0:1] [0:1] [0:1] [0:98.810188293457031] [0:98.79180908203125] [-0.54170256853103638:0.18232156336307526] [0:1] [0:1] [0:1] [0:3453999872] [0:1] [0:1] [0:1] [0:0.13197521865367889] [-0.28343668580055237:0.28705215454101562] [-0.28673437237739563:0.38050520420074463] [-0.23594236373901367:0.18119834363460541] [-0.27753803133964539:0.44750151038169861] [-121.69949340820312:66.29766845703125] [-70.655609130859375:100.55554962158203] [-99.535140991210938:48.863155364990234] [-1:1] [-4.7887763977050781:5.4905953407287598] [-3.8149065971374512:4.1224365234375] [-2.6636142730712891:3.7073047161102295] [-0.44709229469299316:0.73059147596359253] [-0.41824308037757874:0.20000000298023224] [-0.4446004331111908:0.72979211807250977] [-0.45293271541595459:0.59327805042266846] [-0.51741188764572144:0.9539344310760498] [-0.59352868795394897:0.46798577904701233] [0:1] [0:0.96653062105178833] [0:99.999977111816406] [0:1] [0:1] [-6.1800436973571777:7.8537087440490723] [-4.2871780395507812:5.2746992111206055] none none [-1:0] none [0:3200999936] [0:2.1586086750030518] [0:1.5322431325912476] [0:3.0046393871307373] [0:0.92960619926452637] [0:3.8959071636199951] [0:2.0267112255096436] [0:2.3861804008483887] [0:5.5086588859558105] [-0.66122931241989136:6.0899190902709961] [-0.75121438503265381:5.9689531326293945]
tree_sizes=1754 1759 1753 1755 1743 1760 1759 1760 1743 1765 1780 1749 1753 1773 1757 1758 1762 1758 1762 1768 1766 1760 1770 1760 1758 1770 1771 1758 1761 1760 1767 1765 1762 1756 1772 1757 1769 1771 1761 1760 1765 1756

Tree=0
num_leaves=15
num_cat=0
split_feature=29 31 29 50 50 47 31 50 31 29 9 7 46 7
split_gain=713.079 70.1427 63.0404 48.2373 39.9503 37.8732 24.8222 20.0533 12.9355 12.0484 11.7789 11.5263 10.6308 10.4553
threshold=-0.0022306035971269007 0.0049127009697258481 -0.017224441282451149 0.0805538445711136 0.14510791003704074 69.180747985839858 -0.0088879931718111021 -1.0251715779304502 0.0064293013419955978 0.037630433216691024 65.188056945800795 0.63282659649848949 0.35479089617729193 0.56315249204635631
decision_type=2 2 2 2 2 2 2 2 2 2 2 2 2 2
left_child=2 4 7 6 13 11 -4 12 -5 -7 -6 -3 -1 -2
right_child=1 5 3 8 10 9 -8 -9 -10 -11 -12 -13 -14 -15
leaf_value=0.056238986946520755 -0.027735964561590498 -0.066725154740692974 0.031022893001701263 0.079940234200607724 0.040089647967554258 0.0024129800827711774 -0.024870220926276047 0.084135352073472891 0.019348720491606297 -0.076370392295135578 -0.034039192873541423 -0.093440659841050003 -0.013414122676686322 -0.067473784580368762
leaf_weight=20.190673696459275 42.362388483132236 69.678629945847206 42.429627889883704 40.612961753213312 25.135158566932663 19.469316984526817 37.349441090103937 131.79131982421677 11.24798899120651 6.46410226431908 6.8109443028515662 95.999886073172092 7.5177377332001916 27.168686328572221
leaf_count=326 930 1458 842 843 698 360 788 2158 221 123 162 1796 122 635
internal_value=-0.000554576 -0.0556097 0.0548692 0.0292589 -0.0219982 -0.0734103 0.00485592 0.0760062 0.0667987 -0.0172244 0.0242853 -0.082205 0.037341 -0.0432632
internal_weight=584.229 293.089 291.14 131.64 101.477 191.612 79.7791 159.5 51.861 25.9334 31.9461 165.679 27.7084 69.5311
internal_count=11462 6162 5300 2694 2425 3737 1630 2606 1064 483 860 3254 448 1565
is_linear=0
shrinkage=0.05


Tree=1
num_leaves=15
num_cat=0
split_feature=9 9 50 7 31 50 47 31 31 47 50 42 47 33
split_gain=1128.01 220.374 130.002 120.796 55.2351 53.7733 48.0615 42.4566 33.0781 33.0096 31.1854 30.6327 26.095 34.4322
threshold=-37.704673767089837 -90.93487167358397 0.80710271000862133 0.54605221748352062 -0.037713838741183274 -0.31776565313339228 36.707601547241218 -0.025789381004869934 -0.044920528307557099 40.192821502685554 -0.15280520915985105 -0.043885542079806321 36.231122970581062 0.12643369287252429
decision_type=2 2 2 2 2 2 2 2 2 2 2 2 2 2
left_child=1 7 4 6 5 11 -2 10 -8 -9 -1 -3 -6 -14
right_child=3 2 -4 -5 12 -7 8 9 -10 -11 -12 -13 13 -15
leaf_value=0.058396526231284544 -0.053519797876144415 -0.026115437658902282 0.066769101476505763 -0.070006336830632551 -0.033476220678804347 0.067964080021374468 0.042662474451738652 0.0071719029229622856 -0.021032537183672761 0.05743189244939171 0.090915863728215238 0.036774110451053048 0.0076747778364438541 -0.057068564479539174
leaf_weight=178.88241654448211 122.77762179868296 43.833145281299949 90.726184656377882 335.08203684532782 94.639908227138221 50.098552593495697 22.561551150865853 52.504888210445642 211.09581671218621 86.473799836821854 125.40939828567207 34.684230957180262 153.83592508290894 23.699636556208134
leaf_count=559 1102 136 494 4321 479 241 237 205 1845 287 525 163 751 117
internal_value=-3.82372e-05 0.0357772 0.0127225 -0.0484533 0.000488104 0.0274901 -0.0281913 0.0613412 -0.0148823 0.0384441 0.0717989 0.00166536 -0.0122716 -0.000967962
internal_weight=1626.31 934.788 491.518 691.517 400.791 128.616 356.435 443.271 233.657 138.979 304.292 78.5174 272.175 177.536
internal_count=11462 3957 2381 7505 1887 540 3184 1576 2082 492 1084 299 1347 868
is_linear=0
shrinkage=0.05


Tree=2
num_leaves=15
num_cat=0
split_feature=29 7 7 47 7 47 44 29 25 25 28 10 41 29
split_gain=1049.72 127.902 54.394 47.0611 38.0502 30.8989 25.7396 25.148 20.9802 20.3491 18.1209 14.8109 14.7187 13.1497
threshold=-0.0052917592693120232 0.31694231927394872 0.63282659649848949 33.06817817687989 0.082576911896467223 69.496150970458999 0.031134538352489475 -0.014340726658701895 1.0000000180025095e-35 1.0000000180025095e-35 -0.015412149485200642 5.5000000000000009 0.015631211921572689 -0.038582030683755868
decision_type=2 2 2 2 2 2 2 2 2 2 2 2 2 2
left_child=1 4 5 6 -1 9 -3 -5 13 10 -2 -8 -10 -6
right_child=2 3 -4 7 8 -7 11 -9 12 -11 -12 -13 -14 -15
leaf_value=0.084401273748110003 0.057905367344702689 -0.042937229888438004 -0.073107552642085169 0.04031979338005922 0.071331566935881732 0.0020928199945192166 0.012522501422847006 0.0092682594469300113 0.01061186110679609 -0.059313516459693544 -0.036662265563276612 -0.087889944624556737 0.05162912707274863 0.047121557391712497
leaf_weight=86.835557729937136 5.2373114228248587 42.583356558519881 207.12123238132335 145.73566024610773 81.475764017552137 37.599095826153643 63.522236478049308 117.99945536791347 55.268530856817961 147.57038886821829 154.55681292666122 3.8977163247764102 36.194748206995428 179.99744554422796
leaf_count=396 34 388 2667 804 334 439 387 1038 247 1790 1874 27 149 888
internal_value=0.000360617 0.036474 -0.0528533 0.0149681 0.0547506 -0.0406923 -0.0125044 0.0264268 0.0474554 -0.0459261 -0.0335628 0.00671741 0.0268436 0.0546655
internal_weight=1365.6 813.51 552.085 373.738 439.772 344.964 110.003 263.735 352.936 307.365 159.794 67.42 91.4633 261.473
internal_count=11462 4658 6804 2644 2014 4137 802 1842 1618 3698 1908 414 396 1222
is_linear=0
shrinkage=0.05


Tree=3
num_leaves=15
num_cat=0
split_feature=29 9 7 47 47 47 31 47 30 31 7 31 31 39
split_gain=857.263 97.9594 76.3906 41.3473 40.4352 29.5171 29.254 20.9697 18.1237 17.6275 14.8281 12.938 12.8666 11.3254
threshold=-0.0081655629910528642 -94.306396484374986 0.52616167068481456 51.034822463989265 19.345353126525882 41.91734695434571 -0.0048231650143861762 70.158458709716811 -0.023156546056270596 -0.041536469012498849 0.082576911896467223 -0.034085577353835099 -0.01091676391661167 0.051414560526609428
decision_type=2 2 2 2 2 2 2 2 2 2 2 2 2 2
left_child=1 4 5 9 -1 8 -5 12 -2 -3 -6 -12 -4 -8
right_child=2 3 7 6 10 -7 13 -9 -10 -11 11 -13 -14 -15
leaf_value=-0.028134521459652329 0.090527552338541928 0.026657000661131636 -0.034441954942968915 0.057241154950734133 0.07905309964114017 -0.0050426999868372164 -0.0041786914658538243 -0.028754200127190328 -0.044952501561090395 -0.0057184991010968758 0.063610616110503129 0.041513143267569219 -0.068939993136518093 0.05438493852843862
leaf_weight=13.773381710052488 2.5289283245801917 59.784930780529976 30.10888330230955 85.814754272578284 74.025101797655225 113.90490319172386 37.793959062546492 44.980628753197379 103.3303467502119 141.67612609174103 148.81348286941648 119.37739145755768 264.1383372428827 10.562567023676818
leaf_count=54 10 452 527 828 280 1388 244 552 1184 1107 604 486 3692 54
internal_value=0.000374155 0.0375905 -0.0456724 0.0182109 0.0558619 -0.022708 0.0397153 -0.0605495 -0.0417159 0.00388915 0.0592426 0.0537746 -0.06541 0.00861342
internal_weight=1250.61 691.622 558.992 335.632 355.989 219.764 134.171 339.228 105.859 201.461 342.216 268.191 294.247 48.3565
internal_count=11462 4109 7353 2685 1424 2582 1126 4771 1194 1559 1370 1090 4219 298
is_linear=0
shrinkage=0.05


Tree=4
num_leaves=15
num_cat=0
split_feature=29 7 9 50 46 31 50 50 50 9 7 50 31 9
split_gain=710.746 108.947 41.6603 34.1873 35.0029 32.1102 31.3626 22.541 17.16 16.3724 14.2044 13.9954 13.0743 12.269
threshold=-0.0051339098718017331 0.31694231927394872 51.805763244628913 0.10064596682786943 0.33241155743598944 -0.0039860589895397416 0.67062005400657665 -0.92243441939353932 -2.2534365653991695 -94.306396484374986 0.38102889060974127 0.62877318263053905 -0.05456003546714782 -153.95917510986325
decision_type=2 2 2 2 2 2 2 2 2 2 2 2 2 2
left_child=1 5 6 4 8 7 -2 13 -3 -7 -6 -4 -9 -1
right_child=2 3 11 -5 10 9 -8 12 -10 -11 -12 -13 -14 -15
leaf_value=0.073439618235221965 -0.042790782497189268 -0.03557972696281627 -0.073156221027347576 0.035357033707859566 -0.0019182628620103771 0.039758571745019615 0.00016193048207361244 0.07685644791982249 0.027364799914361328 -0.012103016520349428 -0.037637981203058196 -0.044816350257773675 0.053981495171825947 0.014021724627188216
leaf_weight=10.989542218856512 214.23228937073145 12.251866672188042 139.67289052176056 95.081641027471051 54.531817938201129 34.886283062398434 53.015072881360538 98.013819387182593 93.157865410903469 26.993123950436711 56.84448129311204 63.311297400854528 172.2276597272139 41.481949666514993
leaf_count=34 2968 91 2127 903 451 129 809 574 606 170 637 855 921 187
internal_value=0.00025393 0.0323208 -0.0472404 0.0103602 -0.000603312 0.0501288 -0.0342701 0.0564552 0.0200487 0.0171354 -0.020149 -0.0643169 0.062278 0.0264661
internal_weight=1166.69 696.46 470.232 311.868 216.786 384.592 267.247 322.713 105.41 61.8794 111.376 202.984 270.241 52.4715
internal_count=11462 4703 6759 2688 1785 2015 3777 1716 697 299 1088 2982 1495 221
is_linear=0
shrinkage=0.05


Tree=5
num_leaves=15
num_cat=0
split_feature=29 29 7 50 50 50 50 36 58 29 31 29 17 50
split_gain=601.071 73.879 55.8441 40.7694 28.8857 24.9147 22.9317 18.8514 17.2177 16.9957 14.4447 13.4399 13.1161 12.8015
threshold=-0.0084250103682279569 -0.032742531970143311 0.51348066329956066 0.10064596682786943 0.49666570127010351 0.72503072023391735 -0.75118586421012867 -1.4570966362953184 0.22102494537830356 -0.020715892314910885 -0.00080358565901406098 0.033832173794507987 8.0499339103698748 -0.60458797216415394
decision_type=2 2 2 2 2 2 2 2 2 2 2 2 2 2
left_child=1 6 4 8 13 -4 7 -1 -3 -10 -5 -7 -11 -2
right_child=2 3 5 10 -6 11 -8 -9 9 12 -12 -13 -14 -15
leaf_value=0.048082222195413672 -0.052247608636016109 0.026855134127643839 -0.062763975503361366 0.051440350617933533 0.017937145553442294 -0.017789937600916697 0.067884325930242018 -0.016425522590775635 0.01454139062904352 0.02565698175840575 0.017608433494115144 -0.062705367484493776 -0.026200128900533821 -0.019950460078751737
leaf_weight=41.639307727105916 44.691933112218976 83.6117351539433 229.98595313087571 103.92207482492086 40.148902268963866 58.338383599882945 146.05308065190911 15.556904437951742 87.697234090417624 14.829269781708716 45.303386029787362 23.309634347446263 68.601349841686897 97.868510743835941
leaf_count=169 628 525 3821 863 563 923 808 86 516 99 264 316 700 1173
internal_value=-0.000538475 0.0327867 -0.0414726 0.0204158 -0.0195251 -0.0543404 0.0573743 0.0305366 0.00825845 -0.000827745 0.0411693 -0.0306128 -0.0169829 -0.0300754
internal_weight=1101.56 607.214 494.343 403.965 182.709 311.634 203.249 57.1962 254.74 171.128 149.225 81.648 83.4306 142.56
internal_count=11454 4030 7424 2967 2364 5060 1063 255 1840 1315 1127 1239 799 1801
is_linear=0
shrinkage=0.05


Tree=6
num_leaves=15
num_cat=0
split_feature=29 29 7 47 47 47 9 47 31 30 41 6 31 31
split_gain=512.695 59.5251 52.7054 27.8577 22.1118 20.3509 18.9224 17.1938 14.1182 12.2579 11.9909 11.1968 11.1543 11.1223
threshold=-0.0090655605308711511 -0.032742531970143311 0.51348066329956066 40.554857254028327 33.589393615722663 37.341361999511726 -66.83052825927733 69.180747985839858 0.00039853870111983275 -0.0058727001305669537 0.092484489083290114 0.02319834474474192 -0.010513765737414358 -0.022267072461545464
decision_type=2 2 2 2 2 2 2 2 2 2 2 2 2 2
left_child=1 4 5 6 -1 -2 11 12 9 -5 -10 -3 -4 -11
right_child=2 3 7 8 -6 -7 -8 -9 10 13 -12 -13 -14 -15
leaf_value=0.02471203858544609 -0.037545614934630066 0.032249225294351168 -0.027503018902765571 0.049152734173116289 0.063929540359410328 -0.0039288550459318679 -0.020563596740383328 -0.022627367849523343 -0.012172728386716935 0.038799914095162667 0.041850627392149883 -0.0021612459482287512 -0.060175080315452649 -0.0028838296303295087
leaf_weight=47.41543015325442 75.011970475781709 52.661645755171776 29.613592940499075 103.12231350387447 148.53668717201799 112.60276840929873 52.49498082883656 44.570789131976198 29.136371087282896 38.681089822668582 15.86380790080875 42.896940464153886 221.64437401294708 27.295532578951679
leaf_count=227 907 321 624 663 836 1593 536 670 203 465 96 301 3766 246
internal_value=-0.000408444 0.0322409 -0.0381001 0.0202296 0.0544399 -0.0173695 0.00355345 -0.0512474 0.0317614 0.0383849 0.006872 0.0168021 -0.0563243 0.0215547
internal_weight=1041.55 558.105 483.443 362.153 195.952 187.615 148.054 295.829 214.099 169.099 45.0002 95.5586 251.258 65.9766
internal_count=11454 3894 7560 2831 1063 2500 1158 5060 1673 1374 299 622 4390 711
is_linear=0
shrinkage=0.05


Tree=7
num_leaves=15
num_cat=0
split_feature=29 7 9 50 50 29 31 50 50 9 9 50 42 49
split_gain=447.605 69.4024 34.3264 27.8349 24.4191 21.0739 18.3738 13.6588 13.2236 12.6651 12.1304 12.1139 11.9114 10.0189
threshold=-0.0056361770257353774 0.32367484271526342 55.461900711059577 0.84075048565864574 0.49666570127010351 -0.036912355571985238 -0.028458786197006699 0.10064596682786943 -1.2782908678054807 -140.14500427246091 -95.883892059326158 -0.90809312462806691 -0.073101516813039766 1.0000000180025095e-35
decision_type=2 2 2 2 2 2 2 2 2 2 2 2 2 2
left_child=1 5 4 6 11 8 12 10 9 -1 -7 -2 -3 -8
right_child=2 3 -4 -5 -6 7 13 -9 -10 -11 -12 -13 -14 -15
leaf_value=0.063318610670462225 -0.060457428571071704 -0.039124975724525557 -0.058095026039299648 0.054129448980018646 -0.0018732979821213394 0.03447558836823212 -0.00095000284713976787 0.048194324999719526 0.06387980162644738 -0.044455827486892682 0.00046689416449525876 -0.030595021019530586 0.025632601447190057 -0.031816070822129998
leaf_weight=5.1641057245433331 44.176475060172379 7.7741663549095383 159.53753797334502 29.564353546069469 64.277939073101152 68.945552427321672 98.481566577684134 84.642014906741679 118.82694457890466 5.7736475309357029 42.311396274715662 146.85398950701347 82.008085708948784 35.864811725914478
leaf_count=16 784 64 2812 350 1091 339 915 642 675 30 352 2227 774 383
internal_value=-0.000253521 0.0281355 -0.0399005 0.00852835 -0.028531 0.0434095 0.00251321 0.0330576 0.0590373 0.00642835 0.021542 -0.0375008 0.0200253 -0.00918994
internal_weight=994.203 579.357 414.846 253.693 255.308 325.664 224.129 195.899 129.765 10.9378 111.257 191.03 89.7823 134.346
internal_count=11454 4540 6914 2486 4102 2054 2136 1333 721 46 691 3011 838 1298
is_linear=0
shrinkage=0.05


Tree=8
num_leaves=15
num_cat=0
split_feature=29 7 47 9 47 29 47 6 66 25 47 29 41 39
split_gain=398.754 70.095 31.5098 24.0704 22.6611 15.2201 15.0788 11.8145 10.1178 13.7103 9.44634 9.07012 10.041 8.96685
threshold=-0.014035886153578757 0.51348066329956066 40.926023483276374 -95.883892059326158 52.917474746704109 -0.030149782076478001 62.898977279663093 0.025374168530106548 0.4341567605733872 1.0000000180025095e-35 17.497238159179691 -0.038582030683755868 -0.13120497018098828 0.052386511117219932
decision_type=2 2 2 2 2 2 2 2 2 2 2 2 2 2
left_child=2 4 3 10 8 -4 -3 -7 -2 -10 -1 -12 -13 -9
right_child=1 6 5 -5 -6 7 -8 13 9 -11 11 12 -14 -15
leaf_value=-0.034570565689066718 -0.024372117770532997 -0.054382558451528097 0.060406702051586526 -0.0024314958724042999 0.011242407095757143 0.053100861653795697 -0.027300513293216023 0.015531962510299353 0.048977399676255223 -0.058976865900864241 0.056960429654293133 -0.032039121047204626 0.033137565478482026 0.064887730793069837
leaf_weight=4.6832450423389664 162.66876066973782 198.11243820912205 116.46205235400703 72.785982848377898 80.201662424718961 55.092321107746102 69.403507053037174 64.229536515893415 10.589658383280037 4.0720162219367912 39.105255563277751 6.6027391329407683 56.261962718563154 10.741440665093249
leaf_count=29 2106 3806 797 678 1118 403 1254 578 78 44 163 40 287 73
internal_value=-0.000269702 -0.0294317 0.0356756 0.019736 -0.0108119 0.0472776 -0.0473565 0.0355215 -0.0207865 0.018995 0.0348643 0.0380533 0.026292 0.0226034
internal_weight=951.013 525.048 425.965 179.439 257.532 246.525 267.516 130.063 177.33 14.6617 106.653 101.97 62.8647 74.971
internal_count=11454 8406 3048 1197 3346 1851 5060 1054 2228 122 519 490 327 651
is_linear=0
shrinkage=0.05


Tree=9
num_leaves=15
num_cat=0
split_feature=29 9 7 50 50 50 50 31 33 29 42 34 30 42
split_gain=357.058 43.4637 39.5024 36.1684 29.1175 15.9827 12.249 11.3718 9.85847 9.57772 10.4625 9.20805 8.84346 8.84054
threshold=-0.0090655605308711511 -94.306396484374986 0.60967862606048595 0.38034635782241827 0.49666570127010351 -1.3218322396278379 -0.92243441939353932 0.00039853870111983275 0.015900577418506149 -0.037786507979035371 -0.073101516813039766 -0.10242028534412383 -0.0062416065484285346 -0.041694557294249528
decision_type=2 2 2 2 2 2 2 2 2 2 2 2 2 2
left_child=1 5 4 13 6 -1 -2 -6 11 -7 -11 12 -8 -3
right_child=2 3 -4 -5 7 9 8 -9 -10 10 -12 -13 -14 -15
leaf_value=0.0079936710872380492 -0.054378553034827894 -0.013791345616200698 -0.053639079326577105 0.043304261677064936 0.029510111373910859 0.061114136924344892 0.050499584329969288 -0.01111689486332054 -0.042503446138111745 -0.03530703968648434 0.042570301480432865 -0.027513918864773931 -0.0088270596576974173 0.010086675092906623
leaf_weight=26.996524453163147 45.995714310090989 60.954704742878675 154.48771466570906 74.331991610932164 29.096589233668055 91.115082198986784 7.9145662204828104 42.212739448819775 53.169585232972167 4.4744273722171775 119.35433767177165 64.590152683289489 30.442749050736893 106.47494614718016
leaf_count=139 851 589 3047 849 612 503 76 622 925 23 724 950 477 1067
internal_value=-0.000159094 0.029273 -0.0334286 0.0142794 -0.0220094 0.0442555 -0.0317013 0.00546028 -0.0250201 0.0488099 0.0397563 -0.0159903 0.00341427 0.0013936
internal_weight=911.612 483.702 427.91 241.762 273.422 241.94 202.113 71.3093 156.117 214.944 123.829 102.947 38.3573 167.43
internal_count=11454 3894 7560 2505 4513 1389 3279 1234 2428 1250 747 1503 553 1656
is_linear=0
shrinkage=0.05


Tree=10
num_leaves=15
num_cat=0
split_feature=29 29 50 50 50 25 30 29 29 30 62 58 17 36
split_gain=311.411 54.3925 30.576 18.9163 18.8036 14.8224 14.1133 13.6804 10.4991 10.0302 10.7001 10.5242 8.67311 8.13554
threshold=-0.014035886153578757 1.0000000180025095e-35 -0.52472174167633046 0.55694642663002025 0.42948254942893987 1.0000000180025095e-35 -0.0053455131128430358 -0.030149782076478001 0.033832173794507987 -0.0001396122315782122 0.34469558298587805 0.15134529024362567 8.0499339103698748 -0.95297703146934498
decision_type=2 2 2 2 2 2 2 2 2 2 2 2 2 2
left_child=2 4 6 -3 5 9 13 -4 -5 11 -11 -2 -8 -1
right_child=1 3 7 8 -6 -7 12 -9 -10 10 -12 -13 -14 -15
leaf_value=0.029607671794211594 0.038251143030057819 -0.051324225924862799 0.056145122754886805 -0.012400490967597639 0.017340487338895233 -0.037100800944471587 0.018152771102816993 0.032600336517790353 -0.053473735793606585 -0.049632536113040727 -0.0041052927136005259 -0.0071340431435955882 -0.027512442124102029 -0.011645588371345932
leaf_weight=94.402402581181377 19.647128462966066 182.43583324679639 112.16030745441094 62.751231637026649 52.532974855741486 59.137952673918335 17.255193936172873 137.11759362823796 20.688137420569547 20.745742322877049 34.150856410502456 36.508725160034373 26.164236430078745 13.683446155861018
leaf_count=525 175 3813 846 1246 800 832 134 1219 388 231 550 507 265 103
internal_value=-0.000239831 -0.0270359 0.0324275 -0.0423048 -0.00880873 -0.0168803 0.0147128 0.0431941 -0.0225843 -0.00611236 -0.0213103 0.00874477 -0.00936476 0.0243851
internal_weight=889.382 488.599 400.783 265.875 222.723 170.19 151.505 249.278 83.4394 111.052 54.8966 56.1559 43.4194 108.086
internal_count=11634 8542 3092 5447 3095 2295 1027 2065 1634 1463 781 682 399 628
is_linear=0
shrinkage=0.05


Tree=11
num_leaves=15
num_cat=0
split_feature=9 7 9 50 7 25 27 50 9 8 30 50 8 50
split_gain=276.617 38.0323 35.0762 27.6983 15.4957 13.5432 11.5928 10.3276 10.2252 9.4007 8.86416 9.25776 8.53493 8.45224
threshold=-38.550741195678704 0.32641254365444189 56.447509765625007 0.856542468070984 0.11809238791465761 1.0000000180025095e-35 0.02861184906214476 -1.2104733586311338 -144.23134613037107 0.11231121048331262 -0.0034102686913684006 -1.0000000180025095e-35 0.14221617579460147 -2.1440161466598506
decision_type=2 2 2 2 2 2 2 2 2 2 2 2 2 2
left_child=1 4 3 5 -1 6 10 8 -6 -9 11 -2 -3 -14
right_child=2 12 -4 -5 7 -7 -8 9 -10 -11 -12 -13 13 -15
leaf_value=0.060623252965080893 -0.02741418686895037 -0.0047487551888858951 -0.05134638890238398 0.015307125415147222 0.052402708650170431 -0.040641114534376022 0.043421100577977066 0.024260884658642397 -0.021034407577303779 0.045898023412324823 -0.029609837072268354 0.022420300429590062 -0.036078788229903451 0.022045270038238952
leaf_weight=59.364096606615931 16.972913896664977 74.295241493033245 132.1316561968124 46.254518288944382 6.6682291924953487 102.05809540813789 7.6931750241783439 96.404103412292898 16.392172578722239 104.73987897555344 77.768845380051062 20.667068844661117 6.7346948385238639 87.73965643736301
leaf_count=461 273 943 2832 870 33 1794 154 781 113 677 1492 278 68 865
internal_value=-0.000124658 0.0267237 -0.0302192 -0.0199339 0.0379086 -0.0271734 -0.016008 0.0318943 0.000200935 0.0355278 -0.0199695 -5.14543e-05 0.00793066 0.0179018
internal_weight=855.884 452.338 403.546 271.415 283.568 225.16 123.102 224.204 23.0604 201.144 115.409 37.64 168.77 94.4744
internal_count=11634 3941 7693 4861 2065 3991 2197 1604 146 1458 2043 551 1876 933
is_linear=0
shrinkage=0.05


Tree=12
num_leaves=15
num_cat=0
split_feature=29 7 9 50 50 50 25 28 50 47 50 37 9 33
split_gain=249.52 36.9481 28.3657 20.9437 18.7235 14.5819 12.4477 10.5095 9.8287 8.88137 8.83949 10.1816 8.60487 8.28637
threshold=-0.011211582459509371 0.5667376220226289 -94.306396484374986 0.51894566416740429 0.84075048565864574 -0.22135889530181882 1.0000000180025095e-35 -0.018976728431880471 0.14510791003704074 19.345353126525882 -0.79335147142410267 -1.3706367611885069 73.009895324707045 0.17590159922838214
decision_type=2 2 2 2 2 2 2 2 2 2 2 2 2 2
left_child=2 3 5 6 10 9 7 -2 -3 -1 11 -4 -10 -12
right_child=1 8 4 -5 -6 -7 -8 -9 12 -11 13 -13 -14 -15
leaf_value=-0.018357418726665384 0.060583289150308334 -0.056343557016416738 0.01268127859743047 0.010960725726181581 0.047269225685382887 0.054861442686141675 -0.039730171283127266 -0.016050909095673315 -0.01396140443826089 0.032465392992750454 0.019852230441562639 -0.031664303518321973 -0.046572048439789321 -0.021015334748284126
leaf_weight=9.3151420447975379 4.6726265680044881 91.809896078135353 24.889935377053916 59.245061145455111 34.381363578489982 93.327107765479013 70.343337982019875 105.14737734547816 35.452834040217567 111.36639773705974 96.889965660055168 26.967886081896722 47.106534816150088 14.224554019863715
leaf_count=62 36 2088 203 1047 506 676 1243 1822 808 648 997 302 1040 156
internal_value=-0.000164421 -0.0275794 0.0274115 -0.0148283 0.013739 0.0400199 -0.0233087 -0.0127903 -0.0450866 0.0285425 0.00666533 -0.01038 -0.0325683 0.0146205
internal_weight=825.14 413.778 411.362 239.408 197.354 214.009 180.163 109.82 174.369 120.682 162.972 51.8578 82.5594 111.115
internal_count=11634 8084 3550 4148 2164 1386 3101 1858 3936 710 1658 505 1848 1153
is_linear=0
shrinkage=0.05


Tree=13
num_leaves=15
num_cat=0
split_feature=29 29 7 50 50 50 31 31 30 9 31 31 10 30
split_gain=224.802 41.0179 20.9044 20.0042 17.3983 14.9068 14.8109 12.8116 12.4403 10.2849 7.86545 7.59559 7.35443 6.85512
threshold=-0.0051339098718017331 -0.021132116205990311 0.64082515239715587 -0.051948092877864831 -1.0025272965431211 -0.10025284439325331 -0.0048231650143861762 -0.01807454694062471 -0.021125670522451397 -144.23134613037107 -0.014060768298804758 0.010721212252974512 3.5000000000000004 -3.8448451707973055e-06
decision_type=2 2 2 2 2 2 2 2 2 2 2 2 2 2
left_child=1 4 5 7 9 -2 -6 12 -7 -1 -10 -5 -3 -12
right_child=2 3 -4 11 6 8 -8 -9 10 -11 13 -13 -14 -15
leaf_value=0.049967819389694274 -0.040078946197027107 0.015131901365976459 -0.051131066842795884 0.029735904424035394 0.048098875091736215 0.058629053532054422 0.015175599924200056 -0.023189902494497452 0.018225825693615857 -0.0020869524445330215 -0.007983737408220731 -0.006194962447758288 -0.04351357423194855 -0.033472688819498629
leaf_weight=12.223050305154173 84.707138869300252 52.082067680777982 105.50960265455069 75.169799274561228 164.56516480579739 5.7911422385368487 43.108003181871027 65.154115954996087 14.428930105234029 42.422289696987718 51.140558345476165 18.286533592268825 5.9573779739439479 54.479285182780586
leaf_count=64 1885 581 2554 987 1446 68 276 831 473 310 869 181 78 1031
internal_value=-0.000235735 0.021362 -0.0329661 0.00526155 0.0346594 -0.0238632 0.0412648 -0.00797155 -0.0129478 0.00955664 -0.0164007 0.0227053 0.00911232 -0.0211311
internal_weight=795.025 478.968 316.057 216.65 262.319 210.547 207.673 123.194 125.84 54.6453 120.049 93.4563 58.0394 105.62
internal_count=11634 4754 6880 2658 2096 4326 1722 1490 2441 374 2373 1168 659 1900
is_linear=0
shrinkage=0.05


Tree=14
num_leaves=15
num_cat=0
split_feature=29 31 47 50 9 50 31 50 30 30 34 50 19 50
split_gain=200.491 37.2475 22.9273 19.9741 19.0017 17.5171 10.5628 9.35187 8.94131 8.69056 8.03932 7.91117 7.2173 7.00187
threshold=-0.0051339098718017331 -0.028041315264999863 35.50842475891114 -0.43440900743007654 73.009895324707045 -0.10025284439325331 0.011131843551993372 1.1492540240287783 0.0029518277151510124 -0.021125670522451397 -4.6330144405364981 -2.2534365653991695 0.0033023075666278605 1.3723763823509219
decision_type=2 2 2 2 2 2 2 2 2 2 2 2 2 2
left_child=1 3 10 8 5 -2 7 12 11 -7 -3 -1 -4 -11
right_child=4 2 6 -5 -6 9 -8 -9 -10 13 -12 -13 -14 -15
leaf_value=-0.026673051586120551 -0.040925289098959455 0.034916534273645709 0.022645150435938104 0.049951392191543265 -0.052025759004072594 0.051351141090765676 -0.0077009538795834755 0.054248820971475167 -0.026496677343527137 -0.019422482318610722 -0.024683727838908886 0.028276347023647255 -0.008734899796756233 0.016774931693791295
leaf_weight=7.065838783979415 91.0957633543876 6.2725085765123358 102.74010143778287 112.33982161275344 85.306555738672614 5.1618454686831674 37.513087667524815 19.533830359869171 9.5281438927631807 106.59245277853915 57.753545145969838 89.759155372041278 22.300757883349434 15.274150909448506
leaf_count=62 2136 42 911 1434 2122 65 347 224 137 2219 681 641 275 338
internal_value=-0.000404285 0.0202335 0.00689117 0.0352488 -0.032018 -0.0241932 0.0159405 0.0220748 0.0197185 -0.0121941 -0.0188448 0.0242664 0.0170486 -0.0148857
internal_weight=768.238 464.807 246.114 218.693 303.431 218.124 182.088 144.575 106.353 127.028 64.0261 96.825 125.041 121.867
internal_count=11634 4754 2480 2274 6880 4758 1757 1410 840 2622 723 703 1186 2557
is_linear=0
shrinkage=0.05


Tree=15
num_leaves=15
num_cat=0
split_feature=29 31 9 50 9 47 50 50 29 31 42 50 50 31
split_gain=192.672 41.6151 22.6078 22.1721 16.4321 14.8827 13.3561 11.3267 9.3038 8.85565 7.3005 7.04709 6.97573 6.56269
threshold=-0.014035886153578757 -0.010513765737414358 -94.306396484374986 0.62877318263053905 25.827724456787113 19.345353126525882 0.48742927610874182 0.44145393371582037 0.01657888945192099 -0.05456003546714782 -0.063431132584810243 -1.0994863510131834 -1.5410982370376585 -0.073224607855081544
decision_type=2 2 2 2 2 2 2 2 2 2 2 2 2 2
left_child=2 7 5 4 11 -1 12 13 -5 -7 -11 -3 -4 -2
right_child=1 3 6 8 -6 9 -8 -9 -10 10 -12 -13 -14 -15
leaf_value=-0.031653781651914008 0.062846167872983069 -0.055100065991907698 -0.032373489199021312 0.0036995925871576595 -0.054662920355463031 0.057566140486678311 0.037776771003569652 0.03642292662994711 -0.031384584256015043 0.0067626950713579369 0.039645299267346432 -0.02255856056881024 0.0086466445719393815 -0.0073292975802386646
leaf_weight=7.1272514751180998 3.5037214710027902 19.768536876887083 11.582799379481001 50.476753189956071 103.45492447758443 61.052032053470612 40.952871911867987 23.070298994425684 30.203076051926473 20.15097750723362 103.97213997947983 105.02390839793952 98.511431809572969 67.81384084263118
leaf_count=50 55 376 117 845 2688 491 607 662 737 107 682 1802 1047 1325
internal_value=0.000347942 -0.0230869 0.0278757 -0.0319647 -0.0399285 0.0392466 0.013399 0.00596958 -0.00943442 0.0419755 0.0343069 -0.0277135 0.004331 -0.00388169
internal_weight=746.665 403.315 343.35 308.927 228.247 192.302 151.047 94.3879 80.6798 185.175 124.123 124.792 110.094 71.3176
internal_count=11591 8490 3101 6448 4866 1330 1771 2042 1582 1280 789 2178 1164 1380
is_linear=0
shrinkage=0.05


Tree=16
num_leaves=15
num_cat=0
split_feature=29 31 50 50 29 47 58 31 47 31 7 31 8 30
split_gain=173.152 39.3441 21.5085 21.3356 19.322 15.1314 13.416 10.5228 8.68049 8.55163 8.308 7.74183 7.22397 6.86242
threshold=-0.014035886153578757 0.0059779323637485513 -1.5410982370376585 0.40456931293010717 -0.040747631341218941 71.824558258056655 0.22102494537830356 -0.01807454694062471 33.06817817687989 -0.014405703637748955 0.69197896122932445 0.040378451347351081 0.10440077260136606 -0.0030274488963186737
decision_type=2 2 2 2 2 2 2 2 2 2 2 2 2 2
left_child=2 3 9 7 -4 10 -6 -2 -8 -1 -3 12 -10 -14
right_child=1 5 4 -5 6 -7 8 -9 11 -11 -12 -13 13 -15
leaf_value=-0.0050999634208271499 0.0021749583930449818 -0.03640641576447097 0.053181322530142218 0.021085081317702158 0.04377677666272161 0.00062251769844599934 -0.0050896351282647872 -0.025697930347374366 0.0068660234286172725 -0.084226288560813989 -0.060832713382875429 -0.049489441634817985 0.039350620559083602 0.0068535291256097697
leaf_weight=19.493390486924913 51.237910588883096 117.90757328586187 72.119841029518284 51.261712381558027 61.03991177608259 21.851913525897544 36.637951768934727 99.847719559213147 41.339404848171398 4.1398320775479069 49.394855936989188 3.6564666591584674 71.782825784932356 20.997269440325908
leaf_count=152 976 2535 628 1217 544 386 357 2031 409 46 1345 29 605 331
internal_value=0.000397225 -0.0221133 0.0270057 -0.00678824 0.0305376 -0.0385072 0.0236018 -0.0162454 0.0165412 -0.0189605 -0.0436181 0.0222933 0.0242503 0.0319961
internal_weight=722.709 391.502 331.207 202.347 307.574 189.154 235.454 151.086 174.414 23.6332 167.302 137.776 134.12 92.7801
internal_count=11591 8490 3101 4224 2903 4266 2275 3007 1731 198 3880 1374 1345 936
is_linear=0
shrinkage=0.05


Tree=17
num_leaves=15
num_cat=0
split_feature=9 9 31 50 50 47 9 31 31 50 31 10 50 31
split_gain=152.296 34.0297 25.0033 20.1099 17.0518 15.0942 10.0295 8.2778 8.13047 7.73772 5.86004 6.34194 6.13144 5.59997
threshold=-30.793397903442379 -97.355182647705064 -0.0071995474863797418 0.049046203494071967 0.8240797519683839 19.345353126525882 43.108736038208015 -0.05456003546714782 -0.016634885221719738 0.53082275390625011 -0.012498263735324143 4.5000000000000009 -1.5410982370376585 -0.044920528307557099
decision_type=2 2 2 2 2 2 2 2 2 2 2 2 2 2
left_child=1 5 9 10 6 -1 -4 -7 -5 13 11 -3 -12 -2
right_child=2 3 4 8 -6 7 -8 -9 -10 -11 12 -13 -14 -15
leaf_value=-0.041830606437519229 0.02399182297961271 0.0084190933256464619 -0.030193374239045924 0.044587609596157284 -0.0075125377471504723 0.056258150036066115 -0.053238303850193673 0.03246072675371902 0.013911777605554643 0.033788185117235463 -0.064367724674197754 -0.043041913474507879 -0.011187627502083157 -0.017111781327007407
leaf_weight=5.8288145223632446 10.716667049215173 72.474579407600686 107.24677400462679 35.695973855035845 49.856121318298392 53.514670871431008 84.346137494547293 115.2190072897356 54.701769049745053 14.660924134601371 6.1065817885100833 6.5260519710136569 48.211407742346637 36.540241645183414
leaf_count=49 200 907 2127 716 1094 471 2417 808 595 521 92 79 596 919
internal_value=0.000399658 0.0207301 -0.0262913 0.00781988 -0.0335604 0.0372755 -0.0403386 0.0400082 0.026025 0.00205449 -0.00452421 0.00416802 -0.0171663 -0.00779053
internal_weight=701.646 398.279 303.367 223.716 241.449 174.562 191.593 168.734 90.3977 61.9178 133.319 79.0006 54.318 47.2569
internal_count=11591 4313 7278 2985 5638 1328 4544 1279 1311 1640 1674 986 688 1119
is_linear=0
shrinkage=0.05


Tree=18
num_leaves=15
num_cat=0
split_feature=29 31 50 50 31 29 50 9 34 31 50 29 42 57
split_gain=145.1 33.4397 19.6405 17.6371 18.3552 14.3414 7.71483 7.68201 7.45073 7.13549 6.9837 6.6089 9.30971 6.26473
threshold=-0.014035886153578757 -0.013617757242172955 0.62877318263053905 -1.2286226153373716 -0.034608168527483933 0.011011081282049419 0.44145393371582037 87.684741973876967 -0.34440393745899195 0.041916402056813247 -0.68730756640434254 -0.039743794128298753 -0.079000804573297487 0.2859428226947785
decision_type=2 2 2 2 2 2 2 2 2 2 2 2 2 2
left_child=3 6 5 8 11 10 -2 -4 13 -6 -3 -5 -13 -1
right_child=1 2 7 4 9 -7 -8 -9 -10 -11 -12 12 -14 -15
leaf_value=0.025851225185315376 -0.0003708268913900825 -0.044283344550481794 0.0014325851297303036 0.058560634453951869 0.020135180992925678 -0.055257737845796698 0.036849532754963922 -0.036774077396438669 -0.0376002340185006 -0.048536092266236869 -0.020313773638256722 -0.046340373903685395 0.038842268277579424 -0.02415223163019772
leaf_weight=18.623870820971209 61.209365816961508 43.326176420086995 60.220429961074842 49.627624403685331 143.90570759051479 68.29778344836086 18.021008016861742 16.834143364976626 12.328152548521755 3.8849210422486058 101.76273231164669 3.3607335817068806 70.373064566752873 9.4382958835922164
leaf_count=134 1221 936 1154 516 1276 2125 592 482 133 33 1980 36 870 103
internal_value=0.000486899 -0.0206973 -0.0285517 0.0256238 0.0302153 -0.0363649 0.00809497 -0.00691444 -0.00520044 0.01833 -0.0274715 0.0444542 0.0349597 0.0090333
internal_weight=681.214 369.672 290.441 311.542 271.152 213.387 79.2304 77.0546 40.3903 147.791 145.089 123.361 73.7338 28.0622
internal_count=11591 8490 6677 3101 2731 5041 1813 1636 370 1309 2916 1422 906 237
is_linear=0
shrinkage=0.05


Tree=19
num_leaves=15
num_cat=0
split_feature=29 31 31 50 47 47 50 31 31 30 30 7 58 33
split_gain=128.19 32.2603 18.3544 16.926 16.7961 13.6399 9.74304 8.80686 7.96761 7.15485 6.64534 6.33177 5.44844 5.35811
threshold=-0.014035886153578757 0.0085600838065147417 -0.036384712904691689 0.10064596682786943 25.534430503845218 66.283794403076186 -0.8931463062763213 -0.021443408913910385 0.041916402056813247 0.0018121718312613668 -0.0013050662819296119 0.63282659649848949 0.12962968647480014 -0.088549327105283723
decision_type=2 2 2 2 2 2 2 2 2 2 2 2 2 2
left_child=2 3 6 7 -4 11 9 12 10 -1 -6 -3 -2 -9
right_child=1 5 4 -5 8 -7 -8 13 -10 -11 -12 -13 -14 -15
leaf_value=0.023818778629865464 0.079892144770708162 -0.034905584118135276 -0.033073484055177453 0.013834462135123633 0.024672516019821754 -0.0081752500471390741 0.046564288776641059 -0.014961239203828872 -0.054935590611853616 -0.05055558737376159 -0.006456441047752292 -0.057762269883535056 -0.00081375875611210428 -0.039128761769624737
leaf_weight=36.578947107773274 2.2295301258563986 75.837989361491054 17.520061375573277 68.261539671744686 126.75241716095479 33.558912402484566 96.405140830145683 55.918702164926799 3.589722327888011 3.5472429180517784 19.826371666043997 50.460253025405109 33.71281153470045 38.880975032225251
leaf_count=289 16 1696 176 1709 1038 720 1231 1066 31 50 286 1623 689 971
internal_value=0.000459162 -0.0197825 0.0243364 -0.00634626 0.0132546 -0.036509 0.0379471 -0.0168828 0.0186596 0.0172439 0.020462 -0.0440376 0.00419249 -0.0248733
internal_weight=663.081 358.861 304.22 199.004 167.689 159.857 136.531 130.742 150.169 40.1262 146.579 126.298 35.9423 94.7997
internal_count=11591 8490 3101 4451 1531 4039 1570 2742 1355 339 1324 3319 705 2037
is_linear=0
shrinkage=0.05


Tree=20
num_leaves=15
num_cat=0
split_feature=29 29 50 50 37 47 50 6 30 45 29 50 7 10
split_gain=117.824 28.3144 18.9558 13.5536 8.51154 8.98397 8.46747 8.33175 8.23143 6.80712 6.79684 6.8638 6.22647 5.89574
threshold=-0.003195285913534462 -0.030149782076478001 -0.051948092877864831 -0.019182670861482617 -1.1707587242126463 25.534430503845218 -1.2286226153373716 0.022533855400979522 -0.014678328763693569 0.10157136991620065 0.028992518782615665 0.84075048565864574 0.56315249204635631 3.5000000000000004
decision_type=2 2 2 2 2 2 2 2 2 2 2 2 2 2
left_child=1 6 4 12 9 -6 -1 -7 -5 -3 11 -10 -2 -11
right_child=3 2 -4 8 5 7 -8 -9 10 13 -12 -13 -14 -15
leaf_value=-0.00034762269264023164 -0.028596607458779944 -0.037642351365705984 0.022632247114851671 0.030432234617091526 -0.044215049628894804 0.012392218433009491 0.039738347191738202 -0.018957189403694133 -0.024741495106740945 0.021186255265597264 -0.046299091388114617 0.0032212756080280841 -0.053977855670933085 -0.037357769440067294
leaf_weight=14.856699084164573 43.40368466603104 6.4968132004141799 116.49502712953836 8.1715454676887003 18.26024396950379 36.871976268826984 116.29314859188162 49.846032690489665 69.168508896662388 52.329501502914354 22.410117072169669 32.143895510933362 54.508992305258289 4.6854931414127341
leaf_count=135 1112 74 1750 140 308 493 1150 689 1726 534 735 814 1861 67
internal_value=0.000102488 0.0159716 0.00712396 -0.0286334 -0.00359856 -0.0123396 0.0351974 -0.00562761 -0.0181712 0.0108495 -0.0213814 -0.0158696 -0.0427266 0.0163751
internal_weight=645.942 416.135 284.985 229.807 168.49 104.978 131.15 86.718 131.894 63.5118 123.723 101.312 97.9127 57.015
internal_count=11588 5200 3915 6388 2165 1490 1285 1182 3415 675 3275 2540 2973 601
is_linear=0
shrinkage=0.05


Tree=21
num_leaves=15
num_cat=0
split_feature=29 31 31 49 48 31 9 10 18 58 29 9 61 51
split_gain=107.845 30.4635 13.1805 12.4211 9.80817 9.42315 9.01924 9.44002 7.88675 9.33977 8.63769 6.30335 5.57105 5.11216
threshold=-0.003195285913534462 -0.037173451855778687 1.0000000180025095e-35 1.0000000180025095e-35 1.0000000180025095e-35 0.010721212252974512 -125.09674072265624 4.5000000000000009 48.87372016906739 0.22193053364753726 -0.025302654132246968 -97.355182647705064 0.67401301860809337 -0.16267486661672589
decision_type=2 2 2 2 2 2 2 2 2 2 2 2 2 2
left_child=1 6 -2 5 -4 8 -1 12 9 11 -11 -3 -8 -14
right_child=2 3 4 -5 -6 -7 7 -9 -10 10 -12 -13 13 -15
leaf_value=0.052157904811578476 -0.01218021452610347 0.047809025607078351 -0.043205955930506815 -0.017649647602906406 -0.0068793454178913711 -0.010791305386575039 0.055898140176431355 -0.031040806344321666 0.037458021420635722 0.018463321881604787 -0.011907769021891399 0.011258234240155431 0.011846804562520779 0.039032626922137069
leaf_weight=46.688547658501193 82.439611764100846 22.440957402344793 116.69035226882261 47.86355597153306 22.100632677378599 42.011505288537592 16.484322028962197 6.8969551748596123 33.340503126499243 41.692719469312578 53.38945863279514 24.865431510028429 39.968732583569363 30.479642866412178
leaf_count=403 2261 182 3623 654 504 485 331 85 526 342 727 401 456 608
internal_value=7.24314e-05 0.015373 -0.0280155 0.00541254 -0.0374214 0.0104821 0.0342001 0.0252645 0.0155679 0.0104423 0.00140969 0.028597 0.0297316 0.0236088
internal_weight=627.353 406.122 221.231 265.604 138.791 217.741 140.518 93.8297 175.729 142.389 95.0822 47.3064 86.9327 70.4484
internal_count=11588 5200 6388 3317 4127 2663 1883 1480 2178 1652 1069 583 1395 1064
is_linear=0
shrinkage=0.05


Tree=22
num_leaves=15
num_cat=0
split_feature=29 31 47 50 31 31 50 50 30 31 19 30 50 8
split_gain=98.5747 27.6547 18.7304 12.1402 10.3115 9.85969 9.50057 9.06245 7.65252 7.71321 6.53528 6.24559 6.16896 5.71487
threshold=-0.003195285913534462 -0.037173451855778687 25.534430503845218 -0.019182670861482617 0.010721212252974512 -0.005154301179572939 -0.43440900743007654 1.0334349870681765 -0.014678328763693569 0.055208873003721244 0.0074875471182167539 -0.0035250403452664609 0.72503072023391735 0.12489001080393793
decision_type=2 2 2 2 2 2 2 2 2 2 2 2 2 2
left_child=1 6 -3 5 7 -2 10 11 -5 12 13 -4 -10 -1
right_child=3 2 4 8 -6 -7 -8 -9 9 -11 -12 -13 -14 -15
leaf_value=-0.0088203875445026347 -0.0102775796767565 -0.03212458661961775 0.017719900865836705 0.030669726091318208 -0.011699798861881064 -0.049698281501539363 0.047429580663453846 0.04451739016724434 -0.024275262092697689 -0.047619510975714027 -0.027064319901513891 -0.0033877423365775042 0.0017818932374951066 0.031849634336290282
leaf_weight=10.200752819655461 20.440817884518765 29.427214685827494 113.15108127798885 7.9329192712903014 43.484187923837453 70.808831516245846 63.261373752175132 23.284541585686384 57.930919276404893 20.86923459963873 6.4578317659907034 50.770521048572846 37.364508072641911 56.370864447439089
leaf_count=114 645 441 1120 140 517 2328 1180 375 1574 618 95 864 1083 494
internal_value=0.000208012 0.0150012 0.00544178 -0.0270231 0.0102338 -0.0408677 0.0332458 0.0153285 -0.0168431 -0.0200878 0.0209592 0.0111823 -0.0140585 0.0256178
internal_weight=611.756 396.408 260.118 215.347 230.69 91.2496 136.291 187.206 124.098 116.165 73.0294 163.922 95.2954 66.5716
internal_count=11588 5200 3317 6388 2876 2973 1883 2359 3415 3275 703 1984 2657 608
is_linear=0
shrinkage=0.05


Tree=23
num_leaves=15
num_cat=0
split_feature=29 7 47 29 42 25 58 66 47 3 47 47 31 31
split_gain=90.5418 22.9359 15.633 15.3371 11.8624 7.76063 7.18008 6.61958 6.43068 6.30477 6.04622 5.77743 6.03541 5.62711
threshold=-0.014035886153578757 0.57967534661293041 36.458221435546882 -0.037786507979035371 -0.073101516813039766 1.0000000180025095e-35 0.22032832354307177 0.52360212802886974 14.044569015502931 0.018594333902001384 52.672065734863288 71.824558258056655 0.0085600838065147417 -0.037173451855778687
decision_type=2 2 2 2 2 2 2 2 2 2 2 2 2 2
left_child=3 2 5 8 9 7 -6 -2 -1 -5 -3 12 -4 -8
right_child=1 10 11 4 6 -7 13 -9 -10 -11 -12 -13 -14 -15
leaf_value=-0.046115897974554593 -0.021823346099246761 -0.050457101616994626 0.0049369367877176648 0.044710510447136587 0.033271055165683461 -0.049605836928846535 0.026429966209789227 0.037486341747378166 0.043167320937820455 -0.049625185678231563 -0.025601287903054871 0.027155812497189648 -0.018420088585039102 0.0046716042923682132
leaf_weight=2.0749435661127782 47.939681254676543 49.015012609073892 81.962519424123457 2.1411024853587142 50.74937998841051 25.389462084043771 42.787561414326774 5.2164793703705064 71.938355271413457 10.250778005924074 48.850425959157292 18.299683916455251 41.743215889553539 97.257809747825377
leaf_count=21 909 1899 1954 13 558 610 629 42 799 129 1738 362 910 1015
internal_value=0.000284077 -0.017905 -0.00896595 0.0211776 0.0140794 -0.0268649 0.0171583 -0.016003 0.0406643 -0.0333256 -0.0380501 0.00093428 -0.00294465 0.0113194
internal_weight=595.616 318.416 220.551 277.2 203.187 78.5456 190.795 53.1562 74.0133 12.3919 97.8654 142.005 123.706 140.045
internal_count=11588 8424 4787 3164 2344 1561 2202 951 820 142 3637 3226 2864 1644
is_linear=0
shrinkage=0.05


Tree=24
num_leaves=15
num_cat=0
split_feature=31 30 31 7 43 41 58 29 39 30 62 37 45 37
split_gain=82.5784 26.9542 13.7042 10.9974 8.3369 8.23418 5.66287 5.301 5.446 5.08209 5.07642 5.99115 5.07328 5.03293
threshold=-0.010513765737414358 -0.008280493784695862 -0.037713838741183274 0.57967534661293041 -0.095584809780120836 -0.053008720278739922 0.25044581294059759 -0.038582030683755868 -0.10487810522317885 -0.023156546056270596 0.33478567004203802 -1.1859185695648191 0.10845109075307847 -0.07508098334074019
decision_type=2 2 2 2 2 2 2 2 2 2 2 2 2 2
left_child=2 4 7 -3 -2 6 12 -1 -9 -10 -6 -12 -4 -13
right_child=1 3 5 -5 10 -7 -8 8 9 -11 11 13 -14 -15
leaf_value=0.045464018479998224 -0.04370866256249796 -0.017933775711490508 -0.064878170357529463 -0.04086635571000638 0.041915365463452939 0.019853690781026362 -0.022488362642290729 -0.014680503372747431 -0.031101889413303593 0.031426598722544628 0.040725876604933521 -0.022957703142028822 0.015137622089429007 0.0088765033620512891
leaf_weight=47.432025348593015 7.7131865015253416 141.02266579937714 2.1321806162595776 83.075801865430549 11.21669030934572 78.406229275366059 25.740138565655798 7.9922834765166035 3.3991252175765103 73.859046681551263 10.420459348242728 17.46443101204931 27.932870512828231 42.94859668111895
leaf_count=624 123 2872 33 3142 91 1477 421 92 44 1335 67 231 412 624
internal_value=0.00022464 -0.0171616 0.0206706 -0.0264351 0.0059901 0.00940535 -0.00527457 0.0320656 0.0246109 0.0286755 0.0106621 0.00571301 0.00946299 -0.000326252
internal_weight=580.756 313.862 266.894 224.098 89.7634 134.211 55.8052 132.682 85.2505 77.2582 82.0502 70.8335 30.0651 60.413
internal_count=11588 7150 4438 6014 1136 2343 866 2095 1471 1379 1013 922 445 855
is_linear=0
shrinkage=0.05


Tree=25
num_leaves=15
num_cat=0
split_feature=29 29 50 31 50 42 29 37 31 6 31 31 31 28
split_gain=73.9551 20.7695 13.8538 14.0565 13.5961 6.71512 7.72514 6.67175 6.05408 5.24745 5.1591 4.83573 4.59584 4.93846
threshold=-0.0073764699045568696 -0.032742531970143311 0.51894566416740429 0.0076130682136863479 0.50839439034461986 -0.063431132584810243 -0.05998848378658294 1.5404909849166872 -0.028458786197006699 0.02302598208189011 0.008078595623373987 -0.013617757242172955 -0.027069652453064915 -0.030026034452021119
decision_type=2 2 2 2 2 2 2 2 2 2 2 2 2 2
left_child=1 5 3 12 8 6 -1 -4 -3 -10 -7 -6 -2 -14
right_child=2 4 7 -5 11 10 -8 -9 9 -11 -12 -13 13 -15
leaf_value=0.051026454064039876 0.0099247556966483852 0.012490877141176656 0.0047218002316426521 -0.044620597120300767 0.04653337577914779 0.049847934606705717 0.0035500871659742261 -0.034410566509644518 0.0061685243259255486 -0.015959669444111174 -0.023097191807425199 0.014944524366205275 0.07248415996316597 -0.022284299168791294
leaf_weight=12.838190785259938 14.737975321360862 70.51565647975076 58.006610925513087 77.155039954697713 24.51224078447558 52.877287646231707 25.761535099358298 13.410018259426577 47.501276944298297 61.450460215564817 2.5403909939341238 23.955344719812274 1.4002076033502806 75.426868156588171
leaf_count=124 435 938 1708 2630 491 686 242 413 597 830 17 297 11 2125
internal_value=-8.52364e-05 0.0155781 -0.0210852 -0.0288986 0.00742196 0.0353519 0.0193406 -0.00262615 0.00107588 -0.00631212 0.0465041 0.0309204 -0.0156509 -0.0205571
internal_weight=562.089 321.952 240.137 168.72 227.935 94.0174 38.5997 71.4166 179.467 108.952 55.4177 48.4676 91.5651 76.8271
internal_count=11544 4222 7322 5201 3153 1069 366 2121 2365 1427 703 788 2571 2136
is_linear=0
shrinkage=0.05


Tree=26
num_leaves=15
num_cat=0
split_feature=31 7 29 50 47 47 19 50 50 33 7 42 44 50
split_gain=70.0325 19.0697 16.431 12.3036 11.4733 10.9466 8.9629 6.43349 5.89048 6.02643 5.44257 5.52362 5.2579 5.038
threshold=-0.0068221660330891601 0.46666242182254797 -0.032742531970143311 -0.62716826796531666 69.180747985839858 37.341361999511726 -0.016074785031378266 -0.29091534018516535 1.0334349870681765 0.084694761782884612 0.60967862606048595 -0.011638654861599205 1.0000000180025095e-35 -1.445842921733856
decision_type=2 2 2 2 2 2 2 2 2 2 2 2 2 2
left_child=2 5 7 12 10 13 -7 -1 9 -5 11 -3 -4 -2
right_child=1 4 3 8 -6 6 -8 -9 -10 -11 -12 -13 -14 -15
leaf_value=0.026110782549122469 -0.069412590419376072 -0.045929224614745745 -0.043895420283529434 0.023097430678278151 0.0013444230049592704 0.033293758544736804 -0.0030238226008500826 0.055959416858217238 0.048134051976084669 -0.0054000614549529558 -0.048074562289906392 -0.015301691235451224 -0.00058746894064208848 -0.017707292013099382
leaf_weight=44.502962696598843 5.2914115879684678 23.315325711446349 7.8103315825574091 76.603570577484788 23.942787067528116 22.716745333047584 67.371831847704016 30.373433059779927 16.842217486278969 24.480496572388802 55.216810295009054 39.936886199124274 68.254462835961021 42.961760330945253
leaf_count=393 104 737 149 1409 597 205 915 560 552 682 2401 1188 1002 650
internal_value=8.52808e-05 -0.0173808 0.0183235 0.0106443 -0.0302243 -0.00415942 0.00613402 0.0382188 0.0207573 0.0161959 -0.0366043 -0.0265913 -0.00503433 -0.0233773
internal_weight=549.621 280.754 268.867 193.991 142.412 138.342 90.0886 74.8764 117.926 101.084 118.469 63.2522 76.0648 48.2532
internal_count=11544 6797 4747 3794 4923 1874 1120 953 2643 2091 4326 1925 1151 754
is_linear=0
shrinkage=0.05


Tree=27
num_leaves=15
num_cat=0
split_feature=31 29 50 50 50 30 50 29 39 7 33 46 30 51
split_gain=65.8625 24.1772 12.5456 10.9578 10.6728 7.98153 7.51904 6.74911 6.6427 7.23708 6.52676 6.29403 5.58406 5.30432
threshold=-0.021868716925382611 -0.0027495715767145153 -0.52472174167633046 -0.61758628487586964 0.72503072023391735 -0.014678328763693569 -2.2534365653991695 -0.037786507979035371 0.051414560526609428 0.34041793644428259 0.28754374384880071 0.28110775351524359 0.0030523105524480347 -0.024363348260521885
decision_type=2 2 2 2 2 2 2 2 2 2 2 2 2 2
left_child=2 3 6 11 5 -3 -1 -4 9 10 -5 -2 -8 -12
right_child=1 4 7 8 -6 -7 12 -9 -10 -11 13 -13 -14 -15
leaf_value=-0.039058440258809002 0.011764213782138091 0.027867578011742125 0.05804040409617256 0.022454437595849891 -0.0045515306937815771 -0.036028518473352943 0.01910522167700722 0.028328728520239266 0.042648451573808178 -0.0084045248256626754 -0.077049591682777849 -0.029793314844395319 -0.021929670377272052 0.021503250697975318
leaf_weight=7.1015973668545476 12.022158832289277 5.0899443831294766 25.82246985839447 51.063947114394978 42.447524719173089 122.81746389168256 74.34105287399143 73.561831597617129 12.46761084787431 56.841533393715508 3.166769249830395 37.626698193023913 9.331179073196834 2.400065280031412
leaf_count=94 124 98 480 504 1286 4337 778 1734 164 1002 27 661 218 37
internal_value=0.000136719 -0.0128566 0.0237747 0.000163043 -0.0262762 -0.0334858 0.0103366 0.0360485 0.00800557 0.00419924 0.0168499 -0.0197304 0.014529 -0.0345599
internal_weight=536.102 345.944 190.158 175.589 170.355 127.907 90.7738 99.3843 125.94 113.472 56.6308 49.6489 83.6722 5.56683
internal_count=11544 8240 3304 2519 5721 4435 1090 2214 1734 1570 568 785 996 64
is_linear=0
shrinkage=0.05


Tree=28
num_leaves=15
num_cat=0
split_feature=31 30 50 50 7 31 50 50 46 50 31 30 50 50
split_gain=60.1971 19.7106 11.9157 10.1524 8.46411 7.09217 6.81142 6.66687 6.16338 6.56443 6.12073 5.47857 4.68938 4.36926
threshold=-0.016324311494827267 -0.0073240881320089093 -0.52472174167633046 0.59310144186019909 0.60967862606048595 -0.037713838741183274 1.0334349870681765 -1.5410982370376585 0.28475467860698706 -0.77977314591407765 0.055208873003721244 0.00171376921935007 -1.1527310013771055 0.9486452341079713
decision_type=2 2 2 2 2 2 2 2 2 2 2 2 2 2
left_child=2 7 11 4 12 -4 -7 -2 -9 -10 -5 -1 -3 -11
right_child=1 3 5 10 -6 6 -8 8 9 13 -12 -13 -14 -15
leaf_value=0.013230371508478304 -0.065822733922324045 -0.044968601515701312 0.0437815382197419 0.0039237662364080958 -0.048225208150002648 0.01025055025819791 0.058251940416440676 0.040328476010063168 -0.039013583170703997 0.00050001549241498393 -0.038337253164918428 -0.019300538519206434 -0.017573244491578186 0.0294197856017194
leaf_weight=83.573139040847309 3.2091661514714351 18.504037605598569 59.697567605646327 46.029670813048142 40.858904041815549 42.959011111990549 8.9260200417629658 12.379462754353879 8.5399364531040174 55.227716711815447 10.527138401870614 15.313984035048632 100.24865082425822 17.105639528745087
leaf_count=902 65 518 1395 1264 1944 866 263 102 161 794 337 362 2322 249
internal_value=0.000157899 -0.0137591 0.0208301 -0.0221457 -0.0285958 0.0320298 0.0185084 0.00503509 0.00747356 0.00244438 -0.00394244 0.00819253 -0.021842 0.00733906
internal_weight=523.1 312.63 210.47 216.168 159.612 111.583 51.885 96.4619 93.2528 80.8733 56.5568 98.8871 118.753 72.3334
internal_count=11544 7756 3788 6385 4784 2524 1129 1371 1306 1204 1601 1264 2840 1043
is_linear=0
shrinkage=0.05


Tree=29
num_leaves=15
num_cat=0
split_feature=31 9 9 50 50 19 50 19 19 9 50 50 45 10
split_gain=55.2064 15.242 14.1206 12.2079 8.45362 7.81113 7.36485 6.94112 7.66062 6.64599 6.37982 5.41079 5.30101 5.22711
threshold=-0.0048231650143861762 48.896018981933601 -90.93487167358397 0.20282225310802462 0.45201604068279272 -0.012958590406924484 -1.3712528347969053 -0.0062172655016183844 -0.020161261782050129 -187.33258056640622 0.67062005400657665 -0.86225029826164235 0.44805856049060827 3.5000000000000004
decision_type=2 2 2 2 2 2 2 2 2 2 2 2 2 2
left_child=2 3 6 9 13 -5 7 8 -1 -2 -3 -11 -13 -4
right_child=1 10 4 5 -6 -7 -8 -9 -10 11 -12 12 -14 -15
leaf_value=-0.033397816327754924 0.047915327466145796 -0.048700280969492825 0.0037161090759423457 0.034701701249103392 0.028035278918124192 -0.0028870696548540416 0.03536843529965613 -0.056496770785696176 0.055271632780742576 -0.039473270992718225 -0.01526269940871278 -0.0065445317105610346 -0.033118843652207429 -0.030337299074060776
leaf_weight=4.0822162767872205 3.6231183335185042 42.45525111288589 101.19397559945355 19.160426390153589 34.952121086680563 49.595534392647096 93.84609234490199 4.2709790524095288 6.0399540178477755 29.264709957176819 21.483990443899529 61.378947097808123 27.030446080956608 12.681030021747572
leaf_count=35 21 2026 2207 228 1229 1044 1175 52 36 752 770 1007 733 229
internal_value=0.000184654 -0.016348 0.0165196 -0.00924358 0.00652591 0.0075879 0.0302607 -0.0030428 0.0195117 -0.0187843 -0.037465 -0.020838 -0.0146694 -7.60514e-05
internal_weight=511.059 253.992 257.066 190.053 148.827 68.756 108.239 14.3931 10.1222 121.297 63.9392 117.674 88.4094 113.875
internal_count=11544 6581 4963 3785 3665 1272 1298 123 71 2513 2796 2492 1740 2436
is_linear=0
shrinkage=0.05


Tree=30
num_leaves=15
num_cat=0
split_feature=29 25 50 50 41 9 19 7 59 29 44 50 36 47
split_gain=54.0191 14.536 14.7338 12.4039 8.67818 6.44101 6.29388 5.63297 5.47962 6.5253 5.15825 4.66075 4.19993 5.14897
threshold=-0.014035886153578757 1.0000000180025095e-35 0.54481402039527904 -0.61758628487586964 0.075002554804086699 -144.23134613037107 -0.0068864806089550248 0.39372925460338598 0.77960565686225902 -0.046026250347495072 0.0062165749259293088 0.10064596682786943 -0.95297703146934498 41.317743301391609
decision_type=2 2 2 2 2 2 2 2 2 2 2 2 2 2
left_child=3 11 7 5 6 -1 -4 -3 9 -5 -7 -2 13 -12
right_child=1 2 4 8 -6 10 -8 -9 -10 -11 12 -13 -14 -15
leaf_value=0.034787750341681273 -0.0093863711426949922 -0.0051900609413025192 0.052340542483784273 0.055524909245885969 -0.023712681247790978 -0.027871546543178888 -0.0015626533437008883 -0.042045977198605707 -0.04253920162170103 0.024591468432009662 0.0015912461091284226 0.010327754079983062 -0.039245216626383084 0.042311712868188994
leaf_weight=14.069754335796459 90.038753011584049 11.881619092077015 8.7388852979056555 20.00013859939645 24.799009037291398 15.400055160047485 14.239332668948917 81.339720382849919 2.718485976336523 115.51637946109986 44.546038456493982 44.94682073869626 4.9929537484422388 9.4015012576710415
leaf_count=121 2409 189 113 348 794 221 356 2995 24 1749 478 1623 73 82
internal_value=0.000304448 -0.0145498 -0.0257774 0.0183924 -0.00320036 0.00376607 0.0189374 -0.0373485 0.0277468 0.0291568 -0.00210512 -0.00282206 0.00462717 0.00868765
internal_weight=502.629 275.984 140.999 226.645 47.7772 88.4103 22.9782 93.2213 138.235 135.517 74.3405 134.986 58.9405 53.9475
internal_count=11575 8479 4447 3096 1263 975 469 3184 2121 2097 854 4032 633 560
is_linear=0
shrinkage=0.05


Tree=31
num_leaves=15
num_cat=0
split_feature=29 31 50 50 30 50 31 30 32 10 18 31 30 41
split_gain=51.0784 17.1487 11.4112 11.2844 7.95686 7.90953 6.23674 5.71409 5.65024 5.45119 5.97624 4.67101 4.5909 4.48265
threshold=-0.014035886153578757 0.0098686376586556452 -0.61758628487586964 0.54481402039527904 -0.015982701443135735 0.10064596682786943 -0.023682750761508938 -0.010783004108816384 -0.29521337151527399 3.5000000000000004 14.575759410858156 -0.021443408913910385 -0.0018702566158026455 0.078490555286407485
decision_type=2 2 2 2 2 2 2 2 2 2 2 2 2 2
left_child=2 5 7 -3 -5 11 -4 8 -1 10 -9 -2 -8 -6
right_child=1 3 6 4 13 -7 12 9 -10 -11 -12 -13 -14 -15
leaf_value=0.028572825636669158 0.0055503814419832383 -0.04118822710394731 0.037913739069688257 0.049156380552301988 0.003121994396612014 0.012059757839725866 0.021165213657926021 0.011139340130650245 -0.0165472412776583 -0.046610788796429582 -0.032657884782145701 -0.018071950287867095 -0.019965712797069119 -0.032161111829910514
leaf_weight=30.40108722646255 28.950570646644337 70.786260400083847 68.558308717620093 5.2463532388210288 16.032052578171715 53.887868959674961 58.882093530759448 30.13083919743076 8.99043928273022 7.4869704138254738 10.504249964840708 75.507732556783594 7.6676873763790345 20.529361975291977
leaf_count=262 704 2711 1366 70 413 1752 593 334 107 117 155 2109 162 720
internal_value=0.000474275 -0.014106 0.0182191 -0.0290234 -0.00842674 -0.00349873 0.0273297 0.00415359 0.0182749 -0.0074058 -0.000182328 -0.011525 0.0164262 -0.0166896
internal_weight=493.562 270.94 222.622 112.594 41.8078 158.346 135.108 87.5136 39.3915 48.1221 40.6351 104.458 66.5498 36.5614
internal_count=11575 8479 3096 3914 1203 4565 2121 975 369 606 489 2813 755 1133
is_linear=0
shrinkage=0.05


Tree=32
num_leaves=15
num_cat=0
split_feature=9 50 31 50 31 31 19 47 9 47 33 50 34 19
split_gain=48.8751 12.6888 11.3454 11.7468 10.8625 5.87809 5.0955 4.9564 4.94987 4.70257 4.0641 4.18583 5.31908 3.85521
threshold=-34.533988952636712 0.0805538445711136 0.0056397675070911655 0.55694642663002025 -0.025789381004869934 -0.037713838741183274 -0.012567922472953795 41.701595306396491 -144.23134613037107 14.044569015502931 0.069521069526672377 -1.5771498680114744 -5.1475791931152335 -0.0047151045873761168
decision_type=2 2 2 2 2 2 2 2 2 2 2 2 2 2
left_child=1 4 7 -4 9 -3 -5 -2 -6 -1 11 12 -10 -13
right_child=2 5 3 6 8 -7 -8 -9 10 -11 -12 13 -14 -15
leaf_value=-0.030218976642217839 -0.016602936995758877 0.052900954975332905 -0.041363846981818178 0.024981507889112051 0.034825822779609959 0.022924396239812066 -0.017060092663796409 0.0052697685229656207 0.041077552376334946 0.021018956958625892 -0.062112532547619885 0.0072380778612696432 -0.060551120276479443 -0.017327841756282956
leaf_weight=4.703336384613066 51.050856996895163 21.839006827154662 67.911801805254072 9.3575645425007661 6.8637220989912739 65.108178498092457 31.36357377137756 52.571917465873412 1.6000145664438603 93.50376429289463 3.50113512109965 39.054488823516294 6.5915246130898577 27.019938791723689
leaf_count=68 1384 703 2830 189 67 995 1048 1953 11 1189 62 455 132 489
internal_value=0.000607417 0.0147293 -0.017342 -0.0286321 0.00725164 0.0304538 -0.00739909 -0.00550605 -0.00587666 0.0185651 -0.00946906 -0.00698728 -0.0407005 -0.00280771
internal_weight=482.041 269.785 212.256 108.633 182.838 86.9472 40.7211 103.623 84.6308 98.2071 77.7671 74.266 8.19154 66.0744
internal_count=11575 4171 7404 4067 2473 1698 1237 3337 1216 1257 1149 1087 143 944
is_linear=0
shrinkage=0.05


Tree=33
num_leaves=15
num_cat=0
split_feature=29 9 50 25 47 44 50 19 31 61 31 7 27 28
split_gain=47.1583 13.9142 13.6024 7.23847 8.20048 7.00292 6.19668 5.98842 5.73191 4.36779 4.20126 5.00953 4.24405 4.18077
threshold=-0.0016629346646368501 -99.95660018920897 0.089707497507333769 1.0000000180025095e-35 65.815307617187514 0.0099639310501515883 -0.29091534018516535 0.0063374920282512912 -0.057167615741491311 1.0773320794105532 0.010721212252974512 0.3762479573488236 0.014569698832929136 -0.013417869340628384
decision_type=2 2 2 2 2 2 2 2 2 2 2 2 2 2
left_child=1 6 5 13 -5 -3 7 8 -1 -9 12 -12 -4 -2
right_child=3 2 10 4 -6 -7 -8 9 -10 -11 11 -13 -14 -15
leaf_value=0.046461811566483657 0.045256637277257483 -0.01991774551306898 0.019811836279899148 -0.04094506659833487 -0.0049467262429977793 0.0035591031525252902 0.041382976246777697 0.018842591532029503 0.011185211335151272 -0.059640015877969979 -0.060529340238858642 0.010888571108601992 0.051165500393847166 -0.012835375092923124
leaf_weight=16.780769515316933 3.252050611190497 51.115103208343498 48.939456188425538 63.388146702898666 21.081858694989933 83.905339614255354 42.404234751447802 3.0906249345280221 36.696074862033129 4.1575466783251613 2.9188861873699379 15.463422080501912 13.84677820667275 65.026211146439891
leaf_count=152 36 1046 958 2831 651 1412 652 44 362 49 37 231 575 2539
internal_value=0.000674308 0.0116044 0.00439562 -0.0221749 -0.0319607 -0.0053286 0.0267161 0.0164742 0.0222548 -0.026175 0.0205714 -0.000451722 0.0267265 -0.0100685
internal_weight=472.067 319.318 216.189 152.748 84.47 135.02 103.129 60.725 53.4768 7.24817 81.1685 18.3823 62.7862 68.2783
internal_count=11575 5518 4259 6057 3482 2458 1259 607 514 93 1801 268 1533 2575
is_linear=0
shrinkage=0.05


Tree=34
num_leaves=15
num_cat=0
split_feature=29 31 50 50 50 30 31 31 31 33 39 29 47 30
split_gain=43.0641 13.1837 10.8802 8.09916 7.17067 5.50641 5.34166 4.85015 4.39598 4.62774 4.28948 4.09496 4.96294 3.57671
threshold=-0.0016629346646368501 -0.025789381004869934 0.12079433351755144 -1.2965648174285886 -0.029166580177843567 -0.010591213591396807 0.01199511392042041 0.051870251074433334 0.028105106204748157 0.69492706656456005 0.051414560526609428 -0.021132116205990311 35.50842475891114 -1.0000000180025095e-35
decision_type=2 2 2 2 2 2 2 2 2 2 2 2 2 2
left_child=1 3 11 -1 6 -5 -2 13 10 -10 -4 12 -3 -6
right_child=4 2 8 5 7 -7 -8 -9 9 -11 -12 -13 -14 -15
leaf_value=-0.0032801362863169232 -0.019982222158092942 -0.018089520705967109 0.017616473042125939 0.040372158821791515 0.0069146790156719906 0.018306183342620647 -0.049815709664550942 -0.035925485650840437 -0.043939717330248262 0.040903191316891525 0.060009311776041879 -0.014605736440389316 0.021250517101678142 -0.015849432228812747
leaf_weight=24.661558808584232 30.214241001332994 12.878810263238845 52.479555779136717 51.761565342181711 28.908835148788057 62.30200456676539 29.804695149417967 17.659197544096969 5.2603051876649252 2.3143549903761595 6.7325642464129478 72.538370044960175 21.23650200269185 42.80510376500024
leaf_count=309 1349 151 887 811 878 1446 1455 719 79 26 126 1488 195 1656
internal_value=0.000647344 0.0112127 0.0020231 0.022702 -0.0214298 0.0283196 -0.0347972 -0.0124529 0.0178486 -0.0180169 0.0224366 -0.00788685 0.00639933 -0.00667292
internal_weight=461.558 312.166 173.44 138.725 149.392 114.064 60.0189 89.3731 66.7868 7.57466 59.2121 106.654 34.1153 71.7139
internal_count=11575 5518 2952 2566 6057 2257 2804 3253 1118 105 1013 1834 346 2534
is_linear=0
shrinkage=0.05


Tree=35
num_leaves=15
num_cat=0
split_feature=31 50 9 31 50 50 63 30 50 36 32 59 60 3
split_gain=37.0072 12.6897 11.5432 10.4292 7.84354 7.61078 5.9379 5.71608 5.39847 4.48864 4.47408 4.14043 4.0263 4.0932
threshold=-0.00640993658453226 -0.92243441939353932 33.55968093872071 -0.057167615741491311 -0.68730756640434254 0.62877318263053905 0.62822249531745922 -0.015042100567370651 0.99814915657043468 -2.0273818969726558 -3.4014923572540279 0.23421829193830493 0.24768723547458651 0.010973128490149977
decision_type=2 2 2 2 2 2 2 2 2 2 2 2 2 2
left_child=1 9 4 -3 10 -4 -6 -8 -5 -1 11 -2 13 -11
right_child=2 3 5 8 6 -7 7 -9 -10 12 -12 -13 -14 -15
leaf_value=0.014159930460646687 -0.052333506672894131 0.046308550854323678 -0.044274557413316193 0.011222939159204656 -0.036288799429537603 -0.0092888827843802934 0.026552452555755564 -0.002913534571333691 0.042460576161003794 -0.062058987201282001 -0.036607231031623715 0.036589505790785473 -0.02440607886995004 0.017637311825715291
leaf_weight=22.469613523688167 1.8638847223483015 34.896902011358179 42.806539203884313 105.8585120106145 11.032623356906695 24.408858833630802 19.821558600233402 97.012473983675591 15.909710077045018 1.8394966265186656 28.172962271783035 4.3975911661982536 28.419831846142188 12.97685365192592
leaf_count=259 48 926 2395 2295 184 963 210 2112 579 33 757 56 510 222
internal_value=-6.14477e-05 0.0144753 -0.0141456 0.0222105 -0.00692953 -0.0315697 -0.00122549 0.00208554 0.0153043 -0.00396813 -0.0281106 0.0101193 -0.0133892 0.00774276
internal_weight=451.887 222.371 229.516 156.665 162.301 67.2154 127.867 116.834 121.768 65.7058 34.4344 6.26148 43.2362 14.8164
internal_count=11549 4824 6725 3800 3367 3358 2506 2322 2874 1024 861 104 765 255
is_linear=0
shrinkage=0.05


Tree=36
num_leaves=15
num_cat=0
split_feature=31 7 7 39 47 31 27 51 63 51 41 28 7 42
split_gain=34.6937 10.309 10.0823 8.45768 7.78797 6.19227 5.78594 5.30195 5.27681 5.33483 5.23191 4.66384 4.43227 4.45256
threshold=-0.00640993658453226 0.46666242182254797 0.29604116082191473 0.047458335757255561 72.619392395019545 -0.04061519913375377 0.027834888547658924 0.63022804260253917 0.62822249531745922 -1.2569034099578855 -0.11696388199925421 -0.020261152647435662 0.74878555536270153 -0.011638654861599205
decision_type=2 2 2 2 2 2 2 2 2 2 2 2 2 2
left_child=2 3 7 6 12 -4 8 -1 -2 -10 -7 -11 13 -3
right_child=1 4 5 -5 -6 10 -8 -9 9 11 -12 -13 -14 -15
leaf_value=0.021728395622939958 -0.042298484455849591 -0.044251339343227121 0.020223401654984544 0.041741505745868969 0.010570733303754749 -0.044835711503061107 -0.077560493996034499 0.053926798225162546 -0.048986566564987559 0.022266669238578177 0.0011653201876655349 -0.0051567063163021143 -0.053453831526669326 -0.017633090373710643
leaf_weight=70.51186107378453 8.8808707278221828 21.602432307496201 46.529189146065619 9.5473136195796524 13.658913690858752 6.7109196200035504 2.8583774100989094 15.61680580806569 5.6760014705359927 20.001926767174155 78.290414373725071 68.943928997614421 16.395903750089929 57.601979310333263
leaf_count=944 143 924 1065 111 400 135 33 508 105 206 2172 1227 1070 2506
internal_value=3.36473e-05 -0.0137262 0.0142682 -0.00333902 -0.0247455 0.0055601 -0.00738559 0.0275666 -0.00544761 -0.00198892 -0.0024665 0.0010102 -0.0297913 -0.024893
internal_weight=442.827 225.168 217.659 115.908 109.259 131.531 106.361 86.1287 103.503 94.6219 85.0013 88.9459 95.6003 79.2044
internal_count=11549 6725 4824 1825 4900 3372 1714 1452 1681 1538 2307 1433 4500 3430
is_linear=0
shrinkage=0.05


Tree=37
num_leaves=15
num_cat=0
split_feature=31 31 50 50 31 30 50 17 47 39 50 30 50 51
split_gain=32.7895 10.2935 9.606 9.00576 8.69683 6.89673 5.53971 5.17549 4.81514 4.12408 4.06194 3.9544 3.93927 3.6409
threshold=-0.00640993658453226 0.034971011802554137 -0.92243441939353932 -0.68730756640434254 -0.037173451855778687 -0.0032981275580823417 0.99814915657043468 10.871588706970217 72.619392395019545 -0.061351053416728966 0.049046203494071967 -0.018538012169301506 0.84075048565864574 -0.77711880207061756
decision_type=2 2 2 2 2 2 2 2 2 2 2 2 2 2
left_child=2 3 7 13 -4 8 -6 -1 9 -5 -3 -12 -7 -2
right_child=1 10 4 5 6 12 -8 -9 -10 -11 11 -13 -14 -15
leaf_value=0.0074152712485351146 -0.053770235159729486 -0.05103080281155651 0.034262966189685613 0.047324278012989225 0.0046132568636290464 -0.019667062251662662 0.040106384949019289 -0.023346630502315474 0.044543177126505767 0.00056917008685871025 0.029877751628278749 -0.028240963359648031 0.0098967998705401534 -0.019384713595388046
leaf_weight=43.352713340194896 10.528723767492918 19.807384486775845 67.49461261468241 5.178302787244319 70.63316119996307 49.834539887087885 13.020031472959088 19.972032491117716 8.7425071233301406 52.872110169453663 3.292331907432529 26.358853395446204 14.559611136231977 28.637012692401186
leaf_count=553 387 902 1691 47 1681 1806 428 471 117 997 45 1067 505 852
internal_value=0.000152639 -0.0134183 0.0140614 -0.00758829 0.0209107 -0.00130679 0.0101375 -0.00228674 0.00994973 0.00473989 -0.0334991 -0.0217877 -0.0129826 -0.0286284
internal_weight=434.284 219.811 214.473 170.353 151.148 131.187 83.6532 63.3247 66.7929 58.0504 49.4586 29.6512 64.3942 39.1657
internal_count=11549 6725 4824 4711 3800 3472 2109 1024 1161 1044 2014 1112 2311 1239
is_linear=0
shrinkage=0.05


Tree=38
num_leaves=15
num_cat=0
split_feature=31 29 50 47 47 28 31 24 29 29 42 34 6 30
split_gain=31.1048 12.6351 9.48566 9.28019 7.84657 6.9946 5.03736 4.36139 5.23766 4.35563 4.60227 3.66981 3.58675 3.54069
threshold=0.0049127009697258481 -0.020346930250525471 -1.1912958621978758 45.936946868896491 71.478900909423842 -0.01792038511484861 -0.021868716925382611 1.0000000180025095e-35 -0.024043748155236241 -0.040747631341218941 -0.079000804573297487 0.87662926316261303 0.020489795133471492 -0.0073240881320089093
decision_type=2 2 2 2 2 2 2 2 2 2 2 2 2 2
left_child=1 2 7 6 5 11 -3 -1 -9 13 -11 -2 -12 -4
right_child=4 3 9 -5 -6 -7 -8 8 -10 10 12 -13 -14 -15
leaf_value=0.0059304946416815886 -0.030621075983603693 0.004867094502083019 0.049193036074899443 0.013208672158107424 0.010554807509965881 -0.030514731570385808 -0.018891521291309901 -0.0697458458959299 0.025765010018817647 -0.044106887905908498 0.045843060031178551 0.023036220812314479 0.017715293666460737 -0.0076067944818846121
leaf_weight=15.808051120839083 4.623884228989481 35.080734941118862 26.543725018505942 75.033089750781073 17.464952175680082 95.025560116686393 61.285032566636801 4.8837062139064074 2.0328955492004743 2.642325058579444 13.988244890701024 10.251522343140094 59.722720014018705 3.0599744599312535
leaf_count=197 77 763 460 2459 433 3962 1690 55 16 41 154 117 1002 123
internal_value=0.000126361 0.00891356 0.0207545 2.36947e-05 -0.0205767 -0.025524 -0.0102425 -0.00855859 -0.0416737 0.0270413 0.020729 0.00635734 0.0230531 0.0433219
internal_weight=427.446 300.08 128.682 171.399 127.366 109.901 96.3658 22.7247 6.9166 105.957 76.3533 14.8754 73.711 29.6037
internal_count=11549 6960 2048 4912 4589 4156 2453 268 71 1780 1197 194 1156 583
is_linear=0
shrinkage=0.05


Tree=39
num_leaves=15
num_cat=0
split_feature=31 9 47 47 26 34 31 47 47 33 31 11 56 34
split_gain=29.4134 13.4812 10.4797 6.03088 8.63142 5.95804 4.94498 4.70699 4.17526 3.89137 3.5627 3.46725 3.36734 3.27699
threshold=0.00039853870111983275 -94.306396484374986 45.936946868896491 71.478900909423842 1.0000000180025095e-35 -2.6215728521347041 -0.023173798806965348 19.345353126525882 43.209054946899421 -0.12009256705641745 -0.066321592777967439 3.5000000000000004 0.74640268087387096 -0.31177030503749842
decision_type=2 2 2 2 2 2 2 2 2 2 2 2 2 2
left_child=1 7 6 4 11 -4 -3 -1 -6 -8 -9 -2 13 -12
right_child=3 2 5 -5 8 -7 9 10 -10 -11 12 -13 -14 -15
leaf_value=-0.028732141344660712 -0.009494220484146455 0.0039006238493133616 -0.0174706285627504 0.007868733625647318 -0.051875295190978478 0.021017487144527995 -0.0091371761367214956 0.046394851160345252 -0.02560092154699873 -0.036160488350517689 -0.0024574527437065149 0.080122011472314347 0.034543306108128273 0.025790118712376072
leaf_weight=3.9311183011159292 52.137134320742916 44.651837951911148 11.798824545403475 18.66644170624204 22.989516721529071 68.041331334738061 40.369975299574435 19.027544037351618 44.172691982967081 19.883258458256023 19.093016370898113 1.1021385169588018 30.961887948564254 22.211282955249771
leaf_count=51 1238 960 389 474 1165 2217 890 396 2167 666 219 15 391 311
internal_value=0.00022013 0.0095564 0.00167928 -0.0185756 -0.0226753 0.0153297 -0.00870964 0.0248388 -0.0345946 -0.0180547 0.0271455 -0.00763902 0.0220772 0.0127326
internal_weight=419.038 279.97 184.745 139.068 120.401 79.8402 104.905 95.2248 67.1622 60.2532 91.2937 53.2393 72.2662 41.3043
internal_count=11549 6490 5122 5059 4585 2606 2516 1368 3332 1556 1317 1253 921 530
is_linear=0
shrinkage=0.05


Tree=40
num_leaves=15
num_cat=0
split_feature=29 9 50 50 9 9 42 37 26 39 50 50 19 50
split_gain=29.5308 10.1541 10.7812 8.35115 5.05984 4.95364 5.53764 4.71457 4.62815 4.40304 5.18844 4.24645 3.97843 3.80896
threshold=-0.014035886153578757 81.389629364013686 0.4174357950687409 -0.22135889530181882 -90.93487167358397 -153.95917510986325 -0.082663580775260911 1.4319999217987063 1.0000000180025095e-35 -0.060465946793556206 -1.3712528347969053 -1.9918533563613889 -0.003422469249926507 -0.54739972949028004
decision_type=2 2 2 2 2 2 2 2 2 2 2 2 2 2
left_child=3 2 8 5 -5 -1 -7 -4 11 10 -8 -2 -6 -10
right_child=1 -3 7 4 12 6 9 -9 13 -11 -12 -13 -14 -15
leaf_value=0.034730328315893323 -0.059456312603284447 -0.039694423031156251 0.015984059033520608 0.040567956242054282 0.027226696875378542 -0.03006716628328986 -0.0097399209056157447 -0.024257484938203001 -0.042836054526319119 -0.0098150649455850392 0.024615189581525775 -0.0059830489054013142 -0.005149878612318165 -0.015147775349386113
leaf_weight=13.274857814889399 3.8824954987503579 28.09645901049953 50.981956956813519 38.623832705241512 25.79918456474843 11.709399404091526 15.311775993555782 8.4904738793411507 22.116682571126148 26.925364894676022 38.93563984092907 84.904501967568649 15.007902130004366 28.332989145288593
leaf_count=144 114 1804 1697 718 481 175 197 292 1045 397 513 2233 460 1279
internal_value=0.000543816 -0.0115594 -0.00758123 0.015335 0.0275967 0.0061604 0.00207715 0.010239 -0.0151928 0.00671405 0.0149182 -0.00832134 0.0153193 -0.0272861
internal_weight=412.394 226.806 198.709 185.588 79.4309 106.157 92.8822 59.4724 139.237 81.1728 54.2474 88.787 40.8071 50.4497
internal_count=11549 8464 6660 3085 1659 1426 1282 1989 4671 1107 710 2347 941 2324
is_linear=0
shrinkage=0.05


Tree=41
num_leaves=15
num_cat=0
split_feature=31 30 50 50 7 50 23 8 31 50 36 19 37 33
split_gain=28.2382 11.9616 9.59591 7.24159 7.87235 5.50599 4.46157 4.24963 4.15485 4.04748 4.23877 3.98554 3.93086 3.8581
threshold=-0.021868716925382611 -0.0035250403452664609 -0.30754636228084559 -0.019182670861482617 0.36684241890907293 0.84075048565864574 0.28205128014087683 0.1483123451471329 0.01199511392042041 -2.2534365653991695 -0.98145115375518788 -0.012567922472953795 1.3802186250686648 0.0099289016798138636
decision_type=2 2 2 2 2 2 2 2 2 2 2 2 2 2
left_child=2 3 9 4 6 -3 -2 -8 -5 -1 -11 -10 -7 -4
right_child=1 5 13 8 -6 12 7 -9 11 10 -12 -13 -14 -15
leaf_value=-0.033232889210124572 0.027274376837528827 -0.023938367370671957 0.044256973313972658 0.023078234132900978 -0.032593354389528449 0.014081823464605295 -0.024429461311037921 0.033427651303731806 0.018581169709916853 0.01705563744238953 -0.01048066674406505 -0.022340243251847722 -0.027354276045628886 0.01839421271524266
leaf_weight=5.6858378397300831 13.439785646274688 113.17127358546713 35.564589612040436 41.810897778064827 23.905284674765426 18.508302404196005 13.59332718094811 4.140513075515627 11.249262236349752 58.561721330595901 18.356195274798665 12.631214830122188 8.2860107908854825 24.253913592714525
leaf_count=94 150 4729 948 775 793 655 188 42 215 838 446 300 374 1002
internal_value=0.000614934 -0.00916507 0.0185194 0.00236399 -0.0110071 -0.019113 0.00554609 -0.0109209 0.013575 0.00747503 0.0104842 -0.00306359 0.00126791 0.0337707
internal_weight=403.158 260.736 142.422 120.77 55.0789 139.966 31.1736 17.7338 65.6914 82.6038 76.9179 23.8805 26.7943 59.8185
internal_count=11549 8221 3328 2463 1173 5758 380 230 1290 1378 1284 515 1029 1950
is_linear=0
shrinkage=0.05


end of trees

feature_importances:
trend_strength_20d=125
ma_dist_60d=91
ma_dist_20d=62
rsi_14=47
cci_20=40
boll_position=34
ma_dist_5d=32
log_ret_1d=12
ret_5d=12
macd_histogram=10
ma_cross_10_60=9
ret_10d=8
consecutive_down=7
macd_signal=7
mom_20d=7
ret_20d=7
vol_20d=7
ma_dist_10d=6
atr_pct_14d=5
boll_width=5
mom_10d=5
trend_strength_60d=5
ret_accel_5_20=4
rmi_20d=4
kdj_k_14d=3
ma_dispersion=3
rmi_10d=3
amplitude_1d=2
kdj_k_9d=2
ma_cross_5_20=2
macd=2
rsi_oversold=2
vol_5d=2
vol_ratio_20d=2
vol_ratio_5_20=2
vol_ratio_5d=2
vp_divergence_5d=2
consecutive_up=1
lower_shadow_ratio=1
ma_bullish_alignment=1
ret_60d=1
rsi_overbought=1
upper_shadow_ratio=1
vol_10d=1
vol_60d=1

parameters:
[boosting: gbdt]
[objective: lambdarank]
[metric: ndcg]
[tree_learner: serial]
[device_type: cpu]
[data_sample_strategy: bagging]
[data: ]
[valid: ]
[num_iterations: 50]
[learning_rate: 0.05]
[num_leaves: 15]
[num_threads: -1]
[seed: 42]
[deterministic: 0]
[force_col_wise: 0]
[force_row_wise: 0]
[histogram_pool_size: -1]
[max_depth: -1]
[min_data_in_leaf: 20]
[min_sum_hessian_in_leaf: 0.001]
[bagging_fraction: 0.8]
[pos_bagging_fraction: 1]
[neg_bagging_fraction: 1]
[bagging_freq: 5]
[bagging_seed: 400]
[bagging_by_query: 0]
[feature_fraction: 0.8]
[feature_fraction_bynode: 1]
[feature_fraction_seed: 30056]
[extra_trees: 0]
[extra_seed: 12879]
[early_stopping_round: 0]
[early_stopping_min_delta: 0]
[first_metric_only: 0]
[max_delta_step: 0]
[lambda_l1: 0]
[lambda_l2: 0]
[linear_lambda: 0]
[min_gain_to_split: 0]
[drop_rate: 0.1]
[max_drop: 50]
[skip_drop: 0.5]
[xgboost_dart_mode: 0]
[uniform_drop: 0]
[drop_seed: 17869]
[top_rate: 0.2]
[other_rate: 0.1]
[min_data_per_group: 100]
[max_cat_threshold: 32]
[cat_l2: 10]
[cat_smooth: 10]
[max_cat_to_onehot: 4]
[top_k: 20]
[monotone_constraints: ]
[monotone_constraints_method: basic]
[monotone_penalty: 0]
[feature_contri: ]
[forcedsplits_filename: ]
[refit_decay_rate: 0.9]
[cegb_tradeoff: 1]
[cegb_penalty_split: 0]
[cegb_penalty_feature_lazy: ]
[cegb_penalty_feature_coupled: ]
[path_smooth: 0]
[interaction_constraints: ]
[verbosity: -1]
[saved_feature_importance_type: 0]
[use_quantized_grad: 0]
[num_grad_quant_bins: 4]
[quant_train_renew_leaf: 0]
[stochastic_rounding: 1]
[linear_tree: 0]
[max_bin: 255]
[max_bin_by_feature: ]
[min_data_in_bin: 3]
[bin_construct_sample_cnt: 200000]
[data_random_seed: 175]
[is_enable_sparse: 1]
[enable_bundle: 1]
[use_missing: 1]
[zero_as_missing: 0]
[feature_pre_filter: 1]
[pre_partition: 0]
[two_round: 0]
[header: 0]
[label_column: ]
[weight_column: ]
[group_column: ]
[ignore_column: ]
[categorical_feature: ]
[forcedbins_filename: ]
[precise_float_parser: 0]
[parser_config_file: ]
[objective_seed: 16083]
[num_class: 1]
[is_unbalance: 0]
[scale_pos_weight: 1]
[sigmoid: 1]
[boost_from_average: 1]
[reg_sqrt: 0]
[alpha: 0.9]
[fair_c: 1]
[poisson_max_delta_step: 0.7]
[tweedie_variance_power: 1.5]
[lambdarank_truncation_level: 30]
[lambdarank_norm: 1]
[label_gain: ]
[lambdarank_position_bias_regularization: 0]
[eval_at: ]
[multi_error_top_k: 1]
[auc_mu_weights: ]
[num_machines: 1]
[local_listen_port: 12400]
[time_out: 120]
[machine_list_filename: ]
[machines: ]
[gpu_platform_id: -1]
[gpu_device_id: -1]
[gpu_use_dp: 0]
[num_gpu: 1]

end of parameters

pandas_categorical:[]
